FANN_FLO_2.1
num_layers=9
learning_rate=0.700000
connection_rate=1.000000
network_type=1
learning_momentum=0.000000
training_algorithm=2
train_error_function=0
train_stop_function=0
cascade_output_change_fraction=0.010000
quickprop_decay=-0.000100
quickprop_mu=1.750000
rprop_increase_factor=1.200000
rprop_decrease_factor=0.500000
rprop_delta_min=0.000000
rprop_delta_max=50.000000
rprop_delta_zero=0.100000
cascade_output_stagnation_epochs=12
cascade_candidate_change_fraction=0.010000
cascade_candidate_stagnation_epochs=12
cascade_max_out_epochs=150
cascade_max_cand_epochs=150
cascade_num_candidate_groups=2
bit_fail_limit=3.49999994039535520000e-001
cascade_candidate_limit=1.00000000000000000000e+003
cascade_weight_multiplier=4.00000005960464480000e-001
cascade_activation_functions_count=10
cascade_activation_functions=3 5 7 8 10 11 14 15 16 17 
cascade_activation_steepnesses_count=4
cascade_activation_steepnesses=2.50000000000000000000e-001 5.00000000000000000000e-001 7.50000000000000000000e-001 1.00000000000000000000e+000 
layer_sizes=31 1 1 1 1 1 1 1 1 
scale_included=0
neurons (num_inputs, activation_function, activation_steepness)=(0, 0, 0.00000000000000000000e+000) (0, 0, 0.00000000000000000000e+000) (0, 0, 0.00000000000000000000e+000) (0, 0, 0.00000000000000000000e+000) (0, 0, 0.00000000000000000000e+000) (0, 0, 0.00000000000000000000e+000) (0, 0, 0.00000000000000000000e+000) (0, 0, 0.00000000000000000000e+000) (0, 0, 0.00000000000000000000e+000) (0, 0, 0.00000000000000000000e+000) (0, 0, 0.00000000000000000000e+000) (0, 0, 0.00000000000000000000e+000) (0, 0, 0.00000000000000000000e+000) (0, 0, 0.00000000000000000000e+000) (0, 0, 0.00000000000000000000e+000) (0, 0, 0.00000000000000000000e+000) (0, 0, 0.00000000000000000000e+000) (0, 0, 0.00000000000000000000e+000) (0, 0, 0.00000000000000000000e+000) (0, 0, 0.00000000000000000000e+000) (0, 0, 0.00000000000000000000e+000) (0, 0, 0.00000000000000000000e+000) (0, 0, 0.00000000000000000000e+000) (0, 0, 0.00000000000000000000e+000) (0, 0, 0.00000000000000000000e+000) (0, 0, 0.00000000000000000000e+000) (0, 0, 0.00000000000000000000e+000) (0, 0, 0.00000000000000000000e+000) (0, 0, 0.00000000000000000000e+000) (0, 0, 0.00000000000000000000e+000) (0, 0, 0.00000000000000000000e+000) (31, 14, 5.00000000000000000000e-001) (32, 15, 5.00000000000000000000e-001) (33, 15, 2.50000000000000000000e-001) (34, 14, 7.50000000000000000000e-001) (35, 15, 5.00000000000000000000e-001) (36, 15, 2.50000000000000000000e-001) (37, 14, 1.00000000000000000000e+000) (38, 14, 5.00000000000000000000e-001) 
connections (connected_to_neuron, weight)=(2859915654, -3.68698798120021820000e-002) (2859915655, 7.35013306140899660000e-001) (2859915656, -1.90696924924850460000e-001) (2859915657, 3.05483669042587280000e-001) (2859915658, -3.85149806737899780000e-001) (2859915659, 3.17866921424865720000e-001) (2859915660, 2.82222926616668700000e-001) (2859915661, 2.81425476074218750000e-001) (2859915662, 7.24201351404190060000e-002) (2859915663, -7.30728149414062500000e-001) (2859915664, 1.05475783348083500000e+000) (2859915665, 5.72438314557075500000e-002) (2859915666, -7.94930160045623780000e-001) (2859915667, -3.81851881742477420000e-001) (2859915668, -2.74820357561111450000e-001) (2859915669, -1.57427203655242920000e+000) (2859915670, -1.69861972332000730000e+000) (2859915671, -6.15510940551757810000e-001) (2859915672, 8.69810402393341060000e-001) (2859915673, 4.84789705276489260000e+000) (2859915674, 5.52880239486694340000e+000) (2859915675, 4.46729469299316410000e+000) (2859915676, 4.04614686965942380000e+000) (2859915677, 1.06593036651611330000e+000) (2859915678, 9.59023177623748780000e-001) (2859915679, -1.68997561931610110000e+000) (2859915680, 1.27876365184783940000e+000) (2859915681, -2.35812020301818850000e+000) (2859915682, 2.63165807723999020000e+000) (2859915683, 3.67940354347229000000e+000) (2859915684, 3.67914581298828130000e+000) (1425960596, 8.16829395294189450000e+000) (1425960596, 4.25262737274169920000e+000) (1425960596, 2.96911740303039550000e+000) (1425960596, 1.95699012279510500000e+000) (1425960596, 1.55413138866424560000e+000) (1425960596, 1.97987127304077150000e+000) (1425960596, -3.77227592468261720000e+000) (1425960596, 2.38139152526855470000e+000) (1425960596, 1.93697845935821530000e+000) (1425960596, 1.27516233921051030000e+000) (1425960596, 1.32188618183135990000e+000) (1425960596, 2.91603803634643550000e+000) (1425960596, 8.76871013641357420000e+000) (1425960596, 2.71916333585977550000e-002) (1425960596, -7.11029481887817380000e+000) (1425960596, 1.33939409255981450000e+000) (1425960596, 2.63617634773254390000e+000) (1425960596, 3.25660133361816410000e+000) (1425960596, 6.96098899841308590000e+000) (1425960596, 4.70103645324707030000e+000) (1425960596, 3.24235439300537110000e+000) (1425960596, 3.37972998619079590000e+000) (1425960596, 4.84993410110473630000e+000) (1425960596, -3.94246459007263180000e-001) (1425960596, 1.50541329383850100000e+000) (1425960596, 6.15064144134521480000e-001) (1425960596, 1.06589233875274660000e+000) (1425960596, -4.53063547611236570000e-001) (1425960596, -1.13157486915588380000e+000) (1425960596, 8.34151089191436770000e-001) (1425960596, -6.11474990844726560000e-001) (1425960596, 6.14254698157310490000e-002) (1425960596, 8.92829895019531250000e-001) (1425960596, -6.97354674339294430000e-001) (1425960596, -5.36307954788208010000e+000) (1425960596, 1.67486166954040530000e+000) (1425960596, 2.00404214859008790000e+000) (1425960596, 1.26110296249389650000e+001) (1425960596, 3.16844081878662110000e+000) (1425960596, 9.28294658660888670000e+000) (1425960596, 7.36169052124023440000e+000) (1425960596, 1.29698114395141600000e+001) (1425960596, 2.92324686050415040000e+000) (1425960596, -4.53936910629272460000e+000) (1425960596, -6.28764486312866210000e+000) (1425960596, -1.00577516555786130000e+001) (1425960596, 1.35422992706298830000e+000) (1425960596, 3.17250281572341920000e-001) (1425960596, -3.15871685743331910000e-001) (1425960596, 2.41057801246643070000e+000) (1425960596, 9.63795852661132810000e+000) (1425960596, -6.39242792129516600000e+000) (1425960596, -7.19548082351684570000e+000) (1425960596, 2.50512480735778810000e+000) (1425960596, -6.53319478034973140000e-001) (1425960596, -6.41359388828277590000e-001) (1425960596, 3.55682826042175290000e+000) (1425960596, 1.14375936985015870000e+000) (1425960596, -6.86336135864257810000e+000) (1425960596, 5.79867064952850340000e-001) (1425960596, 2.95863986015319820000e+000) (1425960596, -3.09998452663421630000e-001) (1425960596, -2.00987744331359860000e+000) (1425960596, -1.35105419158935550000e+000) (1425960596, 1.01101331710815430000e+001) (1425960596, 1.94054090976715090000e+000) (1425960596, -3.94591271877288820000e-001) (1425960596, -1.73010432720184330000e+000) (1425960596, 1.69078373908996580000e+000) (1425960596, 9.96256530284881590000e-001) (1425960596, 3.81727635860443120000e-001) (1425960596, 1.52321636676788330000e+000) (1425960596, 2.51134610176086430000e+000) (1425960596, 3.18678951263427730000e+000) (1425960596, 1.34168779850006100000e+000) (1425960596, 2.38427853584289550000e+000) (1425960596, 1.39789271354675290000e+000) (1425960596, -9.85738933086395260000e-002) (1425960596, 1.03856313228607180000e+000) (1425960596, 1.79139435291290280000e+000) (1425960596, 7.05072760581970210000e-001) (1425960596, 7.15209543704986570000e-001) (1425960596, 2.83313304185867310000e-001) (1425960596, 1.62582182884216310000e+000) (1425960596, 1.99326920509338380000e+000) (1425960596, 3.51258426904678340000e-001) (1425960596, 1.45823860168457030000e+000) (1425960596, -8.77745532989501950000e+000) (1425960596, 1.49405920505523680000e+000) (1425960596, 1.92876064777374270000e+000) (1425960596, 4.60802984237670900000e+000) (1425960596, 6.11301326751708980000e+000) (1425960596, 1.84005951881408690000e+000) (1425960596, 1.25022387504577640000e+000) (1425960596, 2.25128769874572750000e+000) (1425960596, -3.53710085153579710000e-001) (1425960596, 4.82800155878067020000e-001) (1425960596, -1.42890894412994380000e+000) (1425960596, 4.26747590303421020000e-001) (1425960596, -6.16484355926513670000e+000) (1425960596, 1.28223085403442380000e+000) (1425960596, -1.41986235976219180000e-002) (1425960596, 2.06922841072082520000e+000) (1425960596, 1.45508885383605960000e+000) (1425960596, 1.37395238876342770000e+000) (1425960596, -1.43165457248687740000e+000) (1425960596, 2.30709457397460940000e+000) (1425960596, 2.05040097236633300000e+000) (1425960596, 3.69161939620971680000e+000) (1425960596, 3.45651197433471680000e+000) (1425960596, 5.60022306442260740000e+000) (1425960596, 4.14960241317749020000e+000) (1425960596, 3.54882550239562990000e+000) (1425960596, 1.89663255214691160000e+000) (1425960596, -1.03497493267059330000e+000) (1425960596, -2.62514138221740720000e+000) (1425960596, -5.02747893333435060000e-001) (1425960596, 5.66361188888549800000e-001) (1425960596, 3.90886247158050540000e-001) (1425960596, 2.15007066726684570000e+000) (1425960596, 3.95277833938598630000e+000) (1425960596, 7.03332960605621340000e-001) (1425960596, -1.06753155589103700000e-001) (1425960596, -1.75742879509925840000e-001) (1425960596, 1.50478029251098630000e+000) (1425960596, 1.87325584888458250000e+000) (1425960596, 2.39469742774963380000e+000) (1425960596, 3.69138050079345700000e+000) (1425960596, 2.03924059867858890000e+000) (1425960596, -1.93875896930694580000e+000) (1425960596, 6.35803163051605220000e-001) (1425960596, 2.47784447669982910000e+000) (1425960596, 2.34497413039207460000e-001) (1425960596, 9.14561212062835690000e-001) (1425960596, 3.87787539511919020000e-003) (1425960596, -7.88729488849639890000e-001) (1425960596, -1.24762642383575440000e+000) (1425960596, -3.42180848121643070000e+000) (1425960596, -5.01197338104248050000e+000) (1425960596, -5.59394896030426030000e-001) (1425960596, -1.29768383502960210000e+000) (1425960596, 3.42959493398666380000e-001) (1425960596, 1.05823764801025390000e+001) (1425960596, -2.58461236953735350000e+000) (1425960596, -5.74811887741088870000e+000) (1425960596, -5.63593327999114990000e-001) (1425960596, 2.77508678436279300000e+001) (1425960596, 4.37639856338500980000e+000) (1425960596, 3.04690390825271610000e-001) (1425960596, 1.24190902709960940000e+000) (1425960596, 1.65486025810241700000e+000) (1425960596, -9.19895708560943600000e-001) (1425960596, -8.37852060794830320000e-001) (1425960596, 8.39794635772705080000e+000) (1425960596, 1.30256330966949460000e+000) (1425960596, 1.74334633350372310000e+000) (1425960596, 1.11434064805507660000e-001) (1425960596, 3.66035103797912600000e+000) (1425960596, -1.28102135658264160000e+000) (1425960596, -4.33903980255126950000e+000) (1425960596, -2.13677954673767090000e+000) (1425960596, -3.93925571441650390000e+000) (1425960596, -6.75687742233276370000e+000) (1425960596, 1.33714711666107180000e+000) (1425960596, -2.95390903949737550000e-001) (1425960596, -1.04850168228149410000e+001) (1425960596, -1.48492336273193360000e+000) (1425960596, 2.20266437530517580000e+000) (1425960596, 6.65198040008544920000e+000) (1425960596, 2.64694523811340330000e+000) (1425960596, -7.01345205307006840000e-001) (1425960596, 2.50936436653137210000e+000) (1425960596, 2.29039716720581050000e+000) (1425960596, 2.38026738166809080000e+000) (1425960596, 2.10408091545104980000e+000) (1425960596, 1.71967852115631100000e+000) (1425960596, 5.22500693798065190000e-001) (1425960596, -4.10673904418945310000e+000) (1425960596, 4.66903001070022580000e-001) (1425960596, 1.15176892280578610000e+000) (1425960596, -1.70437961816787720000e-001) (1425960596, 1.70603942871093750000e+000) (1425960596, 7.31835842132568360000e-001) (1425960596, 5.03739535808563230000e-001) (1425960596, 1.02379477024078370000e+000) (1425960596, 4.60563325881958010000e+000) (1425960596, 1.51860475540161130000e+000) (1425960596, 1.69791233539581300000e+000) (1425960596, 9.72176611423492430000e-001) (1425960596, 2.15464735031127930000e+000) (1425960596, 1.37934720516204830000e+000) (1425960596, 1.62168526649475100000e+000) (1425960596, -1.61646986007690430000e+000) (1425960596, -5.73073053359985350000e+000) (1425960596, 8.52548554539680480000e-002) (1425960596, 7.54790782928466800000e-001) (1425960596, 8.99063110351562500000e-001) (1425960596, 3.85128259658813480000e+000) (1425960596, 1.50162041187286380000e+000) (1425960596, 2.18308591842651370000e+000) (1425960596, 5.16030550003051760000e-001) (1425960596, 1.98340046405792240000e+000) (1425960596, -3.46675664186477660000e-001) (1425960596, 1.13560009002685550000e+000) (1425960596, 9.01297450065612790000e-001) (1425960596, 7.54626810550689700000e-001) (1425960596, 2.29880976676940920000e+000) (1425960596, 2.82007843255996700000e-001) (1425960596, -1.63475852459669110000e-002) (1425960596, 1.97090297937393190000e-001) (1425960596, -3.68114978075027470000e-001) (1425960596, -4.27597016096115110000e-001) (1425960596, 2.99032896757125850000e-001) (1425960596, -3.47456075251102450000e-002) (1425960596, -5.55753886699676510000e-001) (1425960596, 2.57238417863845830000e-001) (1425960596, 8.29206943511962890000e-001) (1425960596, -8.47830697894096370000e-002) (1425960596, 4.26516860723495480000e-001) (1425960596, -4.38060939311981200000e-001) (1425960596, -4.12650704383850100000e-001) (1425960596, 2.17218622565269470000e-001) (1425960596, 6.87566101551055910000e-001) (1425960596, 6.00257575511932370000e-001) (1425960596, -8.98768603801727290000e-001) (1425960596, -4.49803024530410770000e-002) (1425960596, -3.40240478515625000000e-001) (1425960596, 9.74228322505950930000e-001) (1425960596, -3.07427406311035160000e-001) (1425960596, -2.18241915106773380000e-001) (1425960596, 2.89446771144866940000e-001) (1425960596, 5.40307641029357910000e-001) (1425960596, 5.04042655229568480000e-002) (1425960596, -3.17401856184005740000e-001) (1425960596, -1.21424600481987000000e-001) (1425960596, 6.20488403365015980000e-003) (1425960596, -4.74837869405746460000e-001) (1425960596, 9.88131821155548100000e-001) (1425960596, -4.55686211585998540000e-001) (1425960596, 3.37964743375778200000e-001) (1425960596, -3.11746090650558470000e-001) (1425960596, 3.42334121465682980000e-001) (1425960596, 3.08339804410934450000e-001) (1425960596, 3.75116556882858280000e-001) (1425960596, 2.87260651588439940000e-001) 
