FANN_FLO_2.1
num_layers=3
learning_rate=0.300000
connection_rate=1.000000
network_type=0
learning_momentum=0.500000
training_algorithm=2
train_error_function=0
train_stop_function=0
cascade_output_change_fraction=0.010000
quickprop_decay=-0.000100
quickprop_mu=1.750000
rprop_increase_factor=1.200000
rprop_decrease_factor=0.500000
rprop_delta_min=0.000000
rprop_delta_max=50.000000
rprop_delta_zero=0.100000
cascade_output_stagnation_epochs=12
cascade_candidate_change_fraction=0.010000
cascade_candidate_stagnation_epochs=12
cascade_max_out_epochs=150
cascade_max_cand_epochs=150
cascade_num_candidate_groups=2
bit_fail_limit=3.49999994039535520000e-001
cascade_candidate_limit=1.00000000000000000000e+003
cascade_weight_multiplier=4.00000005960464480000e-001
cascade_activation_functions_count=10
cascade_activation_functions=3 5 7 8 10 11 14 15 16 17 
cascade_activation_steepnesses_count=4
cascade_activation_steepnesses=2.50000000000000000000e-001 5.00000000000000000000e-001 7.50000000000000000000e-001 1.00000000000000000000e+000 
layer_sizes=31 61 7 
scale_included=0
neurons (num_inputs, activation_function, activation_steepness)=(0, 0, 0.00000000000000000000e+000) (0, 0, 0.00000000000000000000e+000) (0, 0, 0.00000000000000000000e+000) (0, 0, 0.00000000000000000000e+000) (0, 0, 0.00000000000000000000e+000) (0, 0, 0.00000000000000000000e+000) (0, 0, 0.00000000000000000000e+000) (0, 0, 0.00000000000000000000e+000) (0, 0, 0.00000000000000000000e+000) (0, 0, 0.00000000000000000000e+000) (0, 0, 0.00000000000000000000e+000) (0, 0, 0.00000000000000000000e+000) (0, 0, 0.00000000000000000000e+000) (0, 0, 0.00000000000000000000e+000) (0, 0, 0.00000000000000000000e+000) (0, 0, 0.00000000000000000000e+000) (0, 0, 0.00000000000000000000e+000) (0, 0, 0.00000000000000000000e+000) (0, 0, 0.00000000000000000000e+000) (0, 0, 0.00000000000000000000e+000) (0, 0, 0.00000000000000000000e+000) (0, 0, 0.00000000000000000000e+000) (0, 0, 0.00000000000000000000e+000) (0, 0, 0.00000000000000000000e+000) (0, 0, 0.00000000000000000000e+000) (0, 0, 0.00000000000000000000e+000) (0, 0, 0.00000000000000000000e+000) (0, 0, 0.00000000000000000000e+000) (0, 0, 0.00000000000000000000e+000) (0, 0, 0.00000000000000000000e+000) (0, 0, 0.00000000000000000000e+000) (31, 7, 5.00000000000000000000e-001) (31, 7, 5.00000000000000000000e-001) (31, 7, 5.00000000000000000000e-001) (31, 7, 5.00000000000000000000e-001) (31, 7, 5.00000000000000000000e-001) (31, 7, 5.00000000000000000000e-001) (31, 7, 5.00000000000000000000e-001) (31, 7, 5.00000000000000000000e-001) (31, 7, 5.00000000000000000000e-001) (31, 7, 5.00000000000000000000e-001) (31, 7, 5.00000000000000000000e-001) (31, 7, 5.00000000000000000000e-001) (31, 7, 5.00000000000000000000e-001) (31, 7, 5.00000000000000000000e-001) (31, 7, 5.00000000000000000000e-001) (31, 7, 5.00000000000000000000e-001) (31, 7, 5.00000000000000000000e-001) (31, 7, 5.00000000000000000000e-001) (31, 7, 5.00000000000000000000e-001) (31, 7, 5.00000000000000000000e-001) (31, 7, 5.00000000000000000000e-001) (31, 7, 5.00000000000000000000e-001) (31, 7, 5.00000000000000000000e-001) (31, 7, 5.00000000000000000000e-001) (31, 7, 5.00000000000000000000e-001) (31, 7, 5.00000000000000000000e-001) (31, 7, 5.00000000000000000000e-001) (31, 7, 5.00000000000000000000e-001) (31, 7, 5.00000000000000000000e-001) (31, 7, 5.00000000000000000000e-001) (31, 7, 5.00000000000000000000e-001) (31, 7, 5.00000000000000000000e-001) (31, 7, 5.00000000000000000000e-001) (31, 7, 5.00000000000000000000e-001) (31, 7, 5.00000000000000000000e-001) (31, 7, 5.00000000000000000000e-001) (31, 7, 5.00000000000000000000e-001) (31, 7, 5.00000000000000000000e-001) (31, 7, 5.00000000000000000000e-001) (31, 7, 5.00000000000000000000e-001) (31, 7, 5.00000000000000000000e-001) (31, 7, 5.00000000000000000000e-001) (31, 7, 5.00000000000000000000e-001) (31, 7, 5.00000000000000000000e-001) (31, 7, 5.00000000000000000000e-001) (31, 7, 5.00000000000000000000e-001) (31, 7, 5.00000000000000000000e-001) (31, 7, 5.00000000000000000000e-001) (31, 7, 5.00000000000000000000e-001) (31, 7, 5.00000000000000000000e-001) (31, 7, 5.00000000000000000000e-001) (31, 7, 5.00000000000000000000e-001) (31, 7, 5.00000000000000000000e-001) (31, 7, 5.00000000000000000000e-001) (31, 7, 5.00000000000000000000e-001) (31, 7, 5.00000000000000000000e-001) (31, 7, 5.00000000000000000000e-001) (31, 7, 5.00000000000000000000e-001) (31, 7, 5.00000000000000000000e-001) (31, 7, 5.00000000000000000000e-001) (0, 7, 5.00000000000000000000e-001) (61, 14, 5.00000000000000000000e-001) (61, 14, 5.00000000000000000000e-001) (61, 14, 5.00000000000000000000e-001) (61, 14, 5.00000000000000000000e-001) (61, 14, 5.00000000000000000000e-001) (61, 14, 5.00000000000000000000e-001) (0, 14, 5.00000000000000000000e-001) 
connections (connected_to_neuron, weight)=(0, 1.54771232604980470000e+000) (1, 3.68903970718383790000e+000) (2, 8.19543063640594480000e-001) (3, 1.78095245361328130000e+000) (4, 7.95792520046234130000e-001) (5, 1.25034666061401370000e+000) (6, 1.34161424636840820000e+000) (7, 1.12389397621154790000e+000) (8, 4.16443258523941040000e-001) (9, 1.25558948516845700000e+000) (10, 1.05612635612487790000e+000) (11, 8.64517018198966980000e-002) (12, 1.97721626609563830000e-002) (13, 8.81444513797760010000e-001) (14, 1.13799130916595460000e+000) (15, 1.20637798309326170000e+000) (16, 1.26856684684753420000e+000) (17, 1.53068351745605470000e+000) (18, 1.62244987487792970000e+000) (19, 1.09955739974975590000e+000) (20, 1.29866123199462890000e+000) (21, 3.57347559928894040000e+000) (22, 2.02827572822570800000e+000) (23, 1.91801571846008300000e+000) (24, 1.89993095397949220000e+000) (25, 2.01631903648376460000e+000) (26, 3.56544327735900880000e+000) (27, 3.55045318603515630000e+000) (28, 3.66030430793762210000e+000) (29, 3.59384298324584960000e+000) (30, 8.76992511749267580000e+000) (0, 8.46023917198181150000e-001) (1, 1.75820744037628170000e+000) (2, 5.81353783607482910000e-001) (3, 1.78060138225555420000e+000) (4, 5.56044340133666990000e-001) (5, 8.24197769165039060000e-001) (6, 8.30441594123840330000e-001) (7, 8.73794913291931150000e-001) (8, 1.11247992515563960000e+000) (9, 1.33987224102020260000e+000) (10, 1.91890716552734380000e+000) (11, 1.10432994365692140000e+000) (12, 9.83148366212844850000e-002) (13, 8.65616202354431150000e-001) (14, 1.09597814083099370000e+000) (15, 8.44601869583129880000e-001) (16, 8.59256386756896970000e-001) (17, 7.94784903526306150000e-001) (18, 9.43399548530578610000e-001) (19, 1.18145787715911870000e+000) (20, 9.10873889923095700000e-001) (21, 1.73335397243499760000e+000) (22, 1.91705775260925290000e+000) (23, 1.93903517723083500000e+000) (24, 2.08394503593444820000e+000) (25, 2.08535480499267580000e+000) (26, 2.02574777603149410000e+000) (27, 4.45157861709594730000e+000) (28, 4.55028438568115230000e+000) (29, 4.45383691787719730000e+000) (30, 4.43937158584594730000e+000) (0, -2.73099452257156370000e-001) (1, -8.75703752040863040000e-001) (2, -4.84882831573486330000e-001) (3, -8.23033452033996580000e-001) (4, -7.42607414722442630000e-001) (5, -6.88188433647155760000e-001) (6, -6.73387408256530760000e-001) (7, -4.94542747735977170000e-001) (8, -3.72699022293090820000e-001) (9, -1.08749337494373320000e-001) (10, -6.02629408240318300000e-002) (11, 7.22799636423587800000e-003) (12, 1.74244642257690430000e-001) (13, 9.61806848645210270000e-002) (14, 2.34206765890121460000e-002) (15, 1.76515147089958190000e-001) (16, -1.22854039072990420000e-001) (17, -1.41359910368919370000e-001) (18, -2.56911635398864750000e-001) (19, -3.20724815130233760000e-001) (20, -2.65444397926330570000e-001) (21, -3.33611071109771730000e-001) (22, -3.30296874046325680000e-001) (23, -2.54039555788040160000e-001) (24, -1.72306954860687260000e-001) (25, -1.04185581207275390000e-001) (26, -1.26493930816650390000e-001) (27, -1.15239143371582030000e-001) (28, -1.53562963008880620000e-001) (29, -2.10142642259597780000e-001) (30, -2.69999891519546510000e-001) (0, 9.86187338829040530000e-001) (1, 1.19707012176513670000e+000) (2, 1.06263148784637450000e+000) (3, 5.01920580863952640000e-001) (4, 2.06487253308296200000e-001) (5, 2.11040526628494260000e-001) (6, 2.47759282588958740000e-001) (7, 2.39134967327117920000e-001) (8, 7.78015516698360440000e-003) (9, 7.85486847162246700000e-002) (10, 4.67707812786102290000e-002) (11, -5.35008125007152560000e-002) (12, 5.92036768794059750000e-002) (13, 6.19929954409599300000e-002) (14, 1.20801024604588750000e-003) (15, 1.14024728536605830000e-001) (16, 3.25731933116912840000e-001) (17, 5.77271819114685060000e-001) (18, 5.03089725971221920000e-001) (19, 6.14967107772827150000e-001) (20, 2.88891047239303590000e-001) (21, 5.75168609619140630000e-001) (22, 7.36361563205718990000e-001) (23, 6.02047562599182130000e-001) (24, 8.62785816192626950000e-001) (25, 8.93049657344818120000e-001) (26, 8.27385425567626950000e-001) (27, 9.59819495677948000000e-001) (28, 8.23735475540161130000e-001) (29, 9.64262902736663820000e-001) (30, 1.13103306293487550000e+000) (0, -6.26181125640869140000e-001) (1, -2.70654940605163570000e+000) (2, -1.53735840320587160000e+000) (3, -3.64281415939331050000e+000) (4, -9.14406418800354000000e-001) (5, -1.23821592330932620000e+000) (6, -1.08978438377380370000e+000) (7, -8.25138747692108150000e-001) (8, -1.62029922008514400000e+000) (9, -6.77887678146362300000e-001) (10, -3.47182416915893550000e+000) (11, -1.52862608432769780000e+000) (12, -9.73592281341552730000e-001) (13, -5.89677035808563230000e-001) (14, -5.11349439620971680000e-001) (15, -6.11233413219451900000e-001) (16, -6.11056506633758540000e-001) (17, -6.03604018688201900000e-001) (18, -6.84451282024383540000e-001) (19, -1.06910765171051030000e+000) (20, -5.67074477672576900000e-001) (21, -1.59694433212280270000e+000) (22, -1.59900736808776860000e+000) (23, -1.66413807868957520000e+000) (24, -4.01219177246093750000e+000) (25, -3.11596488952636720000e+000) (26, -7.42936611175537110000e+000) (27, -2.11724319458007810000e+001) (28, -7.40224838256835940000e+000) (29, -7.39389324188232420000e+000) (30, -7.30138778686523440000e+000) (0, -6.72107636928558350000e-001) (1, -9.94592130184173580000e-001) (2, -4.69917893409729000000e-001) (3, -5.13924241065979000000e-001) (4, -3.34923505783081050000e-001) (5, -2.96849757432937620000e-001) (6, -4.74901497364044190000e-001) (7, -3.23967665433883670000e-001) (8, -1.31731227040290830000e-001) (9, -1.88377991318702700000e-001) (10, -1.57742574810981750000e-001) (11, -2.08206430077552800000e-001) (12, -1.08788296580314640000e-001) (13, -7.45231583714485170000e-002) (14, -8.35685729980468750000e-002) (15, -2.05520525574684140000e-001) (16, -2.37456057220697400000e-002) (17, -2.70781312137842180000e-002) (18, -1.16580083966255190000e-001) (19, -3.22718024253845210000e-001) (20, -3.04743170738220210000e-001) (21, -3.35525631904602050000e-001) (22, -3.87527585029602050000e-001) (23, -4.13407653570175170000e-001) (24, -4.34129089117050170000e-001) (25, -4.10783141851425170000e-001) (26, -4.28544372320175170000e-001) (27, -4.39616173505783080000e-001) (28, -4.14828807115554810000e-001) (29, -8.84884059429168700000e-001) (30, -1.56156921386718750000e+000) (0, -3.21022599935531620000e-001) (1, -2.35860213637351990000e-001) (2, -1.34522333741188050000e-001) (3, -2.99183338880538940000e-001) (4, -2.52552479505538940000e-001) (5, -1.24598354101181030000e-001) (6, -1.80639117956161500000e-001) (7, -2.20495089888572690000e-001) (8, -9.45673510432243350000e-002) (9, -1.29833459854125980000e-001) (10, -2.36461922526359560000e-001) (11, -2.24694311618804930000e-001) (12, -1.91713199019432070000e-001) (13, -1.65868610143661500000e-001) (14, -1.68682336807250980000e-001) (15, -2.31640130281448360000e-001) (16, -1.93926498293876650000e-001) (17, -2.57580012083053590000e-001) (18, -1.03100053966045380000e-001) (19, -9.31025072932243350000e-002) (20, -1.35296106338500980000e-001) (21, -5.87474415078759190000e-003) (22, 1.36259952560067180000e-002) (23, -1.72061294317245480000e-001) (24, 2.30803322046995160000e-002) (25, -1.46188482642173770000e-001) (26, 2.20549535006284710000e-002) (27, -9.06586796045303340000e-002) (28, -1.48581072688102720000e-001) (29, -3.20350050926208500000e-001) (30, -3.11152040958404540000e-001) (0, 2.05865097045898440000e+000) (1, 2.17700600624084470000e+000) (2, 2.07357811927795410000e+000) (3, 2.69062900543212890000e+000) (4, 1.83383929729461670000e+000) (5, 1.88851416110992430000e+000) (6, 1.76333105564117430000e+000) (7, 3.77045512199401860000e+000) (8, 4.08363914489746090000e+000) (9, 4.30071258544921870000e+000) (10, 2.60727906227111820000e+000) (11, 3.80667948722839360000e+000) (12, 6.14493072032928470000e-001) (13, 1.86447858810424800000e+000) (14, 2.02862167358398440000e+000) (15, 1.93215441703796390000e+000) (16, 1.84757781028747560000e+000) (17, 2.30932712554931640000e+000) (18, 2.20030617713928220000e+000) (19, 2.07209706306457520000e+000) (20, 1.91496694087982180000e+000) (21, 9.47687721252441410000e+000) (22, 4.37304449081420900000e+000) (23, 9.55046653747558590000e+000) (24, 1.03459987640380860000e+001) (25, 2.25241184234619140000e+001) (26, 2.26342506408691410000e+001) (27, 2.25494976043701170000e+001) (28, 2.26776771545410160000e+001) (29, 2.25388221740722660000e+001) (30, 2.25159034729003910000e+001) (0, -5.57458221912384030000e-001) (1, -4.40551578998565670000e-001) (2, -3.32463473081588750000e-001) (3, -1.51985839009284970000e-001) (4, 2.49114289879798890000e-001) (5, 1.43614247441291810000e-001) (6, 1.78520292043685910000e-001) (7, 2.13902384042739870000e-001) (8, 1.41673341393470760000e-001) (9, 7.77353525161743160000e-001) (10, 8.01206052303314210000e-001) (11, 7.66796171665191650000e-001) (12, 8.07262539863586430000e-001) (13, 6.91582560539245610000e-001) (14, 1.82567641139030460000e-001) (15, 1.43187776207923890000e-001) (16, 4.66688454151153560000e-001) (17, 1.23934959992766380000e-002) (18, -7.32510611414909360000e-002) (19, -4.16563898324966430000e-001) (20, -1.30795851349830630000e-001) (21, -2.70312875509262080000e-001) (22, -1.70744627714157100000e-001) (23, -7.67763495445251460000e-001) (24, -9.14965033531188960000e-001) (25, -8.12216222286224370000e-001) (26, -7.09213197231292720000e-001) (27, -7.32693374156951900000e-001) (28, -8.19168090820312500000e-001) (29, -7.51174926757812500000e-001) (30, -8.94296169281005860000e-001) (0, 1.00543856620788570000e+000) (1, 9.97241497039794920000e-001) (2, 1.10335636138916020000e+000) (3, 1.08427751064300540000e+000) (4, 1.06177330017089840000e+000) (5, 1.36742532253265380000e+000) (6, 1.32843601703643800000e+000) (7, 1.06619501113891600000e+000) (8, 2.23335289955139160000e+000) (9, 1.15975284576416020000e+000) (10, 1.02041637897491460000e+000) (11, 2.05596566200256350000e+000) (12, 9.88115906715393070000e-001) (13, 9.14574801921844480000e-001) (14, 5.14216661453247070000e-001) (15, 9.08229112625122070000e-001) (16, 1.84878146648406980000e+000) (17, 2.16620469093322750000e+000) (18, 2.20012784004211430000e+000) (19, 2.18665742874145510000e+000) (20, 2.17066025733947750000e+000) (21, 1.71114277839660640000e+000) (22, 1.58145546913146970000e+000) (23, 1.60500884056091310000e+000) (24, 1.10478484630584720000e+000) (25, 1.04395115375518800000e+000) (26, 1.59036660194396970000e+000) (27, 1.66409087181091310000e+000) (28, 1.57542514801025390000e+000) (29, 1.71526265144348140000e+000) (30, 1.56008100509643550000e+000) (0, -1.27939060330390930000e-001) (1, -2.48843625187873840000e-001) (2, -1.70775681734085080000e-001) (3, -1.56582474708557130000e-001) (4, -1.12665295600891110000e-001) (5, -1.07281953096389770000e-001) (6, -1.51587426662445070000e-001) (7, -1.38977542519569400000e-001) (8, -9.97063964605331420000e-002) (9, 2.11459845304489140000e-002) (10, 8.94520198926329610000e-004) (11, -3.37856747210025790000e-002) (12, 1.93576700985431670000e-002) (13, 1.24270997941493990000e-001) (14, -2.01942492276430130000e-002) (15, 9.60411503911018370000e-002) (16, -3.13514657318592070000e-002) (17, -1.65559500455856320000e-001) (18, -2.00251847505569460000e-001) (19, -2.54468321800231930000e-001) (20, -2.21362799406051640000e-001) (21, -1.77329778671264650000e-001) (22, -3.23472231626510620000e-001) (23, -2.88550376892089840000e-001) (24, -3.68042588233947750000e-001) (25, -3.04118007421493530000e-001) (26, -2.96491086483001710000e-001) (27, -3.24198573827743530000e-001) (28, -2.91727900505065920000e-001) (29, -3.41794997453689580000e-001) (30, -8.31994295120239260000e-001) (0, 1.01713228225708010000e+000) (1, 1.29006958007812500000e+000) (2, 8.71699392795562740000e-001) (3, 7.34510123729705810000e-001) (4, 2.25322723388671880000e-001) (5, 2.41875469684600830000e-001) (6, 2.46393859386444090000e-001) (7, 2.20799982547760010000e-001) (8, 2.03221842646598820000e-001) (9, 2.94947475194931030000e-001) (10, 1.10773490741848950000e-002) (11, -1.97354368865489960000e-002) (12, 8.15181061625480650000e-002) (13, 1.05114303529262540000e-001) (14, 1.14561825990676880000e-001) (15, 1.40422418713569640000e-001) (16, 3.01906317472457890000e-001) (17, 4.43867266178131100000e-001) (18, 5.89875519275665280000e-001) (19, 6.34724259376525880000e-001) (20, 1.69738143682479860000e-001) (21, 5.70908367633819580000e-001) (22, 6.58560037612915040000e-001) (23, 6.34573221206665040000e-001) (24, 9.03718590736389160000e-001) (25, 8.07856738567352290000e-001) (26, 9.92369592189788820000e-001) (27, 8.51512610912323000000e-001) (28, 8.44200611114501950000e-001) (29, 8.49797546863555910000e-001) (30, 1.13283979892730710000e+000) (0, -4.01635766029357910000e-001) (1, -4.89953964948654170000e-001) (2, -5.28308093547821040000e-001) (3, -5.56384682655334470000e-001) (4, -5.84796130657196040000e-001) (5, -4.09069836139678960000e-001) (6, -3.80687534809112550000e-001) (7, -1.84488356113433840000e-001) (8, -8.60997140407562260000e-002) (9, -5.98658263683319090000e-001) (10, -4.91046518087387080000e-001) (11, -2.34227199107408520000e-002) (12, -5.24548351764678960000e-001) (13, -4.95770245790481570000e-001) (14, -4.96185630559921260000e-001) (15, -4.91863995790481570000e-001) (16, -2.65579313039779660000e-001) (17, -5.57609200477600100000e-001) (18, -7.50437676906585690000e-001) (19, -7.77946233749389650000e-001) (20, -6.87546610832214360000e-001) (21, -8.09769928455352780000e-001) (22, -8.54874908924102780000e-001) (23, -8.89665007591247560000e-001) (24, -8.37968230247497560000e-001) (25, -8.46073687076568600000e-001) (26, -1.55996215343475340000e+000) (27, -1.68495607376098630000e+000) (28, -1.58497440814971920000e+000) (29, -1.55376708507537840000e+000) (30, -1.65929090976715090000e+000) (0, 9.83898401260375980000e-001) (1, 1.20549714565277100000e+000) (2, 8.95207881927490230000e-001) (3, 1.25501489639282230000e+000) (4, 5.62490105628967290000e-001) (5, 6.20375871658325200000e-001) (6, 6.33303105831146240000e-001) (7, 8.74506473541259770000e-001) (8, 1.16538274288177490000e+000) (9, 1.04054045677185060000e+000) (10, 1.25411164760589600000e+000) (11, 9.46635961532592770000e-001) (12, 3.18339318037033080000e-001) (13, 5.37036657333374020000e-001) (14, 1.18496489524841310000e+000) (15, 4.30572897195816040000e-001) (16, 5.99176526069641110000e-001) (17, 8.22142899036407470000e-001) (18, 9.26226258277893070000e-001) (19, 1.07775163650512700000e+000) (20, 9.64220643043518070000e-001) (21, 1.38503670692443850000e+000) (22, 1.35682630538940430000e+000) (23, 1.32717537879943850000e+000) (24, 1.31748914718627930000e+000) (25, 1.26696419715881350000e+000) (26, 1.28378546237945560000e+000) (27, 1.25818121433258060000e+000) (28, 2.93464207649230960000e+000) (29, 2.90826272964477540000e+000) (30, 3.04676365852355960000e+000) (0, 7.53663718700408940000e-001) (1, 7.47218430042266850000e-001) (2, 7.69513726234436040000e-001) (3, 7.36970603466033940000e-001) (4, 8.21307063102722170000e-001) (5, 8.55619311332702640000e-001) (6, 9.45218920707702640000e-001) (7, 9.51761960983276370000e-001) (8, 1.99212574958801270000e+000) (9, 8.93876135349273680000e-001) (10, 8.89760017395019530000e-001) (11, 1.30436623096466060000e+000) (12, 9.08383965492248540000e-001) (13, 8.03924679756164550000e-001) (14, 8.31639051437377930000e-001) (15, 7.91411638259887700000e-001) (16, 9.11263287067413330000e-001) (17, 1.74574077129364010000e+000) (18, 1.64001572132110600000e+000) (19, 1.71694445610046390000e+000) (20, 1.64316511154174800000e+000) (21, 1.57101249694824220000e+000) (22, 1.51135063171386720000e+000) (23, 1.51651418209075930000e+000) (24, 1.55718183517456050000e+000) (25, 1.56269943714141850000e+000) (26, 1.57558405399322510000e+000) (27, 1.51260185241699220000e+000) (28, 1.48260307312011720000e+000) (29, 1.40509450435638430000e+000) (30, 1.51309013366699220000e+000) (0, 5.14907777309417720000e-001) (1, 5.07195174694061280000e-001) (2, 3.96259844303131100000e-001) (3, 4.83442455530166630000e-001) (4, 4.50532317161560060000e-001) (5, 3.00247728824615480000e-001) (6, 2.95948028564453130000e-001) (7, 3.84198755025863650000e-001) (8, 4.00739282369613650000e-001) (9, 3.85657489299774170000e-001) (10, 3.92023473978042600000e-001) (11, 3.99033129215240480000e-001) (12, 3.04520189762115480000e-001) (13, 3.93509447574615480000e-001) (14, -4.62814904749393460000e-002) (15, -4.72092367708683010000e-002) (16, -9.17649343609809880000e-002) (17, -1.15763984620571140000e-001) (18, 2.83339750021696090000e-002) (19, -1.17613337934017180000e-001) (20, -8.20929929614067080000e-002) (21, -7.02826902270317080000e-002) (22, 4.95355054736137390000e-002) (23, -6.91472291946411130000e-001) (24, -5.40953457355499270000e-001) (25, -6.17479324340820310000e-001) (26, -6.79515480995178220000e-001) (27, -7.74095416069030760000e-001) (28, -1.17468917369842530000e+000) (29, -1.32564711570739750000e+000) (30, -1.80396461486816410000e+000) (0, -3.53112488985061650000e-001) (1, -3.53869348764419560000e-001) (2, -1.94809168577194210000e-001) (3, -1.85867518186569210000e-001) (4, -1.86272501945495610000e-001) (5, -1.20488844811916350000e-001) (6, -9.45122614502906800000e-002) (7, -2.44841933250427250000e-001) (8, -2.69329160451889040000e-001) (9, -1.81178510189056400000e-001) (10, -7.24419429898262020000e-002) (11, -7.66935646533966060000e-002) (12, -1.76436096429824830000e-001) (13, -2.42821589112281800000e-001) (14, -1.52697056531906130000e-001) (15, -2.06511780619621280000e-001) (16, -1.40538871288299560000e-001) (17, -2.14629456400871280000e-001) (18, -1.76043003797531130000e-001) (19, -2.04100891947746280000e-001) (20, -9.29314568638801570000e-002) (21, -7.78496637940406800000e-002) (22, -1.57604277133941650000e-001) (23, -1.48467332124710080000e-001) (24, -1.84435337781906130000e-001) (25, -1.27196565270423890000e-001) (26, -7.58293569087982180000e-002) (27, 1.39777678996324540000e-002) (28, 2.43587768636643890000e-003) (29, 1.79754327982664110000e-002) (30, -6.48859068751335140000e-002) (0, 7.12812662124633790000e-001) (1, 8.60689342021942140000e-001) (2, 7.70808875560760500000e-001) (3, 8.30653905868530270000e-001) (4, 7.18001067638397220000e-001) (5, 8.99751842021942140000e-001) (6, 6.99940800666809080000e-001) (7, 6.40015423297882080000e-001) (8, 3.08778524398803710000e-001) (9, 4.56855893135070800000e-001) (10, 4.57374691963195800000e-001) (11, -1.87251884490251540000e-002) (12, 1.06144156306982040000e-002) (13, 4.50520396232604980000e-001) (14, 3.67042690515518190000e-001) (15, 3.79054367542266850000e-001) (16, 3.77723813056945800000e-001) (17, 4.19288665056228640000e-001) (18, 4.56788718700408940000e-001) (19, 3.32997262477874760000e-001) (20, 4.12385612726211550000e-001) (21, 3.95698815584182740000e-001) (22, 5.01466512680053710000e-001) (23, 4.01252895593643190000e-001) (24, 4.66096669435501100000e-001) (25, 4.67530995607376100000e-001) (26, 5.09578049182891850000e-001) (27, 4.41554427146911620000e-001) (28, 3.79756301641464230000e-001) (29, 9.13298279047012330000e-002) (30, 9.35932993888854980000e-002) (0, 6.72528147697448730000e-001) (1, 8.05221199989318850000e-001) (2, 9.48777318000793460000e-001) (3, 8.95533144474029540000e-001) (4, 5.89020729064941410000e-001) (5, 6.13567352294921880000e-001) (6, 7.47356474399566650000e-001) (7, 6.59435331821441650000e-001) (8, 7.19929158687591550000e-001) (9, 7.70218908786773680000e-001) (10, 9.66228783130645750000e-001) (11, 5.68654656410217290000e-001) (12, 3.22609722614288330000e-001) (13, 4.95984941720962520000e-001) (14, 7.37800240516662600000e-001) (15, 6.36151134967803960000e-001) (16, 4.88466054201126100000e-001) (17, 4.43556427955627440000e-001) (18, 4.59828376770019530000e-001) (19, 6.42469346523284910000e-001) (20, 5.81489980220794680000e-001) (21, 8.61404120922088620000e-001) (22, 8.53011727333068850000e-001) (23, 1.63324666023254390000e+000) (24, 1.70691001415252690000e+000) (25, 1.62413406372070310000e+000) (26, 1.64483380317687990000e+000) (27, 1.60296368598937990000e+000) (28, 1.55088853836059570000e+000) (29, 1.48616075515747070000e+000) (30, 1.50522208213806150000e+000) (0, -2.01400637626647950000e+000) (1, -7.17558443546295170000e-001) (2, -7.37867355346679690000e-001) (3, -3.41646611690521240000e-001) (4, -1.35094177722930910000e+000) (5, -1.36584663391113280000e+000) (6, -2.30379223823547360000e+000) (7, -1.34543645381927490000e+000) (8, -2.17673516273498540000e+000) (9, -1.24024856090545650000e+000) (10, -8.71187329292297360000e-001) (11, -2.64272427558898930000e+000) (12, -1.58074307441711430000e+000) (13, -1.02710139751434330000e+000) (14, -7.11548089981079100000e-001) (15, -2.25135707855224610000e+000) (16, -1.15724349021911620000e+000) (17, -1.05675363540649410000e+000) (18, -1.07719290256500240000e+000) (19, -1.12167537212371830000e+000) (20, -1.14773738384246830000e+000) (21, -3.50999534130096440000e-002) (22, -9.34130847454071040000e-002) (23, 4.61378395557403560000e-002) (24, 4.48442518711090090000e-001) (25, -8.41233432292938230000e-002) (26, -1.12584069371223450000e-001) (27, -3.93540561199188230000e-002) (28, 2.59379923343658450000e-001) (29, 4.16191637516021730000e-001) (30, 3.24394762516021730000e-001) (0, -9.85101535916328430000e-002) (1, -1.36505961418151860000e+000) (2, 3.18757444620132450000e-002) (3, -7.38207006454467770000e+000) (4, -6.91261231899261470000e-001) (5, -1.99766919016838070000e-001) (6, -2.55572617053985600000e-001) (7, -5.81799373030662540000e-002) (8, -3.07466119527816770000e-001) (9, -1.07301048934459690000e-001) (10, -1.99653589725494380000e+000) (11, 9.34223890304565430000e-001) (12, 2.01503887772560120000e-001) (13, 2.70372956991195680000e-001) (14, -2.50628143548965450000e-001) (15, -1.05449929833412170000e-001) (16, -1.64423540234565730000e-001) (17, -2.31293648481369020000e-001) (18, -4.47790056467056270000e-001) (19, -3.87082189321517940000e-001) (20, -1.08545884490013120000e-001) (21, -1.05775749683380130000e+000) (22, -1.10485827922821040000e+000) (23, -1.16652822494506840000e+000) (24, -1.13249492645263670000e+000) (25, -1.00206899642944340000e+000) (26, -2.03831243515014650000e+000) (27, -9.97768402099609370000e+000) (28, -2.07925510406494140000e+000) (29, -1.91100549697875980000e+000) (30, -8.35521602630615230000e+000) (0, -7.02869415283203130000e-001) (1, -7.41956293582916260000e-001) (2, -7.50452399253845210000e-001) (3, -6.89111232757568360000e-001) (4, -6.27233803272247310000e-001) (5, -6.23504519462585450000e-001) (6, -6.42363667488098140000e-001) (7, -5.55742502212524410000e-001) (8, -1.92987788468599320000e-002) (9, -2.66779083758592610000e-002) (10, -1.26555830240249630000e-001) (11, -5.58588244020938870000e-002) (12, 1.30803268402814870000e-002) (13, 6.29338547587394710000e-002) (14, -1.46504282951354980000e-001) (15, 7.59892612695693970000e-002) (16, 4.35664467513561250000e-002) (17, 5.34175150096416470000e-002) (18, 6.44526630640029910000e-002) (19, -1.35685848072171210000e-002) (20, 2.46882475912570950000e-002) (21, -2.80022267252206800000e-002) (22, -2.51437753438949580000e-001) (23, -2.72128671407699580000e-001) (24, -3.73959720134735110000e-001) (25, -3.49087893962860110000e-001) (26, -4.83260899782180790000e-001) (27, -3.37218403816223140000e-001) (28, -3.55138421058654790000e-001) (29, -4.77910697460174560000e-001) (30, -7.11487293243408200000e-001) (0, 8.10727715492248540000e-001) (1, 7.75882720947265630000e-001) (2, 8.79233658313751220000e-001) (3, 8.36491942405700680000e-001) (4, 6.19781374931335450000e-001) (5, 7.53564417362213130000e-001) (6, 7.98840343952178960000e-001) (7, 6.76248788833618160000e-001) (8, 3.70918095111846920000e-001) (9, 5.27268707752227780000e-001) (10, 2.01006203889846800000e-001) (11, 1.92778676748275760000e-001) (12, 2.58391588926315310000e-001) (13, 1.61345541477203370000e-001) (14, 1.85430079698562620000e-001) (15, 3.17333191633224490000e-001) (16, 2.00084596872329710000e-001) (17, 3.39435338973999020000e-002) (18, 3.74405860900878910000e-001) (19, -3.49544584751129150000e-002) (20, -6.99215456843376160000e-002) (21, 5.75598143041133880000e-003) (22, 5.53503930568695070000e-002) (23, -2.25467397831380370000e-003) (24, -2.18141986988484860000e-003) (25, 7.74146467447280880000e-002) (26, 1.77226930856704710000e-001) (27, 2.94213056564331050000e-001) (28, 2.96642243862152100000e-001) (29, 3.20494800806045530000e-001) (30, 1.81615382432937620000e-001) (0, -2.48566538095474240000e-001) (1, -1.48929029703140260000e-001) (2, -1.70437812805175780000e-001) (3, -1.05065234005451200000e-001) (4, -1.06743700802326200000e-001) (5, -2.27379679679870610000e-001) (6, -2.04318091273307800000e-001) (7, -1.33321970701217650000e-001) (8, -2.07802072167396550000e-001) (9, -1.32429748773574830000e-001) (10, -1.67604297399520870000e-001) (11, -1.26039355993270870000e-001) (12, -8.54937285184860230000e-002) (13, -1.22908271849155430000e-001) (14, -1.03261068463325500000e-001) (15, -6.45708590745925900000e-002) (16, -2.33034059405326840000e-001) (17, -1.93844452500343320000e-001) (18, -1.67437046766281130000e-001) (19, -1.39916300773620610000e-001) (20, -1.36028379201889040000e-001) (21, -1.55230015516281130000e-001) (22, -1.30565732717514040000e-001) (23, -2.39031329751014710000e-001) (24, -1.10295958817005160000e-001) (25, -1.06218792498111720000e-001) (26, -1.87603235244750980000e-001) (27, -1.17760725319385530000e-001) (28, -8.88422355055809020000e-002) (29, -6.71992078423500060000e-002) (30, -2.28539526462554930000e-001) (0, 9.80082631111145020000e-001) (1, 9.70298707485198970000e-001) (2, 7.78524518013000490000e-001) (3, 7.62640118598937990000e-001) (4, 7.52108514308929440000e-001) (5, 6.23098552227020260000e-001) (6, 5.57727217674255370000e-001) (7, 5.61108529567718510000e-001) (8, 5.44928133487701420000e-001) (9, 5.30243039131164550000e-001) (10, 5.08001804351806640000e-001) (11, 6.41449093818664550000e-001) (12, 9.33291465044021610000e-002) (13, 1.27862796187400820000e-001) (14, 1.25213876366615300000e-001) (15, 1.27856686711311340000e-001) (16, 1.43200919032096860000e-001) (17, 1.05395793914794920000e-001) (18, -1.13791197538375850000e-001) (19, 9.18328063562512400000e-004) (20, -8.56905654072761540000e-002) (21, -7.81771391630172730000e-002) (22, -4.41616866737604140000e-003) (23, -3.26876379549503330000e-002) (24, -7.27450102567672730000e-002) (25, -4.05550673604011540000e-002) (26, 1.46268289536237720000e-002) (27, 3.04471310228109360000e-002) (28, 2.90189143270254140000e-002) (29, 2.47586686164140700000e-002) (30, 2.47043296694755550000e-001) (0, 5.55644750595092770000e-001) (1, 1.81523394584655760000e+000) (2, 8.41708481311798100000e-001) (3, 1.83153641223907470000e+000) (4, 7.22157597541809080000e-001) (5, 1.12361788749694820000e+000) (6, 1.06226289272308350000e+000) (7, 3.33708077669143680000e-002) (8, 2.51894265413284300000e-001) (9, -3.08381635695695880000e-002) (10, 8.51071298122406010000e-001) (11, -1.53750151395797730000e-001) (12, -8.92183482646942140000e-002) (13, -1.31972819566726680000e-001) (14, 8.71963620185852050000e-001) (15, 1.28706470131874080000e-001) (16, 9.44502465426921840000e-003) (17, 8.23050022125244140000e-001) (18, 7.56906211376190190000e-001) (19, 7.50613451004028320000e-001) (20, 4.96666610240936280000e-001) (21, 5.76052486896514890000e-001) (22, 1.22022092342376710000e+000) (23, 1.04364013671875000000e+000) (24, 1.61000144481658940000e+000) (25, 1.57046890258789060000e+000) (26, 1.52410602569580080000e+000) (27, 1.41635453701019290000e+000) (28, 4.31706815958023070000e-001) (29, 1.12166702747344970000e+000) (30, 9.89690423011779790000e-001) (0, -2.66546029597520830000e-002) (1, 5.68109340965747830000e-002) (2, 3.23602706193923950000e-002) (3, -3.78728508949279790000e-002) (4, 1.18847370147705080000e-001) (5, 1.23376345634460450000e+000) (6, 5.80603361129760740000e-001) (7, 1.11372506618499760000e+000) (8, 5.23559868335723880000e-001) (9, 3.36368942260742190000e+000) (10, 1.52941834926605220000e+000) (11, 2.15273714065551760000e+000) (12, 2.15809607505798340000e+000) (13, 2.27433753013610840000e+000) (14, -8.03690217435359950000e-003) (15, 1.79581820964813230000e-001) (16, -2.54615191370248790000e-002) (17, -1.18689779192209240000e-002) (18, -9.53345447778701780000e-002) (19, -4.44466084241867070000e-001) (20, -4.03261661529541020000e-001) (21, -2.85960465669631960000e-001) (22, 4.38834577798843380000e-002) (23, 1.64446562528610230000e-001) (24, 1.31509804725646970000e+000) (25, 1.29918947815895080000e-001) (26, 2.94620931148529050000e-001) (27, 1.36013579368591310000e+000) (28, 2.04050913453102110000e-001) (29, 1.40348887443542480000e+000) (30, 3.16296219825744630000e-001) (0, 7.74811506271362300000e-001) (1, 1.19907009601593020000e+000) (2, 9.44036006927490230000e-001) (3, 1.17995393276214600000e+000) (4, 4.74297344684600830000e-001) (5, 6.56567931175231930000e-001) (6, 7.29230403900146480000e-001) (7, 1.12432849407196040000e+000) (8, 7.56266117095947270000e-001) (9, 8.59569430351257320000e-001) (10, 7.65493214130401610000e-001) (11, 9.12177801132202150000e-001) (12, 4.32233065366745000000e-001) (13, 7.04901337623596190000e-001) (14, 1.09351587295532230000e+000) (15, 7.41130471229553220000e-001) (16, 6.96557760238647460000e-001) (17, 1.10552728176116940000e+000) (18, 1.43542838096618650000e+000) (19, 1.31860232353210450000e+000) (20, 6.22142314910888670000e-001) (21, 1.22907495498657230000e+000) (22, 1.26288700103759770000e+000) (23, 1.33963274955749510000e+000) (24, 1.39385628700256350000e+000) (25, 1.37965345382690430000e+000) (26, 1.27130377292633060000e+000) (27, 1.26592051982879640000e+000) (28, 2.95933699607849120000e+000) (29, 3.01408553123474120000e+000) (30, 3.01866316795349120000e+000) (0, 8.24699461460113530000e-001) (1, 1.22962808609008790000e+000) (2, 8.34899067878723140000e-001) (3, 7.47989416122436520000e-001) (4, 7.63703227043151860000e-001) (5, 5.85572063922882080000e-001) (6, 6.23743534088134770000e-001) (7, 9.58702802658081050000e-001) (8, 3.54510521888732910000e+000) (9, 1.00300824642181400000e+000) (10, 1.39441621303558350000e+000) (11, 1.47547733783721920000e+000) (12, 7.17368245124816890000e-001) (13, 6.66248440742492680000e-001) (14, 1.15766775608062740000e+000) (15, 5.87860882282257080000e-001) (16, 8.38244140148162840000e-001) (17, 1.15522634983062740000e+000) (18, 1.20946204662323000000e+000) (19, 1.18747723102569580000e+000) (20, 7.89976537227630620000e-001) (21, 2.10363364219665530000e+000) (22, 1.99356269836425780000e+000) (23, 2.13199067115783690000e+000) (24, 4.65695714950561520000e+000) (25, 4.66147947311401370000e+000) (26, 4.59396886825561520000e+000) (27, 4.59025192260742190000e+000) (28, 4.62433385848999020000e+000) (29, 4.74068498611450200000e+000) (30, 4.77360725402832030000e+000) (0, -1.02137827873229980000e+000) (1, -6.38043165206909180000e-001) (2, -5.89514136314392090000e-001) (3, -4.79166418313980100000e-001) (4, 8.96880403161048890000e-003) (5, 2.56072759628295900000e-001) (6, -2.03734219074249270000e-001) (7, -5.23547828197479250000e-002) (8, -1.70537173748016360000e-001) (9, 9.86264124512672420000e-002) (10, 2.49010980129241940000e-001) (11, 6.23075962066650390000e-001) (12, 3.56709063053131100000e-001) (13, 2.27961003780364990000e-001) (14, 2.17323452234268190000e-001) (15, 9.52237397432327270000e-002) (16, 3.25751118361949920000e-002) (17, 1.88769295811653140000e-001) (18, 2.67174929380416870000e-001) (19, 2.11571305990219120000e-001) (20, 8.75922143459320070000e-001) (21, 1.17717707157135010000e+000) (22, 1.11021959781646730000e+000) (23, 9.93824779987335210000e-001) (24, 8.51873636245727540000e-001) (25, 1.05184531211853030000e+000) (26, 1.07292711734771730000e+000) (27, 1.24322307109832760000e+000) (28, 1.19983911514282230000e+000) (29, 1.57552194595336910000e+000) (30, 1.58655107021331790000e+000) (0, -8.01775515079498290000e-001) (1, -1.28027939796447750000e+000) (2, -4.87625926733016970000e-001) (3, 7.53156766295433040000e-002) (4, -6.25086486339569090000e-001) (5, -7.18567907810211180000e-001) (6, -6.34662926197052000000e-001) (7, -4.60384607315063480000e-001) (8, -6.47033393383026120000e-001) (9, -3.55430990457534790000e-001) (10, -5.37063062191009520000e-001) (11, -1.55087903141975400000e-001) (12, -1.91662311553955080000e-001) (13, -2.01194569468498230000e-001) (14, -5.13020873069763180000e-001) (15, -1.60862520337104800000e-001) (16, -2.45652601122856140000e-001) (17, -5.65267145633697510000e-001) (18, -6.25643312931060790000e-001) (19, -6.47068202495574950000e-001) (20, -4.43611860275268550000e-001) (21, -9.58909511566162110000e-001) (22, -1.01645338535308840000e+000) (23, -1.01085650920867920000e+000) (24, -9.35618638992309570000e-001) (25, -9.10166859626770020000e-001) (26, -1.02176952362060550000e+000) (27, -1.03603351116180420000e+000) (28, -1.08166968822479250000e+000) (29, -2.05172228813171390000e+000) (30, -2.11674904823303220000e+000) (0, 1.19732499122619630000e+000) (1, 1.37476015090942380000e+000) (2, 1.15029406547546390000e+000) (3, 1.36211371421813960000e+000) (4, 1.29424798488616940000e+000) (5, 1.94883096218109130000e+000) (6, 1.92904341220855710000e+000) (7, 1.09708976745605470000e+000) (8, 2.31745100021362300000e+000) (9, 1.18253898620605470000e+000) (10, 1.22845888137817380000e+000) (11, 1.89902770519256590000e+000) (12, 1.41796016693115230000e+000) (13, 1.81673288345336910000e+000) (14, 1.31890082359313960000e+000) (15, 1.48869824409484860000e+000) (16, 1.22985947132110600000e+000) (17, 1.24190497398376460000e+000) (18, 1.20604681968688960000e+000) (19, 1.33745551109313960000e+000) (20, 1.85815739631652830000e+000) (21, 1.19650697708129880000e+000) (22, 1.27928900718688960000e+000) (23, 1.23980545997619630000e+000) (24, 1.27217245101928710000e+000) (25, 1.31175971031188960000e+000) (26, 1.24766063690185550000e+000) (27, 1.18171215057373050000e+000) (28, 1.33702826499938960000e+000) (29, 1.35054755210876460000e+000) (30, 1.31600785255432130000e+000) (0, 1.72119545936584470000e+000) (1, 8.76575589179992680000e-001) (2, 7.63202548027038570000e-001) (3, 8.67957353591918950000e-001) (4, 1.07366061210632320000e+000) (5, 9.89655911922454830000e-001) (6, 1.06017768383026120000e+000) (7, 8.85620772838592530000e-001) (8, 1.31063175201416020000e+000) (9, 7.70563364028930660000e-001) (10, 7.91638910770416260000e-001) (11, 2.58068609237670900000e+000) (12, 8.44976425170898440000e-001) (13, 1.81620144844055180000e+000) (14, 1.59131264686584470000e+000) (15, 1.82495331764221190000e+000) (16, 1.74856781959533690000e+000) (17, 1.53268837928771970000e+000) (18, 1.55202436447143550000e+000) (19, 1.53565478324890140000e+000) (20, 1.65627241134643550000e+000) (21, 1.59071445465087890000e+000) (22, 1.66598296165466310000e+000) (23, 1.60195708274841310000e+000) (24, 1.61601972579956050000e+000) (25, 1.68587422370910640000e+000) (26, 1.70610737800598140000e+000) (27, 1.55827426910400390000e+000) (28, 1.55644941329956050000e+000) (29, 1.71811318397521970000e+000) (30, 1.60393476486206050000e+000) (0, -3.02937895059585570000e-001) (1, -7.74202346801757810000e-002) (2, -2.00719550251960750000e-001) (3, -2.27098912000656130000e-001) (4, -1.72960728406906130000e-001) (5, -1.70281291007995610000e-001) (6, -2.35531508922576900000e-001) (7, -2.06191852688789370000e-001) (8, -2.50838011503219600000e-001) (9, -4.44756895303726200000e-002) (10, -1.24334089457988740000e-001) (11, 2.22418513149023060000e-002) (12, -1.67528688907623290000e-001) (13, -1.61089479923248290000e-001) (14, -1.52788698673248290000e-001) (15, 2.25836541503667830000e-002) (16, -5.36858886480331420000e-002) (17, -2.83146817237138750000e-002) (18, -5.73516190052032470000e-002) (19, -4.70000877976417540000e-002) (20, -1.84722300618886950000e-002) (21, -9.89104509353637700000e-002) (22, -1.24691762030124660000e-001) (23, 8.92034266144037250000e-003) (24, -2.56560798734426500000e-002) (25, -1.25875815749168400000e-001) (26, 2.14544008485972880000e-003) (27, -7.97434430569410320000e-003) (28, -1.44070610404014590000e-001) (29, -1.24578230082988740000e-001) (30, -1.12963244318962100000e-001) (0, -5.73855221271514890000e-001) (1, -2.15442761778831480000e-001) (2, -2.35519617795944210000e-001) (3, -8.43620970845222470000e-002) (4, -1.86718046665191650000e-001) (5, -2.09337696433067320000e-001) (6, -7.21979662775993350000e-002) (7, -2.08782449364662170000e-001) (8, -9.37212556600570680000e-002) (9, -1.05006679892539980000e-001) (10, -2.46575623750686650000e-002) (11, -2.75872498750686650000e-002) (12, -1.21025972068309780000e-001) (13, -2.55181640386581420000e-002) (14, 1.69134922325611110000e-002) (15, -1.28451660275459290000e-001) (16, -1.13583467900753020000e-001) (17, -1.75338894128799440000e-001) (18, -3.17697436548769470000e-003) (19, 1.32841924205422400000e-002) (20, -1.58784035593271260000e-002) (21, -1.46157965064048770000e-001) (22, -1.30612298846244810000e-001) (23, -6.55487924814224240000e-002) (24, -5.33722750842571260000e-002) (25, -3.94684895873069760000e-002) (26, -1.50119170546531680000e-001) (27, -1.58297866582870480000e-001) (28, -4.66211974620819090000e-001) (29, -4.30451363325119020000e-001) (30, -4.49390530586242680000e-001) (0, -2.83131927251815800000e-001) (1, -2.20326766371726990000e-001) (2, -2.01915815472602840000e-001) (3, -2.20324024558067320000e-001) (4, -7.09893181920051570000e-002) (5, -2.38555267453193660000e-001) (6, -1.57101273536682130000e-001) (7, -2.20070123672485350000e-001) (8, -1.83796942234039310000e-001) (9, -2.32142940163612370000e-001) (10, -1.27211242914199830000e-001) (11, -2.45601177215576170000e-001) (12, -1.17308937013149260000e-001) (13, 6.43985345959663390000e-003) (14, -2.97051854431629180000e-002) (15, -1.64537966251373290000e-001) (16, -1.62530392408370970000e-002) (17, -3.43926735222339630000e-002) (18, -1.44699051976203920000e-001) (19, -5.82366287708282470000e-002) (20, -1.45529165863990780000e-001) (21, -9.33867692947387700000e-002) (22, -4.02678921818733220000e-002) (23, -6.93999528884887700000e-002) (24, -1.49325564503669740000e-001) (25, -1.77621424198150630000e-001) (26, -7.58454352617263790000e-002) (27, -1.46396026015281680000e-001) (28, -1.25174090266227720000e-001) (29, 1.08855189755558970000e-002) (30, 1.82707775384187700000e-002) (0, 1.29311263561248780000e+000) (1, 1.23777818679809570000e+000) (2, 9.82280969619750980000e-001) (3, 7.81429409980773930000e-001) (4, 6.48543179035186770000e-001) (5, 6.34492874145507810000e-001) (6, 7.01356947422027590000e-001) (7, 5.75746476650238040000e-001) (8, 3.07971328496932980000e-001) (9, 3.53424251079559330000e-001) (10, 3.13800185918807980000e-001) (11, 4.21264737844467160000e-001) (12, 3.96679878234863280000e-001) (13, 2.86291599273681640000e-001) (14, 3.42053383588790890000e-001) (15, 2.60755717754364010000e-001) (16, 2.53950297832489010000e-001) (17, 1.64533779025077820000e-001) (18, 3.07868778705596920000e-001) (19, 3.15778911113739010000e-001) (20, 2.88795292377471920000e-001) (21, 1.48164153099060060000e-001) (22, 2.28822126984596250000e-001) (23, 3.28425407409667970000e-001) (24, 1.51270836591720580000e-001) (25, 1.78596243262290950000e-001) (26, 3.26527178287506100000e-001) (27, -1.69129729270935060000e-001) (28, -1.27375572919845580000e-001) (29, 2.38146428018808360000e-002) (30, -9.16191190481185910000e-002) (0, 1.34914970397949220000e+000) (1, 1.33464777469635010000e+000) (2, 1.37384819984436040000e+000) (3, 1.47234308719635010000e+000) (4, 8.17147552967071530000e-001) (5, 1.14949035644531250000e+000) (6, 1.08370053768157960000e+000) (7, 1.03698849678039550000e+000) (8, 1.85380315780639650000e+000) (9, 1.33194756507873540000e+000) (10, 1.47573053836822510000e+000) (11, 2.15589857101440430000e+000) (12, 1.56019341945648190000e+000) (13, 1.05191659927368160000e+000) (14, 8.15060436725616460000e-002) (15, 1.06228041648864750000e+000) (16, 1.60766291618347170000e+000) (17, 2.10400986671447750000e+000) (18, 2.27254605293273930000e+000) (19, 2.11383652687072750000e+000) (20, 2.14993882179260250000e+000) (21, 1.64479637145996090000e+000) (22, 1.46745276451110840000e+000) (23, 1.62518596649169920000e+000) (24, 1.53027629852294920000e+000) (25, 1.61404085159301760000e+000) (26, 1.66395545005798340000e+000) (27, 1.61556053161621090000e+000) (28, 1.54179978370666500000e+000) (29, 1.46474885940551760000e+000) (30, 1.55641770362854000000e+000) (0, -3.00311863422393800000e-001) (1, -1.56453385949134830000e-001) (2, -7.48879253864288330000e-001) (3, -3.94917577505111690000e-002) (4, -2.98343002796173100000e-001) (5, -1.37844279408454900000e-001) (6, -1.21514812111854550000e-001) (7, -1.30533918738365170000e-001) (8, -1.65427744388580320000e-001) (9, -1.14157069474458690000e-002) (10, -1.82311937212944030000e-001) (11, 1.77975326776504520000e-001) (12, -1.98712497949600220000e-001) (13, -2.49771907925605770000e-001) (14, -3.97365719079971310000e-001) (15, -5.05544543266296390000e-001) (16, -3.44497293233871460000e-001) (17, -1.92246928811073300000e-001) (18, -1.77909776568412780000e-001) (19, -8.16040188074111940000e-002) (20, -3.40821415185928340000e-001) (21, -3.64040464162826540000e-001) (22, -1.20130145549774170000e+000) (23, -1.36897814273834230000e+000) (24, -1.30924308300018310000e+000) (25, -1.36877071857452390000e+000) (26, -1.22782218456268310000e+000) (27, -8.33073019981384280000e-001) (28, -7.64603734016418460000e-001) (29, -7.86039233207702640000e-001) (30, -6.41324877738952640000e-001) (0, -1.50409710407257080000e+000) (1, -8.61494660377502440000e-001) (2, -2.88714736700057980000e-001) (3, -3.28790456056594850000e-001) (4, -3.24133485555648800000e-001) (5, -2.27026477456092830000e-001) (6, -2.44635120034217830000e-001) (7, -3.33734303712844850000e-001) (8, -8.86847451329231260000e-002) (9, -1.79660841822624210000e-002) (10, -2.34851792454719540000e-001) (11, 5.82405179738998410000e-002) (12, 4.36571501195430760000e-002) (13, -4.90768104791641240000e-002) (14, -1.38389527797698970000e-001) (15, -1.02799959480762480000e-001) (16, -9.07271876931190490000e-002) (17, -2.48814329504966740000e-001) (18, -2.12944015860557560000e-001) (19, -3.81385944783687590000e-002) (20, -2.01029181480407710000e-002) (21, -4.73509244620800020000e-002) (22, -2.30162013322114940000e-002) (23, -2.96244025230407710000e-001) (24, -3.57297420501708980000e-001) (25, -3.19260358810424800000e-001) (26, -2.67618536949157710000e-001) (27, -2.10922956466674800000e-001) (28, -2.42514714598655700000e-001) (29, -4.92564767599105830000e-001) (30, -1.21654498577117920000e+000) (0, 5.80325186252593990000e-001) (1, 6.99362039566040040000e-001) (2, 3.92931699752807620000e-001) (3, 1.11307471990585330000e-001) (4, 1.34201750159263610000e-001) (5, 1.93979561328887940000e-001) (6, 8.11438411474227910000e-002) (7, 1.64633870124816890000e-001) (8, 1.45883902907371520000e-001) (9, 2.06845819950103760000e-001) (10, -1.78889960050582890000e-001) (11, -2.48238086700439450000e-001) (12, -2.59230554103851320000e-001) (13, -2.77064979076385500000e-001) (14, -2.47383594512939450000e-001) (15, -2.36171439290046690000e-001) (16, -1.57002702355384830000e-001) (17, 2.64708280563354490000e-001) (18, 3.74101638793945310000e-001) (19, -2.37453147768974300000e-001) (20, -2.83162474632263180000e-001) (21, 1.89848542213439940000e-001) (22, 2.88798898458480830000e-001) (23, 2.96208530664443970000e-001) (24, 3.97891700267791750000e-001) (25, 4.97262984514236450000e-001) (26, 5.16269326210021970000e-001) (27, 3.75772595405578610000e-001) (28, 5.44076919555664060000e-001) (29, 4.09573853015899660000e-001) (30, 5.11137068271636960000e-001) (0, -6.08810126781463620000e-001) (1, -6.04780793190002440000e-001) (2, -3.67510020732879640000e-001) (3, -3.51695775985717770000e-001) (4, 1.12568475306034090000e-002) (5, 6.40339702367782590000e-002) (6, -2.96184010803699490000e-002) (7, -3.32447397522628310000e-003) (8, -3.62590253353118900000e-002) (9, 3.52215170860290530000e-001) (10, 4.95122909545898440000e-001) (11, 3.89049887657165530000e-001) (12, 6.02573990821838380000e-001) (13, 3.99413704872131350000e-001) (14, 5.06182491779327390000e-001) (15, 3.65508615970611570000e-001) (16, 8.89015570282936100000e-002) (17, -2.29848444461822510000e-001) (18, -2.01662480831146240000e-001) (19, -1.99004113674163820000e-001) (20, -1.08229868113994600000e-001) (21, -9.61449071764945980000e-002) (22, -2.27547466754913330000e-001) (23, -3.35970997810363770000e-001) (24, -1.08015465736389160000e+000) (25, -7.27134346961975100000e-001) (26, -1.04667699337005620000e+000) (27, -1.04266703128814700000e+000) (28, -1.85509607195854190000e-001) (29, -3.42507421970367430000e-001) (30, -1.11436486244201660000e+000) (0, 6.85225903987884520000e-001) (1, 6.13503396511077880000e-001) (2, 5.08718192577362060000e-001) (3, 4.11320894956588750000e-001) (4, 3.99774819612503050000e-001) (5, 2.74360924959182740000e-001) (6, 2.54988372325897220000e-001) (7, 4.06190812587738040000e-001) (8, 1.58356815576553340000e-001) (9, 2.52961277961730960000e-001) (10, 2.81025260686874390000e-001) (11, 2.36078992486000060000e-001) (12, 4.78433221578598020000e-002) (13, 1.60679072141647340000e-001) (14, 1.53150528669357300000e-001) (15, 2.99366325139999390000e-001) (16, 1.17243453860282900000e-001) (17, 1.97822123765945430000e-001) (18, 1.42005443572998050000e-001) (19, 2.85975158214569090000e-001) (20, 2.21668571233749390000e-001) (21, 1.20295211672782900000e-001) (22, -1.08618564903736110000e-001) (23, -8.87638181447982790000e-002) (24, -9.07901898026466370000e-002) (25, -1.10055617988109590000e-001) (26, 1.37908132746815680000e-002) (27, -3.03742047399282460000e-002) (28, 3.90410833060741420000e-002) (29, -3.70697602629661560000e-002) (30, 6.62749856710433960000e-002) (0, 7.49691188335418700000e-001) (1, 1.45461118221282960000e+000) (2, 1.10405302047729490000e+000) (3, 1.08568096160888670000e+000) (4, 5.55210649967193600000e-001) (5, 6.73569917678833010000e-001) (6, 5.11192083358764650000e-001) (7, 4.44741308689117430000e-001) (8, -1.12453382462263110000e-002) (9, 4.24014210700988770000e-001) (10, 1.04934501647949220000e+000) (11, 1.48432869464159010000e-002) (12, 9.28793475031852720000e-002) (13, 2.96592146158218380000e-001) (14, 7.75558769702911380000e-001) (15, 2.42392912507057190000e-001) (16, 5.73217332363128660000e-001) (17, 4.58646416664123540000e-001) (18, 5.93613445758819580000e-001) (19, 6.59078478813171390000e-001) (20, 6.05771601200103760000e-001) (21, 9.59158420562744140000e-001) (22, 8.91792714595794680000e-001) (23, 1.19035232067108150000e+000) (24, 1.04813420772552490000e+000) (25, 1.62990272045135500000e+000) (26, 1.55572056770324710000e+000) (27, 2.66640830039978030000e+000) (28, 1.66325843334198000000e+000) (29, 1.62984168529510500000e+000) (30, 3.48181414604187010000e+000) (0, -2.52670496702194210000e-001) (1, -2.62515395879745480000e-001) (2, -2.55425304174423220000e-001) (3, -2.57858157157897950000e-001) (4, -2.37002462148666380000e-001) (5, -7.36845135688781740000e-002) (6, -1.11012548208236690000e-001) (7, -2.31239572167396550000e-001) (8, -2.01802328228950500000e-001) (9, -6.36675506830215450000e-002) (10, -1.55586481094360350000e-001) (11, -1.52852088212966920000e-001) (12, -1.25264227390289310000e-001) (13, -6.54863864183425900000e-002) (14, -1.22157551348209380000e-001) (15, -7.10100680589675900000e-002) (16, -1.15211740136146550000e-001) (17, -6.82329684495925900000e-002) (18, -1.78547918796539310000e-001) (19, -1.60689026117324830000e-001) (20, -1.13296374678611760000e-001) (21, -1.60012632608413700000e-001) (22, -2.50436246395111080000e-001) (23, -2.12401673197746280000e-001) (24, -2.27996140718460080000e-001) (25, -1.91023513674736020000e-001) (26, -3.83867397904396060000e-002) (27, -6.99663236737251280000e-002) (28, -1.01631373167037960000e-001) (29, 4.12275120615959170000e-002) (30, -3.68852727115154270000e-002) (0, -5.81770956516265870000e-001) (1, -6.37264132499694820000e-001) (2, -4.39473509788513180000e-001) (3, -4.41316723823547360000e-001) (4, 4.12715859711170200000e-002) (5, 6.08181357383728030000e-001) (6, 8.89217853546142580000e-002) (7, 1.45025312900543210000e-001) (8, 5.29104173183441160000e-001) (9, 5.16616344451904300000e-001) (10, 6.85500741004943850000e-001) (11, 6.73940658569335940000e-001) (12, 6.55300557613372800000e-001) (13, 6.75362765789031980000e-001) (14, 6.10146701335906980000e-001) (15, -3.96846979856491090000e-002) (16, -4.38391774892807010000e-001) (17, -3.24370205402374270000e-001) (18, -2.39903643727302550000e-001) (19, -3.59691619873046880000e-001) (20, -3.61078500747680660000e-001) (21, -1.84739306569099430000e-001) (22, -2.68003433942794800000e-001) (23, -1.09649574756622310000e+000) (24, -1.18282997608184810000e+000) (25, -9.25387501716613770000e-001) (26, -9.79409933090209960000e-001) (27, -8.10853064060211180000e-001) (28, -7.87397205829620360000e-001) (29, -6.75349056720733640000e-001) (30, -8.52613329887390140000e-001) (0, 4.68840181827545170000e-001) (1, 5.99443256855010990000e-001) (2, 2.98545777797698970000e-001) (3, 1.29372811317443850000e+000) (4, 1.10185170173645020000e+000) (5, 1.11312496662139890000e+000) (6, 9.03096854686737060000e-001) (7, 8.86489391326904300000e-001) (8, 7.11929023265838620000e-001) (9, 4.88426417112350460000e-001) (10, 4.03373211622238160000e-001) (11, 2.23016023635864260000e-001) (12, 3.76916170120239260000e-001) (13, 4.44034814834594730000e-001) (14, 4.47287976741790770000e-001) (15, 4.05293196439743040000e-001) (16, 4.72328126430511470000e-001) (17, 5.42147636413574220000e-001) (18, 5.95797657966613770000e-001) (19, 4.93568331003189090000e-001) (20, 3.95150959491729740000e-001) (21, 5.89857399463653560000e-001) (22, 5.57539224624633790000e-001) (23, 5.94288408756256100000e-001) (24, 5.86268424987792970000e-001) (25, 4.73811119794845580000e-001) (26, 4.45246636867523190000e-001) (27, 4.55170989036560060000e-001) (28, 4.73322838544845580000e-001) (29, 5.13282597064971920000e-001) (30, 4.95600730180740360000e-001) (0, -7.07946658134460450000e-001) (1, -2.96912491321563720000e-001) (2, -1.39435663819313050000e-001) (3, -2.49213501811027530000e-001) (4, -1.72004029154777530000e-001) (5, -2.35350683331489560000e-001) (6, -3.10918360948562620000e-001) (7, -1.55584871768951420000e-001) (8, -1.57580703496932980000e-001) (9, -1.32428139448165890000e-001) (10, -1.38153225183486940000e-001) (11, -2.11883693933486940000e-001) (12, -1.41114205121994020000e-001) (13, -2.47840300202369690000e-001) (14, -2.52478986978530880000e-001) (15, -8.48947316408157350000e-002) (16, -8.62619131803512570000e-002) (17, -1.73542171716690060000e-001) (18, -1.75910323858261110000e-001) (19, -6.10299855470657350000e-002) (20, -8.38852003216743470000e-002) (21, -1.09712569974362850000e-003) (22, -8.58200266957283020000e-002) (23, 3.46829602494835850000e-003) (24, -4.79782298207283020000e-002) (25, -8.19553434848785400000e-003) (26, -8.79135206341743470000e-002) (27, -1.55650377273559570000e-001) (28, -2.61532008647918700000e-001) (29, -2.81257033348083500000e-001) (30, -3.83435904979705810000e-001) (0, 7.61367619037628170000e-001) (1, 9.14005935192108150000e-001) (2, 8.79331469535827640000e-001) (3, 7.66605973243713380000e-001) (4, 6.86731934547424320000e-001) (5, 6.91708862781524660000e-001) (6, 6.56823039054870610000e-001) (7, 7.70743787288665770000e-001) (8, 1.05938696861267090000e+000) (9, 8.80625426769256590000e-001) (10, 9.04759109020233150000e-001) (11, 6.51882231235504150000e-001) (12, 5.50281882286071780000e-001) (13, 5.67536532878875730000e-001) (14, 7.49795138835906980000e-001) (15, 6.30340576171875000000e-001) (16, 6.08837902545928960000e-001) (17, 7.59280204772949220000e-001) (18, 7.10041403770446780000e-001) (19, 7.74789094924926760000e-001) (20, 6.68939292430877690000e-001) (21, 7.44564414024353030000e-001) (22, 1.62135088443756100000e+000) (23, 1.68626177310943600000e+000) (24, 1.55929648876190190000e+000) (25, 1.69613730907440190000e+000) (26, 1.63996052742004390000e+000) (27, 1.48989605903625490000e+000) (28, 1.65000081062316890000e+000) (29, 1.67418897151947020000e+000) (30, 1.68537068367004390000e+000) (0, -4.06612664461135860000e-001) (1, -2.69330710172653200000e-001) (2, -2.41986960172653200000e-001) (3, -1.02410204708576200000e-001) (4, -2.41356745362281800000e-001) (5, -1.02410204708576200000e-001) (6, -1.72100305557250980000e-001) (7, -2.21367910504341130000e-001) (8, -7.76056870818138120000e-002) (9, -1.81776672601699830000e-001) (10, -1.36034563183784480000e-001) (11, -9.46526676416397090000e-002) (12, -1.37383416295051570000e-001) (13, -1.60180032253265380000e-001) (14, -1.86273008584976200000e-002) (15, -3.11066713184118270000e-002) (16, -9.42597538232803340000e-002) (17, -1.17849878966808320000e-001) (18, -1.70517116785049440000e-001) (19, -5.44282048940658570000e-002) (20, -1.40365764498710630000e-001) (21, 2.06145178526639940000e-002) (22, -1.42245635390281680000e-001) (23, -2.63987691141664980000e-003) (24, -1.08224593102931980000e-001) (25, -3.01057007163763050000e-002) (26, -1.51791557669639590000e-001) (27, -1.50788370519876480000e-002) (28, -1.69198721647262570000e-001) (29, -3.81647646427154540000e-001) (30, -3.43476295471191410000e-001) (0, 6.15124218165874480000e-002) (1, 3.49560491740703580000e-002) (2, 1.33744370937347410000e+000) (3, 9.62903052568435670000e-002) (4, 1.22628915309906010000e+000) (5, 1.59235584735870360000e+000) (6, 1.55941510200500490000e+000) (7, 1.69063329696655270000e+000) (8, 2.25138020515441890000e+000) (9, 1.30881440639495850000e+000) (10, 1.85322433710098270000e-001) (11, 2.19778513908386230000e+000) (12, 3.88868570327758790000e+000) (13, 3.77739429473876950000e+000) (14, 7.11230874061584470000e-001) (15, 3.80296182632446290000e+000) (16, 3.06141638755798340000e+000) (17, 8.43640416860580440000e-003) (18, -1.48117914795875550000e-002) (19, -8.01437795162200930000e-002) (20, -3.64235788583755490000e-003) (21, 7.05322623252868650000e-001) (22, 6.75775527954101560000e-001) (23, 7.94826149940490720000e-001) (24, 8.60988378524780270000e-001) (25, 9.20052289962768550000e-001) (26, 8.58766794204711910000e-001) (27, 7.29213356971740720000e-001) (28, 8.55281591415405270000e-001) (29, 7.73329854011535640000e-001) (30, 9.04970407485961910000e-001) (0, 1.63724780082702640000e+000) (1, 1.67800068855285640000e+000) (2, 1.80028963088989260000e+000) (3, 1.71656894683837890000e+000) (4, 9.32122588157653810000e-001) (5, 1.90307223796844480000e+000) (6, 9.22558248043060300000e-001) (7, 1.66593289375305180000e+000) (8, 1.20495128631591800000e+000) (9, 1.79325830936431880000e+000) (10, 1.67761611938476560000e+000) (11, 2.63481283187866210000e+000) (12, 1.89760267734527590000e+000) (13, 1.78383445739746090000e+000) (14, 1.70220732688903810000e+000) (15, 1.79220187664031980000e+000) (16, 1.82310402393341060000e+000) (17, 1.65199995040893550000e+000) (18, 1.65000414848327640000e+000) (19, 1.71996855735778810000e+000) (20, 1.63055825233459470000e+000) (21, 1.70012593269348140000e+000) (22, 1.69902729988098140000e+000) (23, 1.54464507102966310000e+000) (24, 1.58545327186584470000e+000) (25, 1.71626973152160640000e+000) (26, 1.70539331436157230000e+000) (27, 1.66938281059265140000e+000) (28, 1.65508818626403810000e+000) (29, 1.54958891868591310000e+000) (30, 1.55724883079528810000e+000) (0, 9.52650725841522220000e-001) (1, 9.04201030731201170000e-001) (2, 1.13699948787689210000e+000) (3, 8.72975409030914310000e-001) (4, 1.10232841968536380000e+000) (5, 1.49282586574554440000e+000) (6, 1.28294205665588380000e+000) (7, 1.08366489410400390000e+000) (8, 2.15663528442382810000e+000) (9, 1.05490517616271970000e+000) (10, 9.92720127105712890000e-001) (11, 2.13297200202941890000e+000) (12, 1.41807866096496580000e+000) (13, 1.24860155582427980000e+000) (14, 8.19450020790100100000e-001) (15, 9.89796102046966550000e-001) (16, 1.51161372661590580000e+000) (17, 2.11352276802062990000e+000) (18, 2.06911969184875490000e+000) (19, 2.11825919151306150000e+000) (20, 2.13973116874694820000e+000) (21, 1.64280676841735840000e+000) (22, 1.62695598602294920000e+000) (23, 1.66178870201110840000e+000) (24, 1.64806795120239260000e+000) (25, 1.55897498130798340000e+000) (26, 1.49077439308166500000e+000) (27, 1.58064866065979000000e+000) (28, 1.51878952980041500000e+000) (29, 1.59032869338989260000e+000) (30, 2.77843689918518070000e+000) (0, 9.72820162773132320000e-001) (1, 2.99426496028900150000e-001) (2, 1.30689787864685060000e+000) (3, 4.97452259063720700000e-001) (4, 1.20082533359527590000e+000) (5, 1.16241896152496340000e+000) (6, 9.41225171089172360000e-001) (7, 9.59262788295745850000e-001) (8, 2.14259719848632810000e+000) (9, 6.93530559539794920000e-001) (10, 9.87614929676055910000e-001) (11, 1.46485602855682370000e+000) (12, 7.09399104118347170000e-001) (13, 2.76491427421569820000e+000) (14, 2.49785518646240230000e+000) (15, 2.91700911521911620000e+000) (16, 1.98444950580596920000e+000) (17, -6.75671100616455080000e-001) (18, -6.13817930221557620000e-001) (19, -4.79772597551345830000e-001) (20, -5.08758306503295900000e-001) (21, 6.57013177871704100000e-001) (22, 6.75085783004760740000e-001) (23, 7.61824250221252440000e-001) (24, 7.81142354011535640000e-001) (25, 8.48384499549865720000e-001) (26, 8.50673317909240720000e-001) (27, 7.93025612831115720000e-001) (28, 7.34614968299865720000e-001) (29, 8.54958176612854000000e-001) (30, 8.05373311042785640000e-001) (0, -1.46563279628753660000e+000) (1, -7.76285052299499510000e-001) (2, -3.98491352796554570000e-001) (3, -2.15800881385803220000e-001) (4, -2.40924194455146790000e-001) (5, -2.96612709760665890000e-001) (6, -2.82763808965682980000e-001) (7, -2.09374114871025090000e-001) (8, -1.57678917050361630000e-001) (9, -1.88379600644111630000e-001) (10, -1.71662077307701110000e-001) (11, -3.47852669656276700000e-002) (12, -2.60999500751495360000e-002) (13, -8.84200707077980040000e-002) (14, -1.06828279793262480000e-001) (15, -1.08470119535923000000e-001) (16, -1.29533320665359500000e-001) (17, -9.86495688557624820000e-002) (18, -8.04385244846343990000e-002) (19, -1.44200086593627930000e-001) (20, 3.34474258124828340000e-002) (21, -4.13999892771244050000e-002) (22, -4.15548473596572880000e-001) (23, -3.33498865365982060000e-001) (24, -4.25179868936538700000e-001) (25, -3.89431476593017580000e-001) (26, -3.51131945848464970000e-001) (27, -3.85011255741119380000e-001) (28, -7.64580726623535160000e-001) (29, -6.65044605731964110000e-001) (30, -1.13616168498992920000e+000) (0, -4.23797339200973510000e-001) (1, -2.33572572469711300000e-001) (2, -1.05948060750961300000e-001) (3, -1.70830607414245610000e-001) (4, -1.70690208673477170000e-001) (5, -2.17424854636192320000e-001) (6, -2.00084760785102840000e-001) (7, -9.72405821084976200000e-002) (8, -2.17828005552291870000e-002) (9, -1.23681001365184780000e-001) (10, 1.48378300946205850000e-003) (11, -1.11065074801445010000e-001) (12, -2.64092832803726200000e-002) (13, -2.89117284119129180000e-002) (14, -1.53246462345123290000e-001) (15, -1.52361452579498290000e-001) (16, -3.56377847492694850000e-002) (17, -6.07331246137619020000e-002) (18, 2.05412935465574260000e-002) (19, -9.20136421918869020000e-002) (20, -1.05532772839069370000e-001) (21, -6.26738965511322020000e-002) (22, -1.45964985713362690000e-002) (23, -3.03321123123168950000e-001) (24, -3.01246047019958500000e-001) (25, -4.30610030889511110000e-001) (26, -2.88092970848083500000e-001) (27, -3.63813221454620360000e-001) (28, -3.37555885314941410000e-001) (29, -2.77387440204620360000e-001) (30, -3.83393287658691410000e-001) (0, 7.86247313022613530000e-001) (1, 8.38377416133880620000e-001) (2, 6.44531428813934330000e-001) (3, 5.36997437477111820000e-001) (4, 5.98666429519653320000e-001) (5, 5.84951817989349370000e-001) (6, 4.73464965820312500000e-001) (7, 4.80228543281555180000e-001) (8, 2.78744220733642580000e-001) (9, 1.38790503144264220000e-001) (10, 2.21914380788803100000e-001) (11, 3.13113093376159670000e-001) (12, 3.26730012893676760000e-001) (13, 1.97610139846801760000e-001) (14, 2.29726880788803100000e-001) (15, 1.59139648079872130000e-001) (16, 3.13454866409301760000e-001) (17, 2.63357222080230710000e-001) (18, 1.53561010956764220000e-001) (19, 2.27956861257553100000e-001) (20, -4.45294305682182310000e-002) (21, -9.26021039485931400000e-002) (22, -1.35399937629699710000e-001) (23, -8.40876922011375430000e-002) (24, -1.40081331133842470000e-001) (25, -1.66033476591110230000e-001) (26, -1.06090873479843140000e-001) (27, -1.33062303066253660000e-001) (28, -1.08092829585075380000e-001) (29, -1.23076945543289180000e-001) (30, 2.43565127253532410000e-001) (0, -2.57738977670669560000e-001) (1, -2.25701630115509030000e-001) (2, -2.30810254812240600000e-001) (3, -1.53112858533859250000e-001) (4, -1.23491756618022920000e-001) (5, -1.51186972856521610000e-001) (6, -6.57133460044860840000e-002) (7, -1.57632261514663700000e-001) (8, -1.62197709083557130000e-001) (9, -1.56561791896820070000e-001) (10, 1.02826319634914400000e-002) (11, 1.02964520454406740000e-001) (12, -4.38025593757629390000e-003) (13, 1.23777523636817930000e-001) (14, -7.54265934228897090000e-002) (15, -5.18954582512378690000e-002) (16, -3.36764641106128690000e-002) (17, -7.01449736952781680000e-002) (18, -1.37277528643608090000e-001) (19, -1.40353724360466000000e-001) (20, -2.15445250272750850000e-001) (21, -4.37745302915573120000e-001) (22, -4.70460206270217900000e-001) (23, -3.93837124109268190000e-001) (24, -3.72462600469589230000e-001) (25, -4.76442217826843260000e-001) (26, -4.91957485675811770000e-001) (27, -3.51863354444503780000e-001) (28, -4.16182190179824830000e-001) (29, -5.01002907752990720000e-001) (30, -4.86195534467697140000e-001) (0, 5.70012629032135010000e-001) (1, 4.76212888956069950000e-001) (2, 1.56840324401855470000e+000) (3, 6.67320966720581050000e-001) (4, 1.79840540885925290000e+000) (5, 1.07729303836822510000e+000) (6, 9.91398453712463380000e-001) (7, 7.29663610458374020000e-001) (8, 1.98926782608032230000e+000) (9, 8.57196629047393800000e-001) (10, 1.38609361648559570000e+000) (11, 4.94429969787597660000e+000) (12, 3.07594752311706540000e+000) (13, 1.56377470493316650000e+000) (14, 4.85692232847213750000e-001) (15, 2.79158568382263180000e+000) (16, 1.02946114540100100000e+000) (17, 1.26648449897766110000e+000) (18, 1.29172873497009280000e+000) (19, 1.98487257957458500000e+000) (20, 2.90477871894836430000e+000) (21, 6.57306194305419920000e-001) (22, 1.49454021453857420000e+000) (23, 7.61969327926635740000e-001) (24, 7.90216445922851560000e-001) (25, 8.10010194778442380000e-001) (26, 6.78717374801635740000e-001) (27, 6.63214445114135740000e-001) (28, 7.13177800178527830000e-001) (29, 7.27051258087158200000e-001) (30, 7.71759510040283200000e-001) (0, 1.59956419467926030000e+000) (1, 1.72806632518768310000e+000) (2, 4.13372468948364260000e+000) (3, 1.21009755134582520000e+000) (4, 3.87211346626281740000e+000) (5, 9.64340448379516600000e-001) (6, 8.06617379188537600000e-001) (7, 3.85640907287597660000e+000) (8, 3.93170213699340820000e+000) (9, 3.97489666938781740000e+000) (10, 1.14081025123596190000e+000) (11, 3.86455726623535160000e+000) (12, 3.86603426933288570000e+000) (13, 1.04648756980896000000e+000) (14, 1.08343696594238280000e+000) (15, 1.05354321002960210000e+000) (16, 1.09423530101776120000e+000) (17, 1.75290763378143310000e+000) (18, 1.69994735717773440000e+000) (19, 1.71106183528900150000e+000) (20, 1.82608389854431150000e+000) (21, 6.15404558181762700000e+000) (22, 6.08571100234985350000e+000) (23, 4.07038784027099610000e+000) (24, 2.96970796585083010000e+000) (25, 2.78863501548767090000e+000) (26, 4.12354946136474610000e+000) (27, 4.08384609222412110000e+000) (28, 4.18662881851196290000e+000) (29, 9.08312416076660160000e+000) (30, 9.04912090301513670000e+000) (31, 6.31748065352439880000e-002) (32, 1.43606916069984440000e-001) (33, -1.31382383406162260000e-002) (34, -2.20256745815277100000e-002) (35, -7.97235965728759770000e-002) (36, 1.41458421945571900000e-001) (37, 7.79851526021957400000e-002) (38, 3.06254506111145020000e-001) (39, -5.78878164291381840000e-001) (40, 1.67795151472091670000e-001) (41, -2.55712658166885380000e-001) (42, -2.83623579889535900000e-003) (43, 9.25067961215972900000e-002) (44, 1.65744394063949580000e-001) (45, 2.30136420577764510000e-002) (46, 2.94844818115234370000e+000) (47, -2.86832362413406370000e-001) (48, 4.28880285471677780000e-003) (49, 9.64816957712173460000e-002) (50, 1.20389893651008610000e-001) (51, -5.84451656322926280000e-004) (52, 2.48154535889625550000e-001) (53, 2.09221109747886660000e-001) (54, -1.05497412383556370000e-001) (55, 2.01490730047225950000e-001) (56, 9.26425755023956300000e-002) (57, -3.36319863796234130000e-001) (58, 1.09469972550868990000e-001) (59, 4.30820137262344360000e-002) (60, 8.08350503444671630000e-001) (61, 8.41144621372222900000e-002) (62, 1.00943356752395630000e-001) (63, 9.69028472900390630000e-002) (64, -3.95564846694469450000e-002) (65, -5.54559975862503050000e-002) (66, -2.93453019112348560000e-002) (67, 2.40947172045707700000e-001) (68, 1.30948230624198910000e-001) (69, -1.90866831690073010000e-003) (70, -4.15969407185912130000e-004) (71, -4.08758401870727540000e-001) (72, -5.96318721771240230000e-001) (73, 1.22835496440529820000e-002) (74, 2.67001874744892120000e-002) (75, -1.55589804053306580000e-001) (76, -6.15843772888183590000e-001) (77, 2.83854808658361430000e-002) (78, 1.06091864407062530000e-001) (79, 8.90598148107528690000e-002) (80, -3.90375219285488130000e-002) (81, 2.05502659082412720000e-001) (82, 1.09836183488368990000e-001) (83, 1.26889392733573910000e-001) (84, 1.13595940172672270000e-001) (85, -5.30433207750320430000e-002) (86, -2.94754598289728160000e-002) (87, 8.85774940252304080000e-002) (88, -2.70312249660491940000e-001) (89, 1.78970694541931150000e-001) (90, 2.04391807317733760000e-001) (91, 3.98222804069519040000e-001) (31, 2.64318417757749560000e-002) (32, 9.79833751916885380000e-002) (33, 1.25454410910606380000e-001) (34, -1.00449576973915100000e-001) (35, 5.14225661754608150000e-002) (36, 1.64056435227394100000e-001) (37, -1.68834224343299870000e-001) (38, 5.24108290672302250000e-001) (39, -2.37714171409606930000e-001) (40, -8.11609476804733280000e-002) (41, -1.15207284688949580000e-001) (42, -1.01194187998771670000e-001) (43, -4.31244261562824250000e-003) (44, -6.54932111501693730000e-002) (45, 3.31701189279556270000e-002) (46, 2.40657949447631840000e+000) (47, -7.72414803504943850000e-002) (48, 2.31956154108047490000e-001) (49, -2.17676628381013870000e-002) (50, 1.65905848145484920000e-001) (51, 4.28061634302139280000e-001) (52, 3.37270051240921020000e-001) (53, 3.95406901836395260000e-001) (54, -1.42536848783493040000e-001) (55, 2.45027408003807070000e-001) (56, 7.44726359844207760000e-002) (57, -4.93075877428054810000e-001) (58, 3.50499898195266720000e-002) (59, 7.65905529260635380000e-002) (60, 9.16809916496276860000e-001) (61, -4.88040596246719360000e-002) (62, 8.17541033029556270000e-002) (63, -3.87598425149917600000e-002) (64, -3.89169842004776000000e-001) (65, -1.37938261032104490000e-001) (66, -3.37033629417419430000e-001) (67, 4.15890306234359740000e-001) (68, 5.98851889371871950000e-002) (69, -1.37827172875404360000e-001) (70, 6.57503902912139890000e-002) (71, -3.60802680253982540000e-001) (72, -3.36768120527267460000e-001) (73, 1.58202871680259700000e-002) (74, -7.78116136789321900000e-002) (75, -3.38675469160079960000e-001) (76, -4.02238339185714720000e-001) (77, -1.26914396882057190000e-001) (78, -3.39633552357554440000e-003) (79, -2.70654726773500440000e-002) (80, -1.98228731751441960000e-001) (81, 1.08420386910438540000e-001) (82, -5.89563660323619840000e-002) (83, 8.93041640520095830000e-002) (84, 9.86242443323135380000e-002) (85, 5.43002150952816010000e-002) (86, -7.74157941341400150000e-002) (87, 2.71267473697662350000e-001) (88, 8.78695175051689150000e-002) (89, -3.22107523679733280000e-002) (90, 1.11234083771705630000e-001) (91, 6.77620232105255130000e-001) (31, -8.40569257736206050000e-001) (32, -4.62346732616424560000e-001) (33, 2.54690885543823240000e-001) (34, -3.42392250895500180000e-002) (35, 5.34794777631759640000e-002) (36, -9.13712009787559510000e-002) (37, -1.19261480867862700000e-001) (38, 1.05504833161830900000e-001) (39, -2.47814998030662540000e-001) (40, -3.42943638563156130000e-001) (41, -1.07378572225570680000e-001) (42, -4.37424071133136750000e-002) (43, -3.25563758611679080000e-001) (44, -4.58336710929870610000e-001) (45, -4.34941947460174560000e-001) (46, 2.01421904563903810000e+000) (47, -1.10131017863750460000e-001) (48, 3.78111034631729130000e-001) (49, -4.25927072763442990000e-001) (50, 9.94254201650619510000e-002) (51, -5.43222278356552120000e-002) (52, 2.29988202452659610000e-001) (53, 3.96875083446502690000e-001) (54, -1.55840247869491580000e-001) (55, 1.42296731472015380000e-001) (56, -5.85770420730113980000e-003) (57, -1.54177322983741760000e-001) (58, -4.61040586233139040000e-001) (59, -4.02336984872817990000e-001) (60, 7.39812672138214110000e-001) (61, -4.50559258460998540000e-002) (62, -4.61974412202835080000e-001) (63, -3.08373302221298220000e-001) (64, -4.84400205314159390000e-002) (65, -1.05321034789085390000e-001) (66, -8.19079726934432980000e-002) (67, 1.47500976920127870000e-001) (68, -4.16674137115478520000e-001) (69, -1.35619230568408970000e-002) (70, 4.75486777722835540000e-002) (71, -6.22423052787780760000e-001) (72, -2.92318165302276610000e-002) (73, -1.21369980275630950000e-001) (74, -3.27756226062774660000e-001) (75, -1.45125508308410640000e-001) (76, -1.90551817417144780000e-001) (77, 2.19149932265281680000e-001) (78, -1.57048329710960390000e-001) (79, -3.91576468944549560000e-001) (80, -5.89587129652500150000e-002) (81, -1.90147712826728820000e-001) (82, -3.55040818452835080000e-001) (83, -3.88366013765335080000e-001) (84, -5.70849776268005370000e-002) (85, 7.43308886885643010000e-002) (86, -2.46514305472373960000e-001) (87, 1.29391446709632870000e-001) (88, -1.21111489832401280000e-001) (89, -3.29296171665191650000e-001) (90, -3.95421683788299560000e-001) (91, 4.34858709573745730000e-001) (31, -1.76798850297927860000e-002) (32, -2.35015928745269780000e-001) (33, -1.00553818047046660000e-001) (34, 5.50034493207931520000e-002) (35, -2.73686081171035770000e-001) (36, 1.85126826167106630000e-001) (37, 2.87058025598526000000e-001) (38, 3.53125542402267460000e-001) (39, -1.62261635065078740000e-001) (40, -7.25607514381408690000e-001) (41, 1.03456124663352970000e-001) (42, -1.40524283051490780000e-003) (43, -7.62640908360481260000e-002) (44, -1.06884814798831940000e-001) (45, -6.39370918273925780000e-001) (46, -3.76540869474411010000e-001) (47, 3.95609050989151000000e-001) (48, 1.68097585439682010000e-001) (49, -7.05197334289550780000e-001) (50, -7.47342109680175780000e-001) (51, -5.72256326675415040000e-001) (52, 2.92229205369949340000e-001) (53, 2.50559151172637940000e-001) (54, 3.51954668760299680000e-001) (55, 6.92103147506713870000e-001) (56, -3.40544998645782470000e-001) (57, 4.75821644067764280000e-003) (58, -1.88421666622161870000e-001) (59, -5.98709225654602050000e-001) (60, -6.34753644466400150000e-001) (61, -1.06854893267154690000e-001) (62, -1.40369427204132080000e+000) (63, -6.85672163963317870000e-001) (64, 3.51690024137496950000e-001) (65, 2.99881517887115480000e-001) (66, 3.19125920534133910000e-001) (67, 3.10295939445495610000e-001) (68, -7.32632637023925780000e-001) (69, -5.04056096076965330000e-001) (70, 2.54002869129180910000e-001) (71, 3.19135159254074100000e-001) (72, 4.41429242491722110000e-002) (73, 1.69183218479156490000e+000) (74, -3.59056979417800900000e-001) (75, 2.51895606517791750000e-001) (76, -1.66949152946472170000e-001) (77, 1.24268174171447750000e-001) (78, 3.52744072675704960000e-001) (79, -6.57864570617675780000e-001) (80, 3.83713304996490480000e-001) (81, -1.27382969856262210000e+000) (82, -7.54245162010192870000e-001) (83, -7.56460785865783690000e-001) (84, -1.36976480484008790000e+000) (85, 2.50310301780700680000e-001) (86, 3.32480400800704960000e-001) (87, 1.11664581298828120000e+000) (88, 2.24063619971275330000e-001) (89, -1.40844881534576420000e+000) (90, -1.32512974739074710000e+000) (91, 2.32360675930976870000e-001) (31, -3.13121825456619260000e-003) (32, -6.85242116451263430000e-002) (33, 2.84225583076477050000e-001) (34, 1.54545947909355160000e-001) (35, 1.68647095561027530000e-002) (36, 2.20081478357315060000e-001) (37, 2.63069957494735720000e-001) (38, 1.06532394886016850000e-001) (39, 1.45092040300369260000e-001) (40, -6.40732049942016600000e-001) (41, 2.66345471143722530000e-001) (42, 2.37016618251800540000e-001) (43, 1.06394976377487180000e-001) (44, -1.36895865201950070000e-001) (45, -7.45157003402709960000e-001) (46, -6.34801447391510010000e-001) (47, 3.27394902706146240000e-001) (48, 4.78120028972625730000e-001) (49, -7.56235003471374510000e-001) (50, -6.89529657363891600000e-001) (51, 6.43854588270187380000e-003) (52, 3.73389929533004760000e-001) (53, 4.97395098209381100000e-001) (54, 1.94000452756881710000e-001) (55, 7.01189637184143070000e-001) (56, -1.27800824120640750000e-002) (57, -1.17676369845867160000e-001) (58, -4.89075928926467900000e-002) (59, -7.62704730033874510000e-001) (60, -8.27789902687072750000e-001) (61, 6.62036612629890440000e-002) (62, -7.78714179992675780000e-001) (63, -7.55331635475158690000e-001) (64, 1.90705657005310060000e-001) (65, 1.85256153345108030000e-001) (66, 2.17537671327590940000e-001) (67, 4.49060708284378050000e-001) (68, -6.40664815902709960000e-001) (69, -6.35196208953857420000e-001) (70, 2.18351066112518310000e-001) (71, 2.63385266065597530000e-001) (72, 2.39619895815849300000e-001) (73, 1.28307950496673580000e+000) (74, 1.12510710954666140000e-001) (75, 3.35518687963485720000e-001) (76, 1.04186251759529110000e-001) (77, 3.35915237665176390000e-001) (78, 2.34645843505859380000e-001) (79, -7.49752998352050780000e-001) (80, 2.67897814512252810000e-001) (81, -2.01267051696777340000e+000) (82, -7.82968401908874510000e-001) (83, -6.68490767478942870000e-001) (84, -1.98591876029968260000e+000) (85, 2.16384589672088620000e-001) (86, 2.89943724870681760000e-001) (87, 6.52396500110626220000e-001) (88, 2.40533679723739620000e-001) (89, -7.58206367492675780000e-001) (90, -5.99655270576477050000e-001) (91, 1.91274791955947880000e-001) (31, -4.68955859541893010000e-002) (32, -1.17091044783592220000e-001) (33, 1.76108479499816890000e-001) (34, -1.97898969054222110000e-002) (35, 2.03626662492752080000e-001) (36, 1.75289571285247800000e-001) (37, 2.36730217933654790000e-001) (38, 2.69254267215728760000e-001) (39, 2.80261099338531490000e-001) (40, -9.94495153427124020000e-001) (41, 1.81145504117012020000e-001) (42, -1.09511569142341610000e-001) (43, -2.18915969133377080000e-001) (44, -1.02634906768798830000e-001) (45, -3.63740146160125730000e-001) (46, -6.58900737762451170000e-001) (47, 2.07659199833869930000e-001) (48, 4.45680409669876100000e-001) (49, -1.77827090024948120000e-001) (50, -8.31344500184059140000e-002) (51, 1.81683480739593510000e-001) (52, 3.29126358032226560000e-001) (53, 9.11975383758544920000e-001) (54, 1.41320064663887020000e-001) (55, 9.26218450069427490000e-001) (56, -1.15962967276573180000e-001) (57, 1.62917956709861760000e-001) (58, -6.63617253303527830000e-002) (59, -7.63922691345214840000e-001) (60, -4.39408451318740840000e-001) (61, -2.06568539142608640000e-001) (62, -9.21075940132141110000e-001) (63, -9.47760462760925290000e-001) (64, 1.67784914374351500000e-001) (65, 2.52001047134399410000e-001) (66, 2.67168462276458740000e-001) (67, 7.52212703227996830000e-001) (68, -9.77106213569641110000e-001) (69, -2.02662289142608640000e-001) (70, 2.53563225269317630000e-001) (71, 2.72256076335906980000e-001) (72, 3.06054472923278810000e-001) (73, 4.50391769409179690000e-001) (74, -9.83319282531738280000e-002) (75, 1.99119314551353450000e-001) (76, 2.75405079126358030000e-001) (77, 3.43919843435287480000e-001) (78, 1.46935150027275090000e-001) (79, -2.00764089822769170000e-001) (80, 1.00353270769119260000e-001) (81, -4.04399991035461430000e-001) (82, -9.25903797149658200000e-001) (83, -8.59778285026550290000e-001) (84, -3.42797160148620610000e-001) (85, 1.43632873892784120000e-001) (86, 2.53301322460174560000e-001) (87, 5.99491953849792480000e-001) (88, 4.03031073510646820000e-002) (89, -8.87189269065856930000e-001) (90, -8.66803407669067380000e-001) (91, 9.08524319529533390000e-002) 
