FANN_FLO_2.1
num_layers=3
learning_rate=0.700000
connection_rate=1.000000
network_type=0
learning_momentum=0.000000
training_algorithm=2
train_error_function=1
train_stop_function=0
cascade_output_change_fraction=0.010000
quickprop_decay=-0.000100
quickprop_mu=1.750000
rprop_increase_factor=1.200000
rprop_decrease_factor=0.500000
rprop_delta_min=0.000000
rprop_delta_max=50.000000
rprop_delta_zero=0.100000
cascade_output_stagnation_epochs=12
cascade_candidate_change_fraction=0.010000
cascade_candidate_stagnation_epochs=12
cascade_max_out_epochs=150
cascade_max_cand_epochs=150
cascade_num_candidate_groups=2
bit_fail_limit=3.49999994039535522461e-01
cascade_candidate_limit=1.00000000000000000000e+03
cascade_weight_multiplier=4.00000005960464477539e-01
cascade_activation_functions_count=10
cascade_activation_functions=3 5 7 8 10 11 14 15 16 17 
cascade_activation_steepnesses_count=4
cascade_activation_steepnesses=2.50000000000000000000e-01 5.00000000000000000000e-01 7.50000000000000000000e-01 1.00000000000000000000e+00 
layer_sizes=31 61 7 
scale_included=0
neurons (num_inputs, activation_function, activation_steepness)=(0, 0, 0.00000000000000000000e+00) (0, 0, 0.00000000000000000000e+00) (0, 0, 0.00000000000000000000e+00) (0, 0, 0.00000000000000000000e+00) (0, 0, 0.00000000000000000000e+00) (0, 0, 0.00000000000000000000e+00) (0, 0, 0.00000000000000000000e+00) (0, 0, 0.00000000000000000000e+00) (0, 0, 0.00000000000000000000e+00) (0, 0, 0.00000000000000000000e+00) (0, 0, 0.00000000000000000000e+00) (0, 0, 0.00000000000000000000e+00) (0, 0, 0.00000000000000000000e+00) (0, 0, 0.00000000000000000000e+00) (0, 0, 0.00000000000000000000e+00) (0, 0, 0.00000000000000000000e+00) (0, 0, 0.00000000000000000000e+00) (0, 0, 0.00000000000000000000e+00) (0, 0, 0.00000000000000000000e+00) (0, 0, 0.00000000000000000000e+00) (0, 0, 0.00000000000000000000e+00) (0, 0, 0.00000000000000000000e+00) (0, 0, 0.00000000000000000000e+00) (0, 0, 0.00000000000000000000e+00) (0, 0, 0.00000000000000000000e+00) (0, 0, 0.00000000000000000000e+00) (0, 0, 0.00000000000000000000e+00) (0, 0, 0.00000000000000000000e+00) (0, 0, 0.00000000000000000000e+00) (0, 0, 0.00000000000000000000e+00) (0, 0, 0.00000000000000000000e+00) (31, 7, 5.00000000000000000000e-01) (31, 7, 5.00000000000000000000e-01) (31, 7, 5.00000000000000000000e-01) (31, 7, 5.00000000000000000000e-01) (31, 7, 5.00000000000000000000e-01) (31, 7, 5.00000000000000000000e-01) (31, 7, 5.00000000000000000000e-01) (31, 7, 5.00000000000000000000e-01) (31, 7, 5.00000000000000000000e-01) (31, 7, 5.00000000000000000000e-01) (31, 7, 5.00000000000000000000e-01) (31, 7, 5.00000000000000000000e-01) (31, 7, 5.00000000000000000000e-01) (31, 7, 5.00000000000000000000e-01) (31, 7, 5.00000000000000000000e-01) (31, 7, 5.00000000000000000000e-01) (31, 7, 5.00000000000000000000e-01) (31, 7, 5.00000000000000000000e-01) (31, 7, 5.00000000000000000000e-01) (31, 7, 5.00000000000000000000e-01) (31, 7, 5.00000000000000000000e-01) (31, 7, 5.00000000000000000000e-01) (31, 7, 5.00000000000000000000e-01) (31, 7, 5.00000000000000000000e-01) (31, 7, 5.00000000000000000000e-01) (31, 7, 5.00000000000000000000e-01) (31, 7, 5.00000000000000000000e-01) (31, 7, 5.00000000000000000000e-01) (31, 7, 5.00000000000000000000e-01) (31, 7, 5.00000000000000000000e-01) (31, 7, 5.00000000000000000000e-01) (31, 7, 5.00000000000000000000e-01) (31, 7, 5.00000000000000000000e-01) (31, 7, 5.00000000000000000000e-01) (31, 7, 5.00000000000000000000e-01) (31, 7, 5.00000000000000000000e-01) (31, 7, 5.00000000000000000000e-01) (31, 7, 5.00000000000000000000e-01) (31, 7, 5.00000000000000000000e-01) (31, 7, 5.00000000000000000000e-01) (31, 7, 5.00000000000000000000e-01) (31, 7, 5.00000000000000000000e-01) (31, 7, 5.00000000000000000000e-01) (31, 7, 5.00000000000000000000e-01) (31, 7, 5.00000000000000000000e-01) (31, 7, 5.00000000000000000000e-01) (31, 7, 5.00000000000000000000e-01) (31, 7, 5.00000000000000000000e-01) (31, 7, 5.00000000000000000000e-01) (31, 7, 5.00000000000000000000e-01) (31, 7, 5.00000000000000000000e-01) (31, 7, 5.00000000000000000000e-01) (31, 7, 5.00000000000000000000e-01) (31, 7, 5.00000000000000000000e-01) (31, 7, 5.00000000000000000000e-01) (31, 7, 5.00000000000000000000e-01) (31, 7, 5.00000000000000000000e-01) (31, 7, 5.00000000000000000000e-01) (31, 7, 5.00000000000000000000e-01) (31, 7, 5.00000000000000000000e-01) (0, 7, 0.00000000000000000000e+00) (61, 14, 5.00000000000000000000e-01) (61, 14, 5.00000000000000000000e-01) (61, 14, 5.00000000000000000000e-01) (61, 14, 5.00000000000000000000e-01) (61, 14, 5.00000000000000000000e-01) (61, 14, 5.00000000000000000000e-01) (0, 14, 0.00000000000000000000e+00) 
connections (connected_to_neuron, weight)=(0, 1.50000000000000000000e+03) (1, 1.50000000000000000000e+03) (2, 1.50000000000000000000e+03) (3, 1.50000000000000000000e+03) (4, 1.50000000000000000000e+03) (5, 1.50000000000000000000e+03) (6, 1.50000000000000000000e+03) (7, 1.50000000000000000000e+03) (8, 1.50000000000000000000e+03) (9, 1.50000000000000000000e+03) (10, 1.50000000000000000000e+03) (11, 1.50000000000000000000e+03) (12, 1.50000000000000000000e+03) (13, 1.50000000000000000000e+03) (14, 1.50000000000000000000e+03) (15, 1.50000000000000000000e+03) (16, 1.50000000000000000000e+03) (17, 1.50000000000000000000e+03) (18, 1.50000000000000000000e+03) (19, 1.50000000000000000000e+03) (20, 1.50000000000000000000e+03) (21, 1.50000000000000000000e+03) (22, 1.50000000000000000000e+03) (23, 1.50000000000000000000e+03) (24, 1.50000000000000000000e+03) (25, 1.50000000000000000000e+03) (26, 1.50000000000000000000e+03) (27, 1.50000000000000000000e+03) (28, 1.50000000000000000000e+03) (29, 1.50000000000000000000e+03) (30, 1.50000000000000000000e+03) (0, -4.40431737899780273438e+00) (1, -2.41042280197143554688e+00) (2, -1.04152071475982666016e+00) (3, 1.21092021465301513672e+00) (4, 1.27682352066040039062e+00) (5, 1.22996628284454345703e+00) (6, -1.20457872748374938965e-01) (7, -2.57875710725784301758e-01) (8, 1.22990913689136505127e-01) (9, 3.11150729656219482422e-01) (10, -1.38301298022270202637e-01) (11, 2.46708810329437255859e-01) (12, -6.57893359661102294922e-01) (13, -3.34562547504901885986e-02) (14, 3.61675545573234558105e-02) (15, 6.98567509651184082031e-01) (16, -1.74722865223884582520e-01) (17, -1.19390293955802917480e-01) (18, -1.14770805835723876953e+00) (19, -2.58958399295806884766e-01) (20, -1.43906489014625549316e-01) (21, 1.20641574263572692871e-01) (22, -4.91662435233592987061e-02) (23, -3.25012803077697753906e-01) (24, 1.24049349687993526459e-03) (25, 1.52155947685241699219e+00) (26, 5.97993373870849609375e-01) (27, 6.30154788494110107422e-01) (28, -9.42581146955490112305e-03) (29, -1.46758839488029479980e-01) (30, -3.73239308595657348633e-01) (0, 6.08295154571533203125e+00) (1, -1.42230284214019775391e+00) (2, 8.58576372265815734863e-02) (3, 7.34803974628448486328e-01) (4, 1.57716810703277587891e+00) (5, 5.31665682792663574219e-01) (6, 8.88321638107299804688e-01) (7, 3.78668308258056640625e-01) (8, -4.98294904828071594238e-02) (9, -6.32235825061798095703e-01) (10, -3.01063448190689086914e-01) (11, -6.61220133304595947266e-01) (12, -8.44871580600738525391e-01) (13, -4.38161224126815795898e-01) (14, -1.09315827488899230957e-01) (15, -5.25634437799453735352e-02) (16, -2.10337877273559570312e-01) (17, -4.36824947595596313477e-01) (18, 1.47515669465065002441e-01) (19, -2.73927360773086547852e-01) (20, -2.84733861684799194336e-01) (21, -8.43892931938171386719e-01) (22, -6.25683665275573730469e-02) (23, -1.48963242769241333008e-01) (24, 2.86233544349670410156e-01) (25, -5.88483273983001708984e-01) (26, 2.39750459790229797363e-01) (27, 5.18828094005584716797e-01) (28, 3.56718719005584716797e-01) (29, 4.90243822336196899414e-01) (30, 9.19942796230316162109e-01) (0, -1.03530347347259521484e+00) (1, 1.46122431755065917969e+00) (2, 2.10706591606140136719e+00) (3, 7.55867123603820800781e-01) (4, 1.80616104602813720703e+00) (5, -2.89008259773254394531e-01) (6, -2.01919317245483398438e+00) (7, -1.53811717033386230469e+00) (8, 6.93486392498016357422e-01) (9, 7.53050327301025390625e-01) (10, 1.31961131095886230469e+00) (11, 4.20450830459594726562e+00) (12, 1.50970292091369628906e+00) (13, -1.15196037292480468750e+00) (14, -3.70042347908020019531e+00) (15, 1.49275112152099609375e+00) (16, -1.54225301742553710938e+00) (17, 1.06312990188598632812e+00) (18, 2.92876911163330078125e+00) (19, 3.78578686714172363281e+00) (20, 7.83182442188262939453e-01) (21, -4.14360314607620239258e-01) (22, -1.34740501642227172852e-01) (23, 2.58657522499561309814e-02) (24, 6.06579184532165527344e-01) (25, 1.62075018882751464844e+00) (26, 9.86871942877769470215e-02) (27, -1.35038167238235473633e-01) (28, -1.70362219214439392090e-02) (29, -5.03651350736618041992e-02) (30, -8.87093007564544677734e-01) (0, -5.97817361354827880859e-01) (1, -3.53402584791183471680e-01) (2, -3.86670142412185668945e-01) (3, -3.15275609493255615234e-01) (4, -7.35055804252624511719e-02) (5, -1.89706489443778991699e-01) (6, -1.20735466480255126953e-01) (7, 3.48263420164585113525e-02) (8, -3.68301242589950561523e-01) (9, -1.12233109772205352783e-01) (10, -1.75654515624046325684e-01) (11, -1.25983670353889465332e-01) (12, -5.09778633713722229004e-02) (13, -5.36274090409278869629e-02) (14, -2.00911555439233779907e-02) (15, -1.54854327440261840820e-01) (16, -1.28843948245048522949e-01) (17, -7.82414525747299194336e-02) (18, -4.74467054009437561035e-02) (19, -2.20812693238258361816e-01) (20, 2.40458045154809951782e-02) (21, -6.11890107393264770508e-02) (22, -1.53509303927421569824e-01) (23, -2.90646851062774658203e-02) (24, 1.09534233808517456055e-01) (25, 3.31430397927761077881e-02) (26, -2.92829237878322601318e-02) (27, -2.48866602778434753418e-01) (28, -1.00285217165946960449e-01) (29, -3.95568795502185821533e-02) (30, -5.19162058830261230469e-01) (0, -1.33918869495391845703e+00) (1, -5.55206596851348876953e-01) (2, -3.31434756517410278320e-01) (3, -2.69415587186813354492e-01) (4, -3.11958730220794677734e-01) (5, -8.66196900606155395508e-02) (6, -6.04239515960216522217e-02) (7, -8.33838880062103271484e-02) (8, -5.80251477658748626709e-02) (9, 1.05662994086742401123e-01) (10, 3.80195043981075286865e-02) (11, 5.13398908078670501709e-02) (12, -1.42601236701011657715e-01) (13, -2.22756460309028625488e-01) (14, -1.61105901002883911133e-01) (15, -1.76974564790725708008e-01) (16, -8.49787443876266479492e-02) (17, -5.38660958409309387207e-02) (18, -1.69019341468811035156e-01) (19, -1.44909828901290893555e-01) (20, -5.56275434792041778564e-02) (21, -1.03321336209774017334e-01) (22, -1.49815052747726440430e-01) (23, -1.17766663432121276855e-01) (24, -1.39910742640495300293e-01) (25, -1.80401206016540527344e-02) (26, -1.75992563366889953613e-01) (27, -2.68159713596105575562e-03) (28, -4.27157245576381683350e-02) (29, 1.39475492760539054871e-02) (30, -1.05447486042976379395e-01) (0, -1.66310620307922363281e+00) (1, -1.96035826206207275391e+00) (2, -6.04055345058441162109e-01) (3, -1.72898948192596435547e-01) (4, 8.84645059704780578613e-03) (5, 2.09564670920372009277e-01) (6, 3.14010344445705413818e-02) (7, 1.58546245098114013672e+00) (8, 5.02689743041992187500e+00) (9, 4.65762794017791748047e-01) (10, -3.04078698158264160156e-01) (11, 1.09327502548694610596e-01) (12, 4.38389964401721954346e-02) (13, 3.29997479915618896484e-01) (14, -8.76498937606811523438e-01) (15, -3.54633569717407226562e+00) (16, 1.07556745409965515137e-01) (17, -1.99333560466766357422e+00) (18, 1.98901343345642089844e+00) (19, -1.00889384746551513672e-01) (20, -5.29112720489501953125e+00) (21, -3.47381442785263061523e-01) (22, 2.42218041419982910156e+00) (23, -7.02989101409912109375e-01) (24, -1.09146041870117187500e+01) (25, -1.35628831386566162109e+00) (26, -5.56032609939575195312e+00) (27, -1.81410827636718750000e+01) (28, 8.04528999328613281250e+00) (29, -2.41362237930297851562e+00) (30, 1.32103502750396728516e+00) (0, -4.52215909957885742188e-01) (1, 1.94305911660194396973e-01) (2, 1.10107511281967163086e-01) (3, 5.01323342323303222656e-01) (4, 2.26712882518768310547e-01) (5, 3.48396033048629760742e-01) (6, 6.48311153054237365723e-02) (7, -8.52181985974311828613e-02) (8, -1.53576731681823730469e-01) (9, -1.72731503844261169434e-01) (10, -1.72681674361228942871e-01) (11, -1.61856222152709960938e+00) (12, -2.53178715705871582031e-01) (13, -2.16885596513748168945e-01) (14, -7.78472144156694412231e-03) (15, -1.74247160553932189941e-01) (16, 2.09504902362823486328e-01) (17, 6.29932820796966552734e-01) (18, -7.42779287975281476974e-04) (19, -1.84048905968666076660e-01) (20, -2.46190533041954040527e-01) (21, -2.62917399406433105469e-01) (22, -5.19520998001098632812e-01) (23, -3.47810894250869750977e-01) (24, -4.97332036495208740234e-01) (25, 7.61895859614014625549e-03) (26, 4.26366627216339111328e-02) (27, -1.15252636373043060303e-01) (28, 3.45508456230163574219e-02) (29, -1.94517187774181365967e-02) (30, -1.64812788367271423340e-01) (0, -6.38998895883560180664e-02) (1, -1.80852854251861572266e+00) (2, -1.66229736804962158203e+00) (3, -7.75297820568084716797e-01) (4, -8.56352150440216064453e-01) (5, -4.43958789110183715820e-01) (6, -8.67227315902709960938e-01) (7, -8.51212859153747558594e-01) (8, 1.71795201301574707031e+00) (9, 2.16232836246490478516e-01) (10, -2.28865578770637512207e-01) (11, 9.69098880887031555176e-02) (12, -7.21841812133789062500e-01) (13, -1.15963315963745117188e+00) (14, -3.14289778470993041992e-01) (15, 1.70323002338409423828e+00) (16, 6.61024272441864013672e-01) (17, 6.68966025114059448242e-02) (18, -3.11398267745971679688e-01) (19, -2.51133758574724197388e-02) (20, 2.60605841875076293945e-01) (21, 1.18393146991729736328e+00) (22, 1.56789630651473999023e-01) (23, -1.77673384547233581543e-01) (24, -2.07270830869674682617e-01) (25, 1.22780668735504150391e+00) (26, 1.28695160150527954102e-01) (27, -3.54483574628829956055e-01) (28, 1.95664256811141967773e-01) (29, 6.46052062511444091797e-01) (30, -7.92976140975952148438e-01) (0, 3.52054309844970703125e+00) (1, 6.92509531974792480469e-01) (2, 1.58074307441711425781e+00) (3, 1.03093147277832031250e+00) (4, 3.82613182067871093750e-01) (5, 3.54034066200256347656e-01) (6, 2.53354936838150024414e-01) (7, 1.19605827331542968750e+00) (8, 1.11051082611083984375e-01) (9, -4.97692465782165527344e-01) (10, 3.20526063442230224609e-01) (11, 4.26559090614318847656e-01) (12, 5.57861268520355224609e-01) (13, 4.55448687076568603516e-01) (14, -3.84290188550949096680e-01) (15, -4.12718623876571655273e-01) (16, -9.82774555683135986328e-01) (17, 1.97967067360877990723e-02) (18, -9.78880971670150756836e-02) (19, 2.36339598894119262695e-01) (20, -2.03882921487092971802e-02) (21, 2.02408254146575927734e-01) (22, 5.62567830085754394531e-01) (23, -1.48777235299348831177e-02) (24, -4.02777433395385742188e-01) (25, 6.67689889669418334961e-02) (26, -6.88839435577392578125e-01) (27, -8.56293022632598876953e-01) (28, -5.21616160869598388672e-01) (29, -2.30195336043834686279e-02) (30, -7.29938268661499023438e+00) (0, 8.78129720687866210938e-01) (1, -4.27735239267349243164e-01) (2, -5.74039697647094726562e-01) (3, -5.61579227447509765625e-01) (4, -1.67728975415229797363e-01) (5, 3.03712218999862670898e-01) (6, -1.54044583439826965332e-01) (7, -2.67695993185043334961e-01) (8, -2.11966469883918762207e-01) (9, -4.09613579511642456055e-01) (10, -5.50357758998870849609e-01) (11, -3.10712531208992004395e-02) (12, -1.64245530962944030762e-01) (13, 1.50000000000000000000e+03) (14, -8.58426466584205627441e-02) (15, 1.16649127006530761719e+00) (16, 1.00646448135375976562e+00) (17, 1.50000000000000000000e+03) (18, 1.50000000000000000000e+03) (19, -5.26361167430877685547e-03) (20, 1.06246042251586914062e+00) (21, 1.28215730190277099609e+00) (22, 1.50000000000000000000e+03) (23, 1.50000000000000000000e+03) (24, 1.50000000000000000000e+03) (25, 1.50000000000000000000e+03) (26, 1.50000000000000000000e+03) (27, 1.50000000000000000000e+03) (28, 1.50000000000000000000e+03) (29, 1.42032659053802490234e+00) (30, 1.92768621444702148438e+00) (0, -6.78905904293060302734e-01) (1, -8.00527408719062805176e-02) (2, -3.35166186094284057617e-01) (3, -2.74023145437240600586e-01) (4, -2.74605244398117065430e-01) (5, -4.52243566513061523438e-01) (6, -4.55283910036087036133e-01) (7, -4.04274672269821166992e-01) (8, -1.29841402173042297363e-01) (9, -6.78060427308082580566e-02) (10, -5.27307987213134765625e-02) (11, -1.46990552544593811035e-01) (12, -7.29108303785324096680e-02) (13, -3.98981198668479919434e-02) (14, 1.46934809163212776184e-02) (15, -2.02073886990547180176e-01) (16, -7.81050398945808410645e-02) (17, 1.72301679849624633789e-01) (18, -6.91642016172409057617e-02) (19, 2.72371396422386169434e-02) (20, 9.62725207209587097168e-02) (21, 1.12751953303813934326e-01) (22, -1.64379239082336425781e-01) (23, 3.61132398247718811035e-02) (24, 5.50548359751701354980e-03) (25, 2.08415761590003967285e-01) (26, 2.44358539581298828125e-01) (27, 2.30628803372383117676e-01) (28, 2.58113443851470947266e-01) (29, 1.09237417578697204590e-01) (30, -1.61612451076507568359e-01) (0, -1.00961742401123046875e+01) (1, -2.23334050178527832031e+00) (2, -3.95786315202713012695e-01) (3, -2.77049493789672851562e+00) (4, -7.28160500526428222656e-01) (5, 3.08551013469696044922e-01) (6, -4.94419366121292114258e-01) (7, -3.96198242902755737305e-01) (8, 2.13398671150207519531e+00) (9, -3.99730175733566284180e-01) (10, -1.01263082027435302734e+00) (11, 3.14224809408187866211e-01) (12, 4.68693554401397705078e-01) (13, 3.08566659688949584961e-01) (14, 5.58293521404266357422e-01) (15, 1.48391711711883544922e+00) (16, 4.30431157350540161133e-01) (17, -1.31051555275917053223e-01) (18, -4.13887351751327514648e-01) (19, 5.00129103660583496094e-01) (20, 4.63689953088760375977e-01) (21, 3.14202420413494110107e-02) (22, 9.94321778416633605957e-02) (23, 1.08928577974438667297e-02) (24, -7.88530826568603515625e-01) (25, 3.33979099988937377930e-01) (26, 2.56675988435745239258e-01) (27, 2.14849282056093215942e-02) (28, -6.09824731945991516113e-02) (29, 4.13272023200988769531e-01) (30, -1.73832595348358154297e+00) (0, 1.17920029163360595703e+00) (1, 1.00157034397125244141e+00) (2, 7.65810132026672363281e-01) (3, 9.78185057640075683594e-01) (4, -2.24191069602966308594e+00) (5, -4.53371644020080566406e-01) (6, -1.57674539089202880859e+00) (7, 3.97504234313964843750e+00) (8, 3.31367945671081542969e+00) (9, 4.40473437309265136719e-01) (10, 1.18983125686645507812e+00) (11, 5.83352422714233398438e+00) (12, -1.56240749359130859375e+01) (13, -3.77361440658569335938e+00) (14, 1.47774064540863037109e+00) (15, -1.16961443424224853516e+00) (16, -9.88176631927490234375e+00) (17, 2.15135502815246582031e+00) (18, 2.10328149795532226562e+00) (19, 1.99046373367309570312e+00) (20, 2.25506854057312011719e+00) (21, 7.16168785095214843750e+00) (22, 5.01740503311157226562e+00) (23, 2.45875287055969238281e+00) (24, -4.85579729080200195312e-01) (25, -5.46949720382690429688e+00) (26, 2.84239888191223144531e+00) (27, 3.98054146766662597656e+00) (28, 3.12338352203369140625e+00) (29, 3.55562067031860351562e+00) (30, 3.84651541709899902344e+00) (0, 1.54026895761489868164e-01) (1, -5.62160015106201171875e-01) (2, 1.29558753967285156250e+00) (3, 2.78134703636169433594e+00) (4, -5.73733210563659667969e-01) (5, -1.63567602634429931641e-01) (6, 5.82301080226898193359e-01) (7, 1.66128063201904296875e+00) (8, 1.81844294071197509766e+00) (9, 2.84238171577453613281e+00) (10, -1.00469207763671875000e+00) (11, 5.32327473163604736328e-01) (12, 1.17591619491577148438e+00) (13, 9.90963160991668701172e-01) (14, 3.37788963317871093750e+00) (15, -9.28381502628326416016e-01) (16, -1.48143887519836425781e+00) (17, -3.18357849121093750000e+00) (18, -1.35671567916870117188e+00) (19, -1.80554413795471191406e+00) (20, -1.11171460151672363281e+00) (21, -1.37070193886756896973e-01) (22, 3.33673477172851562500e-01) (23, 9.59497913718223571777e-02) (24, 1.57521873712539672852e-01) (25, 1.17386698722839355469e+00) (26, 3.20845156908035278320e-01) (27, 4.14512991905212402344e-01) (28, -9.50468778610229492188e-01) (29, 2.28902146220207214355e-01) (30, 3.72964173555374145508e-01) (0, 2.38844776153564453125e+01) (1, 2.37658429145812988281e+00) (2, 2.76618885993957519531e+00) (3, 4.80307579040527343750e+00) (4, 5.02499294281005859375e+00) (5, 5.87446868419647216797e-01) (6, 1.01250195503234863281e+00) (7, 1.05443847179412841797e+00) (8, 3.92540812492370605469e-01) (9, -9.67561662197113037109e-01) (10, -3.61946314573287963867e-01) (11, -1.56695413589477539062e+00) (12, -1.91219592094421386719e+00) (13, -1.92870140075683593750e+00) (14, -1.08045232295989990234e+00) (15, -3.06107457727193832397e-02) (16, 3.05301618576049804688e+00) (17, -1.14992581307888031006e-01) (18, 1.42177700996398925781e+00) (19, 3.45020353794097900391e-01) (20, -3.46506834030151367188e+00) (21, -2.86227315664291381836e-01) (22, -2.72253483533859252930e-01) (23, -2.59467452764511108398e-01) (24, -1.78652092814445495605e-01) (25, -3.03658157587051391602e-01) (26, 7.30994105339050292969e-01) (27, 2.17282915115356445312e+00) (28, 1.94876015186309814453e-01) (29, -5.00730514526367187500e-01) (30, -8.28919029235839843750e+00) (0, -1.30517053604125976562e+00) (1, -5.94884932041168212891e-01) (2, -5.71009695529937744141e-01) (3, -3.20350468158721923828e-01) (4, -3.41402441263198852539e-01) (5, -1.63489758968353271484e-01) (6, -5.24977110326290130615e-02) (7, -6.77178278565406799316e-02) (8, -2.04531729221343994141e-01) (9, -7.70075991749763488770e-02) (10, -6.33472949266433715820e-03) (11, -1.60122402012348175049e-02) (12, -6.29038736224174499512e-02) (13, 1.59385823644697666168e-03) (14, -4.43238727748394012451e-02) (15, -9.03353095054626464844e-02) (16, 2.79891826212406158447e-02) (17, 9.42583661526441574097e-03) (18, 7.55215645767748355865e-04) (19, 5.10243885219097137451e-02) (20, 8.56823623180389404297e-02) (21, 1.18400827050209045410e-01) (22, 7.28324875235557556152e-02) (23, 9.66336671262979507446e-03) (24, 1.17413178086280822754e-01) (25, 1.40682980418205261230e-02) (26, 8.47659632563591003418e-02) (27, -3.59803298488259315491e-03) (28, -4.19138558208942413330e-02) (29, -1.06421895325183868408e-01) (30, -1.26760080456733703613e-01) (0, -4.21434545516967773438e+00) (1, -8.39452266693115234375e-01) (2, -3.07514607906341552734e-01) (3, -3.24585843086242675781e+00) (4, -6.98067009449005126953e-01) (5, -6.84266567230224609375e-01) (6, -8.96182179450988769531e-01) (7, 2.60843873023986816406e+00) (8, 4.13980513811111450195e-01) (9, -1.74659001827239990234e+00) (10, -1.96156546473503112793e-01) (11, -5.30716240406036376953e-01) (12, -1.86609578132629394531e+00) (13, -9.08352971076965332031e-01) (14, 2.08504557609558105469e+00) (15, -6.84153020381927490234e-01) (16, -7.23727285861968994141e-01) (17, -6.19797110557556152344e-01) (18, -6.73551559448242187500e-01) (19, -1.34482860565185546875e+00) (20, -3.01043319702148437500e+00) (21, 2.87461221218109130859e-01) (22, 2.59101569652557373047e-01) (23, 2.29323104023933410645e-01) (24, 3.34135919809341430664e-01) (25, 2.50301957130432128906e-01) (26, 3.72178643941879272461e-01) (27, 5.61717391014099121094e-01) (28, 7.46685624122619628906e-01) (29, 1.88485646247863769531e+00) (30, 1.01847600936889648438e+00) (0, -4.87337708473205566406e-01) (1, -4.93299901485443115234e-01) (2, -2.37769857048988342285e-01) (3, -2.74757537990808486938e-02) (4, -1.18400648236274719238e-01) (5, -1.53613433241844177246e-01) (6, -3.80570590496063232422e-02) (7, -9.47984457015991210938e-02) (8, -1.30191415548324584961e-01) (9, -2.03424155712127685547e-01) (10, -5.87229020893573760986e-02) (11, -1.57668337225914001465e-01) (12, -1.10055990517139434814e-01) (13, 1.17330998182296752930e-02) (14, 9.79414880275726318359e-02) (15, -1.62349864840507507324e-01) (16, -8.72312393039464950562e-03) (17, -4.86563518643379211426e-02) (18, 6.94656893610954284668e-02) (19, -5.46489730477333068848e-02) (20, -3.96767444908618927002e-02) (21, -8.43139290809631347656e-02) (22, -1.04522354900836944580e-01) (23, -6.06828778982162475586e-02) (24, -8.15300829708576202393e-03) (25, -5.27870245277881622314e-02) (26, -6.43988996744155883789e-02) (27, 1.00635968148708343506e-01) (28, 5.54742328822612762451e-02) (29, -3.04865717887878417969e-01) (30, -7.53322422504425048828e-01) (0, 1.50000000000000000000e+03) (1, 1.50000000000000000000e+03) (2, 1.50000000000000000000e+03) (3, 1.50000000000000000000e+03) (4, 1.50000000000000000000e+03) (5, 1.50000000000000000000e+03) (6, 1.50000000000000000000e+03) (7, 1.50000000000000000000e+03) (8, 1.50000000000000000000e+03) (9, 1.50000000000000000000e+03) (10, 1.50000000000000000000e+03) (11, 1.50000000000000000000e+03) (12, 1.50000000000000000000e+03) (13, 1.50000000000000000000e+03) (14, 1.50000000000000000000e+03) (15, 1.50000000000000000000e+03) (16, 1.50000000000000000000e+03) (17, 1.50000000000000000000e+03) (18, 1.50000000000000000000e+03) (19, 1.50000000000000000000e+03) (20, 1.50000000000000000000e+03) (21, 1.50000000000000000000e+03) (22, 1.50000000000000000000e+03) (23, 1.50000000000000000000e+03) (24, 1.50000000000000000000e+03) (25, 1.50000000000000000000e+03) (26, 1.50000000000000000000e+03) (27, 1.50000000000000000000e+03) (28, 1.50000000000000000000e+03) (29, 1.50000000000000000000e+03) (30, 1.50000000000000000000e+03) (0, -1.03543794155120849609e+00) (1, -3.22297930717468261719e-01) (2, -1.52097031474113464355e-01) (3, -1.93162485957145690918e-01) (4, -2.67935603857040405273e-01) (5, -9.78369042277336120605e-02) (6, -1.57243475317955017090e-01) (7, -2.30302378535270690918e-01) (8, -1.13979727029800415039e-01) (9, -4.71859350800514221191e-02) (10, -5.67704141139984130859e-02) (11, -5.89218065142631530762e-02) (12, -4.21624630689620971680e-02) (13, -1.27067342400550842285e-01) (14, 1.55678182840347290039e-01) (15, 3.97656299173831939697e-02) (16, 1.56059890985488891602e-01) (17, 2.23524793982505798340e-01) (18, 1.46349713206291198730e-01) (19, 3.66171076893806457520e-02) (20, 1.29125118255615234375e-01) (21, 7.64481872320175170898e-02) (22, -2.43182167410850524902e-01) (23, -2.56710678339004516602e-01) (24, -2.30772137641906738281e-01) (25, -1.55891746282577514648e-01) (26, -1.26819983124732971191e-01) (27, -1.56556919217109680176e-01) (28, -1.51659041643142700195e-01) (29, -1.34019821882247924805e-01) (30, -1.66782513260841369629e-01) (0, -6.99492752552032470703e-01) (1, -8.93686339259147644043e-02) (2, -2.81941562891006469727e-01) (3, -1.82953640818595886230e-01) (4, -1.02442584931850433350e-01) (5, -5.29329031705856323242e-02) (6, -1.66307136416435241699e-01) (7, -2.13085800409317016602e-01) (8, -2.33857914805412292480e-01) (9, -1.61110907793045043945e-01) (10, 9.24245826900005340576e-03) (11, -1.05062231421470642090e-01) (12, -1.34817153215408325195e-01) (13, 1.90636105835437774658e-02) (14, 3.63146588206291198730e-02) (15, -7.58652612566947937012e-02) (16, -4.28183749318122863770e-02) (17, 3.63714818377047777176e-04) (18, 6.69634789228439331055e-02) (19, -5.34550622105598449707e-02) (20, -1.15296140313148498535e-01) (21, -8.89440849423408508301e-02) (22, -1.45860746502876281738e-01) (23, -1.62281125783920288086e-01) (24, -3.81628759205341339111e-02) (25, -1.07622906565666198730e-01) (26, 1.72580289654433727264e-03) (27, 8.05462598800659179688e-02) (28, -3.33231091499328613281e-02) (29, 7.46473670005798339844e-02) (30, -1.69797152280807495117e-01) (0, -7.17293202877044677734e-01) (1, 1.34833586215972900391e+00) (2, -3.10501605272293090820e-01) (3, -1.80585548281669616699e-01) (4, -4.31875526905059814453e-01) (5, -3.80952417850494384766e-01) (6, -2.21133083105087280273e-01) (7, -1.99371173977851867676e-01) (8, -1.87226966023445129395e-01) (9, 1.59247033298015594482e-02) (10, -8.29116383101791143417e-04) (11, -9.51038748025894165039e-02) (12, -2.14965641498565673828e-01) (13, -1.10700383782386779785e-01) (14, -8.35164338350296020508e-02) (15, -8.14346298575401306152e-02) (16, -1.45042136311531066895e-01) (17, 9.00702774524688720703e-02) (18, -1.50771643966436386108e-02) (19, -2.87930201739072799683e-02) (20, -3.27533576637506484985e-03) (21, -1.09938561916351318359e-01) (22, -3.47354531288146972656e-01) (23, -1.99148088693618774414e-01) (24, 1.25668585300445556641e-01) (25, 2.73438412696123123169e-02) (26, 1.49240434169769287109e-01) (27, 1.68108761310577392578e-01) (28, 1.89186841249465942383e-01) (29, 2.01769337058067321777e-01) (30, -5.15907108783721923828e-02) (0, -2.15909137725830078125e+01) (1, 3.23127021789550781250e+01) (2, 2.27470830082893371582e-01) (3, 2.26113204956054687500e+01) (4, -3.70814094543457031250e+01) (5, 3.55104899406433105469e+00) (6, 2.63433003425598144531e+00) (7, 6.49431347846984863281e-01) (8, 1.34001839160919189453e+00) (9, 6.77433013916015625000e-01) (10, 6.52497768402099609375e-01) (11, 2.34931516647338867188e+00) (12, 1.19102773666381835938e+01) (13, 2.86377620697021484375e+00) (14, 5.54884052276611328125e+00) (15, 1.37485408782958984375e+00) (16, 4.82651472091674804688e-01) (17, -1.23924767971038818359e+00) (18, 1.19833278656005859375e+00) (19, 8.49728286266326904297e-01) (20, 5.90183198451995849609e-01) (21, 1.21509087085723876953e+00) (22, 1.16683304309844970703e+00) (23, 1.77691113948822021484e+00) (24, 1.06623268127441406250e+00) (25, 8.57056319713592529297e-01) (26, 1.13952326774597167969e+00) (27, 1.34810495376586914062e+00) (28, 1.10031712055206298828e+00) (29, 3.37760066986083984375e+00) (30, 2.90025615692138671875e+00) (0, -6.04730010032653808594e-01) (1, -8.88628736138343811035e-02) (2, -6.29921257495880126953e-01) (3, -4.65241861343383789062e+00) (4, -1.32534015178680419922e+00) (5, -5.49233317375183105469e-01) (6, 1.05707061290740966797e+00) (7, 2.17136014252901077271e-02) (8, -9.66231048107147216797e-01) (9, 3.76869010925292968750e+00) (10, 2.25090718269348144531e+00) (11, 3.89939069747924804688e-01) (12, 2.64947623014450073242e-01) (13, 1.33030974864959716797e+00) (14, 4.16668597608804702759e-03) (15, 1.22919297218322753906e+00) (16, 1.66137313842773437500e+00) (17, 8.69625285267829895020e-02) (18, 1.18761551380157470703e+00) (19, 1.06882166862487792969e+00) (20, 1.18725347518920898438e+00) (21, 1.33378410339355468750e+00) (22, 7.20466732978820800781e-01) (23, -4.39221225678920745850e-02) (24, 1.13192975521087646484e+00) (25, -6.55024468898773193359e-01) (26, -7.86027669906616210938e-01) (27, -6.14387416839599609375e+00) (28, 1.30927205085754394531e-01) (29, 2.68873840570449829102e-01) (30, 9.56709325313568115234e-01) (0, 4.52804279327392578125e+00) (1, -5.43866872787475585938e-01) (2, 4.00118470191955566406e-01) (3, 2.30740356445312500000e+00) (4, 1.63828551769256591797e-01) (5, -8.54303687810897827148e-02) (6, -1.09847211837768554688e+00) (7, 1.96065276861190795898e-01) (8, 6.30328580737113952637e-02) (9, 5.85245907306671142578e-01) (10, 5.77597916126251220703e-01) (11, -2.30559438467025756836e-01) (12, 5.55226624011993408203e-01) (13, 4.31512564420700073242e-01) (14, 1.18902587890625000000e+00) (15, -2.44379431009292602539e-01) (16, -6.71098649501800537109e-01) (17, 5.71378052234649658203e-01) (18, 3.87888878583908081055e-01) (19, 6.52392446994781494141e-01) (20, 6.34372651576995849609e-01) (21, 5.02686917781829833984e-01) (22, 2.99899607896804809570e-01) (23, 5.12815237045288085938e-01) (24, 7.33597159385681152344e-01) (25, -7.54022657871246337891e-01) (26, -6.22181475162506103516e-01) (27, -4.01488661766052246094e-01) (28, -8.70918631553649902344e-01) (29, -2.45481610298156738281e+00) (30, -4.40198993682861328125e+00) (0, 2.79968953132629394531e+00) (1, 9.47896063327789306641e-01) (2, 5.62990486621856689453e-01) (3, -2.73848724365234375000e+00) (4, 3.64249110221862792969e-01) (5, 2.96403586864471435547e-01) (6, 4.66569989919662475586e-01) (7, 4.53356742858886718750e-01) (8, 2.31004810333251953125e+00) (9, -4.67421203851699829102e-01) (10, -4.33524176478385925293e-02) (11, -1.34036406874656677246e-01) (12, 5.98130047321319580078e-01) (13, -1.86259359121322631836e-01) (14, -1.47501155734062194824e-01) (15, 1.15168228745460510254e-01) (16, 2.52498120069503784180e-01) (17, -8.56093227863311767578e-01) (18, -5.78088343143463134766e-01) (19, -3.72529253363609313965e-02) (20, -1.86087004840373992920e-02) (21, -3.64942103624343872070e-02) (22, 3.14641416072845458984e-01) (23, 1.57277539372444152832e-01) (24, 2.03494608402252197266e-01) (25, 6.71610310673713684082e-02) (26, 1.95824474096298217773e-01) (27, 2.07204923033714294434e-01) (28, -3.03274273872375488281e-01) (29, -1.63747355341911315918e-01) (30, 9.67046469449996948242e-02) (0, 7.34560787677764892578e-01) (1, 1.92244052886962890625e+00) (2, 3.77826660871505737305e-01) (3, 1.75637423992156982422e-01) (4, -3.77019234001636505127e-02) (5, -1.76196098327636718750e-01) (6, -6.19839072227478027344e-01) (7, -6.12055063247680664062e-01) (8, 5.05180917680263519287e-02) (9, -2.05933928489685058594e+00) (10, -1.72178709506988525391e+00) (11, -3.41485023498535156250e-01) (12, -2.87163257598876953125e+00) (13, -2.74587273597717285156e+00) (14, 7.08511352539062500000e-01) (15, 1.40205454826354980469e+00) (16, 4.77114289999008178711e-01) (17, 5.47868871688842773438e+00) (18, 1.17840490341186523438e+01) (19, 8.77576351165771484375e+00) (20, 8.45811963081359863281e-01) (21, 1.02178497314453125000e+01) (22, -1.21566190719604492188e+01) (23, 1.44954073429107666016e+00) (24, -1.18989257812500000000e+01) (25, -6.95602297782897949219e-01) (26, -5.92939472198486328125e+00) (27, -5.92104053497314453125e+00) (28, -5.93384552001953125000e+00) (29, 1.36069459915161132812e+01) (30, 1.49759235382080078125e+01) (0, -8.39223504066467285156e-01) (1, 8.18675696849822998047e-01) (2, 2.06503272056579589844e-02) (3, 1.49841785430908203125e-01) (4, -7.27911293506622314453e-03) (5, -2.08795681595802307129e-01) (6, -2.00338587164878845215e-01) (7, -4.62350808084011077881e-02) (8, 3.77026796340942382812e-02) (9, 5.20108602941036224365e-02) (10, -2.89230972528457641602e-01) (11, -7.40655958652496337891e-01) (12, 6.28176704049110412598e-02) (13, -3.08527499437332153320e-01) (14, -1.22437998652458190918e-01) (15, -3.04581820964813232422e-01) (16, -7.32620507478713989258e-02) (17, 1.87943026423454284668e-01) (18, 9.15612466633319854736e-03) (19, -1.47166386246681213379e-01) (20, -2.37820297479629516602e-01) (21, -2.11763516068458557129e-01) (22, -2.33212813735008239746e-01) (23, -1.80479526519775390625e-01) (24, -9.03926044702529907227e-02) (25, -6.91121146082878112793e-02) (26, 2.72646248340606689453e-02) (27, 1.41812860965728759766e-01) (28, 1.75695091485977172852e-01) (29, 1.45816311240196228027e-01) (30, 5.23321293294429779053e-02) (0, -9.07243251800537109375e-01) (1, -2.80806273221969604492e-01) (2, -3.52321594953536987305e-01) (3, -2.65004038810729980469e-01) (4, -2.67882317304611206055e-01) (5, -4.38105873763561248779e-02) (6, -1.30736216902732849121e-01) (7, -7.96091482043266296387e-02) (8, 4.44651022553443908691e-02) (9, 2.55407601594924926758e-01) (10, 9.26926955580711364746e-02) (11, 1.31328642368316650391e-01) (12, 2.71077215671539306641e-01) (13, 9.55695956945419311523e-02) (14, 3.28693956136703491211e-01) (15, -1.83547556400299072266e-01) (16, 4.31602627038955688477e-01) (17, 2.77122855186462402344e-01) (18, 4.80552911758422851562e-01) (19, 2.24939242005348205566e-01) (20, 6.15301057696342468262e-02) (21, 1.96062531322240829468e-02) (22, -1.47701606154441833496e-01) (23, -6.47971704602241516113e-02) (24, -2.18631371855735778809e-01) (25, -4.43518310785293579102e-02) (26, -3.62524032592773437500e-01) (27, -1.61420345306396484375e-01) (28, -9.01627123355865478516e-01) (29, -9.16768014430999755859e-01) (30, -9.67500030994415283203e-01) (0, 4.35092836618423461914e-01) (1, 1.03959095478057861328e+00) (2, 4.80943918228149414062e+00) (3, 1.98965382575988769531e+00) (4, 1.42377614974975585938e+00) (5, 4.22758245468139648438e+00) (6, 1.70765495300292968750e+00) (7, 5.76965045928955078125e+00) (8, 9.11597907543182373047e-01) (9, -6.19070351123809814453e-01) (10, -3.45467948913574218750e+00) (11, 3.16957926750183105469e+00) (12, 2.29352998733520507812e+00) (13, 2.67354726791381835938e+00) (14, -3.07240337133407592773e-01) (15, 3.02845180034637451172e-01) (16, -1.20617270469665527344e+00) (17, -3.20699167251586914062e+00) (18, -7.76628255844116210938e-02) (19, 4.71677732467651367188e+00) (20, 4.29462224245071411133e-01) (21, -5.74892818927764892578e-01) (22, -1.14375734329223632812e+00) (23, -4.66533279418945312500e+00) (24, -5.68423628807067871094e-01) (25, -1.74470686912536621094e+00) (26, 3.08192610740661621094e+00) (27, 3.96951699256896972656e+00) (28, -4.53609848022460937500e+00) (29, -4.52150678634643554688e+00) (30, -3.46185016632080078125e+00) (0, -7.54923820495605468750e-01) (1, -3.84871959686279296875e-01) (2, -4.32257317006587982178e-02) (3, 4.87440414726734161377e-02) (4, -3.00885904580354690552e-02) (5, -1.11039310693740844727e-01) (6, -2.22320482134819030762e-01) (7, -1.76800996065139770508e-01) (8, -3.19579362869262695312e-01) (9, 9.28749069571495056152e-02) (10, -5.68997375667095184326e-02) (11, -2.11575552821159362793e-01) (12, -6.55216127634048461914e-02) (13, -1.99150025844573974609e-01) (14, 1.42816141247749328613e-01) (15, 4.32934612035751342773e-02) (16, 6.04060664772987365723e-02) (17, 6.96001350879669189453e-02) (18, 1.30377337336540222168e-01) (19, 4.08868081867694854736e-02) (20, 2.34796591103076934814e-02) (21, -4.01331707835197448730e-02) (22, -1.20448730885982513428e-01) (23, -2.37234354019165039062e-01) (24, -7.96516537666320800781e-02) (25, -5.22140637040138244629e-02) (26, -1.60486415028572082520e-01) (27, -1.06104694306850433350e-01) (28, -1.62864565849304199219e-01) (29, -4.23385342583060264587e-03) (30, -1.40866875648498535156e-01) (0, 2.15179157257080078125e+00) (1, -2.93189334869384765625e+00) (2, -5.39360404014587402344e-01) (3, -2.60277986526489257812e-01) (4, -4.40611720085144042969e-01) (5, -7.32431173324584960938e-01) (6, -1.15933728218078613281e+00) (7, 1.11390121281147003174e-01) (8, -4.36698526144027709961e-01) (9, 3.98139953613281250000e+00) (10, -3.76858450472354888916e-02) (11, -1.17760978639125823975e-01) (12, -2.93378829956054687500e-01) (13, -1.01602613925933837891e+00) (14, -9.57861542701721191406e-02) (15, -8.98893177509307861328e-01) (16, 3.93917322158813476562e+00) (17, -1.99384200572967529297e+00) (18, -9.70180690288543701172e-01) (19, -3.52019518613815307617e-01) (20, -1.25303721427917480469e+00) (21, -1.17735469341278076172e+00) (22, -7.17744469642639160156e-01) (23, -7.42394208908081054688e-01) (24, 1.13013195991516113281e+00) (25, -6.16307295858860015869e-02) (26, -9.19127166271209716797e-02) (27, 6.51711404323577880859e-01) (28, -6.29619836807250976562e-01) (29, -8.79182457923889160156e-01) (30, -6.57682597637176513672e-01) (0, 1.50000000000000000000e+03) (1, 1.50000000000000000000e+03) (2, 1.50000000000000000000e+03) (3, 1.50000000000000000000e+03) (4, 1.50000000000000000000e+03) (5, 1.50000000000000000000e+03) (6, 1.50000000000000000000e+03) (7, 1.50000000000000000000e+03) (8, 1.50000000000000000000e+03) (9, 1.50000000000000000000e+03) (10, 1.50000000000000000000e+03) (11, 1.50000000000000000000e+03) (12, 1.50000000000000000000e+03) (13, 1.50000000000000000000e+03) (14, 1.50000000000000000000e+03) (15, 1.50000000000000000000e+03) (16, 1.50000000000000000000e+03) (17, 1.50000000000000000000e+03) (18, 1.50000000000000000000e+03) (19, 1.50000000000000000000e+03) (20, 1.50000000000000000000e+03) (21, 1.50000000000000000000e+03) (22, 1.50000000000000000000e+03) (23, 1.50000000000000000000e+03) (24, 1.50000000000000000000e+03) (25, 1.50000000000000000000e+03) (26, 1.50000000000000000000e+03) (27, 1.50000000000000000000e+03) (28, 1.50000000000000000000e+03) (29, 1.50000000000000000000e+03) (30, 1.50000000000000000000e+03) (0, -8.33180010318756103516e-01) (1, -2.01244354248046875000e-01) (2, 7.05384790897369384766e-01) (3, 1.12231695652008056641e+00) (4, 2.29527458548545837402e-01) (5, -2.77620172500610351562e+00) (6, -5.91612495481967926025e-02) (7, 2.65054434537887573242e-01) (8, -1.25377118587493896484e+00) (9, -5.17912209033966064453e-01) (10, 1.82365405559539794922e+00) (11, -8.31824719905853271484e-01) (12, -1.15632772445678710938e+00) (13, -9.62529778480529785156e-01) (14, 2.59112268686294555664e-01) (15, -3.93199872970581054688e+00) (16, -3.42091262340545654297e-01) (17, -3.38060289621353149414e-01) (18, 3.01103860139846801758e-01) (19, 2.92870974540710449219e+00) (20, 4.79143232107162475586e-01) (21, 6.55681896209716796875e+00) (22, 4.98468637466430664062e-01) (23, 1.00359654426574707031e+00) (24, 1.36891424655914306641e+00) (25, 8.60897958278656005859e-01) (26, 7.66670525074005126953e-01) (27, 1.92599797248840332031e+00) (28, 7.49081000685691833496e-02) (29, 6.49816170334815979004e-02) (30, 8.26313316822052001953e-01) (0, -1.34418761730194091797e+00) (1, -3.53388810157775878906e+00) (2, -5.41953945159912109375e+00) (3, 2.19807605743408203125e+01) (4, -1.80480117797851562500e+01) (5, -2.60794658660888671875e+01) (6, 1.93277359008789062500e+01) (7, -9.06243705749511718750e+00) (8, 1.50000000000000000000e+03) (9, -1.04185132980346679688e+01) (10, -7.87911701202392578125e+00) (11, 1.50000000000000000000e+03) (12, 1.50000000000000000000e+03) (13, -2.01371216773986816406e+00) (14, -4.83341121673583984375e+00) (15, 1.33437213897705078125e+01) (16, 3.30569028854370117188e+00) (17, 1.08421409130096435547e+00) (18, 1.38656842708587646484e+00) (19, -1.31274020671844482422e+00) (20, 1.93261802196502685547e+00) (21, -7.16710448265075683594e-01) (22, -2.60674715042114257812e+00) (23, -1.21587181091308593750e+00) (24, 1.41347512602806091309e-01) (25, -4.78384792804718017578e-01) (26, 7.42060065269470214844e-01) (27, 1.70953702926635742188e+00) (28, 2.96151459217071533203e-01) (29, 1.51667582988739013672e+00) (30, 1.49623370170593261719e+00) (0, -1.15110790729522705078e+00) (1, -5.81437408924102783203e-01) (2, -3.82766246795654296875e-01) (3, -1.76721543073654174805e-01) (4, -4.24233466386795043945e-01) (5, -6.65995255112648010254e-02) (6, -1.13315895199775695801e-01) (7, 5.38011780008673667908e-03) (8, -1.17677640914916992188e+00) (9, -1.24367609620094299316e-01) (10, -2.39945188164710998535e-01) (11, -1.43876910209655761719e-01) (12, -1.44965752959251403809e-01) (13, -6.88495710492134094238e-02) (14, -2.33166962862014770508e-02) (15, -1.70645177364349365234e-01) (16, 8.77207331359386444092e-03) (17, -7.48144015669822692871e-02) (18, -6.77416399121284484863e-02) (19, -1.32180780172348022461e-01) (20, -4.06159926205873489380e-03) (21, 3.75682301819324493408e-02) (22, -1.13479271531105041504e-01) (23, -2.02209930866956710815e-02) (24, -1.91631391644477844238e-01) (25, 9.16414782404899597168e-02) (26, -2.74867992848157882690e-02) (27, -1.10864173620939254761e-02) (28, 1.62749662995338439941e-02) (29, 1.10710322856903076172e-01) (30, 1.74316298216581344604e-02) (0, -9.85869348049163818359e-01) (1, -1.40426874160766601562e-01) (2, -1.08600147068500518799e-01) (3, -5.17351478338241577148e-02) (4, -2.23071813583374023438e-01) (5, -7.33098685741424560547e-02) (6, -9.70770418643951416016e-02) (7, -2.39490643143653869629e-01) (8, 1.45738935098052024841e-02) (9, -2.63475812971591949463e-03) (10, -2.48363148421049118042e-02) (11, -2.54156857728958129883e-01) (12, 1.56100958585739135742e-01) (13, -1.49129763245582580566e-01) (14, -1.98351833969354629517e-02) (15, -2.67442047595977783203e-01) (16, 1.09883593395352363586e-02) (17, 1.06177113950252532959e-01) (18, -2.44612414389848709106e-02) (19, -6.08157962560653686523e-02) (20, -1.26444220542907714844e-01) (21, -1.56979754567146301270e-01) (22, -7.34741836786270141602e-02) (23, -2.09341257810592651367e-01) (24, -8.35173726081848144531e-02) (25, -1.92219614982604980469e-01) (26, -1.11862625926733016968e-02) (27, 2.22202185541391372681e-02) (28, 3.25374938547611236572e-02) (29, 4.05469350516796112061e-03) (30, -4.34530712664127349854e-03) (0, -4.82729387283325195312e+00) (1, -1.24671638011932373047e+00) (2, -5.16995638608932495117e-02) (3, 1.12874376773834228516e+00) (4, 8.49672079086303710938e-01) (5, 2.93172299861907958984e-01) (6, 6.81138753890991210938e-01) (7, 7.28085517883300781250e-01) (8, 6.86511814594268798828e-01) (9, 1.27374613285064697266e+00) (10, 4.90260869264602661133e-01) (11, -1.08130410313606262207e-01) (12, -1.62041515111923217773e-01) (13, -3.72870922088623046875e-01) (14, 2.99921959638595581055e-01) (15, -1.64590966701507568359e+00) (16, -3.36174219846725463867e-01) (17, -1.08868896961212158203e+00) (18, -1.04414927959442138672e+00) (19, -7.76590466499328613281e-01) (20, 1.14913508296012878418e-01) (21, 7.22778081893920898438e-01) (22, -3.78493845462799072266e-01) (23, 4.95840847492218017578e-01) (24, 7.31046020984649658203e-01) (25, 8.43549609184265136719e-01) (26, 2.60252714157104492188e+00) (27, 1.23155295848846435547e+00) (28, 8.10979247093200683594e-01) (29, 1.13639354705810546875e+00) (30, 1.06205260753631591797e+00) (0, 1.56676039099693298340e-01) (1, 1.97714686393737792969e-01) (2, 2.22843497991561889648e-01) (3, 2.70759940147399902344e-01) (4, 1.50603488087654113770e-01) (5, 1.76897868514060974121e-01) (6, 1.30524978041648864746e-01) (7, 3.09374690055847167969e-01) (8, 2.11996927857398986816e-01) (9, 2.06092864274978637695e-01) (10, 3.48464220762252807617e-01) (11, 1.03778064250946044922e+00) (12, 3.30573767423629760742e-01) (13, -2.97621250152587890625e-01) (14, 4.18907664716243743896e-02) (15, 3.25258791446685791016e-01) (16, -1.22512531280517578125e+00) (17, 2.01404523849487304688e+00) (18, 1.17940318584442138672e+00) (19, 3.46333408355712890625e+00) (20, 1.77273261547088623047e+00) (21, -6.31782226264476776123e-03) (22, -3.62198305130004882812e+00) (23, -4.29995965957641601562e+00) (24, -6.86604797363281250000e+02) (25, 8.25323028564453125000e+01) (26, -2.69972419738769531250e+00) (27, -3.63242053985595703125e+00) (28, -3.05764031410217285156e+00) (29, 8.43917667865753173828e-01) (30, -1.35349857807159423828e+00) (0, 1.50000000000000000000e+03) (1, 1.50000000000000000000e+03) (2, 1.50000000000000000000e+03) (3, 1.50000000000000000000e+03) (4, 1.50000000000000000000e+03) (5, 1.50000000000000000000e+03) (6, 1.50000000000000000000e+03) (7, 1.50000000000000000000e+03) (8, 1.50000000000000000000e+03) (9, 1.50000000000000000000e+03) (10, 1.50000000000000000000e+03) (11, 1.50000000000000000000e+03) (12, 1.50000000000000000000e+03) (13, 1.50000000000000000000e+03) (14, 1.50000000000000000000e+03) (15, 1.50000000000000000000e+03) (16, 1.50000000000000000000e+03) (17, 1.50000000000000000000e+03) (18, 1.50000000000000000000e+03) (19, 1.50000000000000000000e+03) (20, 1.50000000000000000000e+03) (21, 1.50000000000000000000e+03) (22, 1.50000000000000000000e+03) (23, 1.50000000000000000000e+03) (24, 1.50000000000000000000e+03) (25, 1.50000000000000000000e+03) (26, 1.50000000000000000000e+03) (27, 1.50000000000000000000e+03) (28, 1.50000000000000000000e+03) (29, 1.50000000000000000000e+03) (30, 1.50000000000000000000e+03) (0, 6.38160848617553710938e+00) (1, 4.82126712799072265625e+00) (2, 2.50852012634277343750e+00) (3, 4.28514719009399414062e+00) (4, 6.54020500183105468750e+00) (5, 1.57293021678924560547e-01) (6, 1.96574532985687255859e+00) (7, 2.71072173118591308594e+00) (8, -1.24214208126068115234e+00) (9, 6.16273880004882812500e+00) (10, 1.03337211608886718750e+01) (11, 2.08907294273376464844e+00) (12, -2.30963230133056640625e+00) (13, -6.27933216094970703125e+00) (14, 1.28758847713470458984e+00) (15, -5.09701192378997802734e-01) (16, 3.66826367378234863281e+00) (17, 1.43941044807434082031e+00) (18, -1.18983530998229980469e+00) (19, -1.77839946746826171875e+00) (20, 1.41341638565063476562e+00) (21, 1.21594285964965820312e+01) (22, -9.56870734691619873047e-01) (23, -1.47853672504425048828e-01) (24, -2.65696907043457031250e+01) (25, -4.65385551452636718750e+01) (26, -3.29763526916503906250e+01) (27, -2.86674213409423828125e+01) (28, -1.61871070861816406250e+01) (29, 1.68042201995849609375e+01) (30, 9.65553760528564453125e+00) (0, -3.70544157922267913818e-02) (1, 2.72572422027587890625e+00) (2, 1.69735300540924072266e+00) (3, -3.95391869544982910156e+00) (4, 7.95453071594238281250e+00) (5, -9.31765174865722656250e+00) (6, 3.34344720840454101562e+00) (7, -2.33561664819717407227e-01) (8, -7.63193309307098388672e-01) (9, 5.65875768661499023438e+00) (10, 4.09555387496948242188e+00) (11, 9.45915699005126953125e+00) (12, 5.29301548004150390625e+00) (13, 1.18570289611816406250e+01) (14, 1.05793380737304687500e+00) (15, -5.32151365280151367188e+00) (16, 1.68111801147460937500e+01) (17, -6.16501140594482421875e+00) (18, -9.34355068206787109375e+00) (19, -5.72480869293212890625e+00) (20, 4.32856988906860351562e+00) (21, 1.57995474338531494141e+00) (22, 2.36928772926330566406e+00) (23, 2.08680772781372070312e+00) (24, -4.40611243247985839844e-01) (25, -2.37700462341308593750e+00) (26, -5.83519756793975830078e-01) (27, -4.18466299772262573242e-01) (28, 2.33537268638610839844e+00) (29, 1.36566266417503356934e-01) (30, -6.49224936962127685547e-01) (0, 1.02933716773986816406e+00) (1, 9.70100343227386474609e-01) (2, 2.72210955619812011719e-01) (3, -2.22851824760437011719e+00) (4, 3.46325725317001342773e-01) (5, 4.95260000228881835938e-01) (6, -1.47526895999908447266e+00) (7, -5.07994771003723144531e-01) (8, -1.15960907936096191406e+00) (9, 2.67262697219848632812e-01) (10, 5.35646438598632812500e-01) (11, -6.36228382587432861328e-01) (12, 4.37554568052291870117e-01) (13, -2.66525721549987792969e+00) (14, -3.66994202136993408203e-01) (15, 1.77456796169281005859e-01) (16, 3.47659230232238769531e+00) (17, 7.36121952533721923828e-01) (18, 5.77488541603088378906e-01) (19, 1.97783127427101135254e-01) (20, -3.03068661689758300781e+00) (21, 6.62108182907104492188e-01) (22, 1.52156507968902587891e+00) (23, 4.95895236730575561523e-01) (24, 4.27920401096343994141e-01) (25, 5.64987480640411376953e-01) (26, 1.23298978805541992188e+00) (27, 9.69150424003601074219e-01) (28, 5.12942492961883544922e-01) (29, 8.24870288372039794922e-01) (30, 1.24453413486480712891e+00) (0, -7.13402867317199707031e-01) (1, -5.72284609079360961914e-02) (2, -8.34320858120918273926e-02) (3, -1.49846404790878295898e-01) (4, -1.48750841617584228516e-01) (5, -1.18251778185367584229e-01) (6, -7.66561105847358703613e-02) (7, -1.01605504751205444336e-01) (8, -2.47447490692138671875e-01) (9, -2.28850990533828735352e-02) (10, -1.63186877965927124023e-01) (11, -2.16041058301925659180e-01) (12, -1.08289569616317749023e-01) (13, -1.90042302012443542480e-01) (14, 3.51916775107383728027e-02) (15, -2.13901355862617492676e-01) (16, 1.22819216921925544739e-02) (17, -2.89161372929811477661e-02) (18, 4.05062623322010040283e-02) (19, -2.90700010955333709717e-02) (20, -1.65420547127723693848e-01) (21, -1.02825708687305450439e-01) (22, -1.67849555611610412598e-01) (23, -5.97633719444274902344e-02) (24, -1.27408161759376525879e-01) (25, 7.87352174520492553711e-02) (26, 4.00023087859153747559e-02) (27, 2.45386615395545959473e-01) (28, 1.83606341481208801270e-01) (29, 1.33794307708740234375e-01) (30, -1.98982402682304382324e-01) (0, 1.50000000000000000000e+03) (1, 1.50000000000000000000e+03) (2, 1.50000000000000000000e+03) (3, 1.50000000000000000000e+03) (4, 1.50000000000000000000e+03) (5, 1.50000000000000000000e+03) (6, 1.50000000000000000000e+03) (7, 1.50000000000000000000e+03) (8, 1.50000000000000000000e+03) (9, 1.50000000000000000000e+03) (10, 1.50000000000000000000e+03) (11, 1.50000000000000000000e+03) (12, 1.50000000000000000000e+03) (13, 1.50000000000000000000e+03) (14, 1.50000000000000000000e+03) (15, 1.50000000000000000000e+03) (16, 1.50000000000000000000e+03) (17, 1.50000000000000000000e+03) (18, 1.50000000000000000000e+03) (19, 1.50000000000000000000e+03) (20, 1.50000000000000000000e+03) (21, 1.50000000000000000000e+03) (22, 1.50000000000000000000e+03) (23, 1.50000000000000000000e+03) (24, 1.50000000000000000000e+03) (25, 1.50000000000000000000e+03) (26, 1.50000000000000000000e+03) (27, 1.50000000000000000000e+03) (28, 1.50000000000000000000e+03) (29, 1.50000000000000000000e+03) (30, 1.50000000000000000000e+03) (0, 1.65218906402587890625e+01) (1, 2.62879776954650878906e+00) (2, 1.02705013751983642578e+00) (3, 3.87167739868164062500e+00) (4, 2.72504377365112304688e+00) (5, 3.03225308656692504883e-01) (6, 1.01440644264221191406e+00) (7, 4.62853014469146728516e-01) (8, -9.71685707569122314453e-01) (9, 3.04461389780044555664e-01) (10, 5.11048257350921630859e-01) (11, -2.03880167007446289062e+00) (12, -1.49801516532897949219e+00) (13, -2.21751675009727478027e-01) (14, 4.38531309366226196289e-01) (15, 3.12551319599151611328e-01) (16, 7.77583003044128417969e-01) (17, 1.46935090422630310059e-01) (18, 5.63842415809631347656e-01) (19, -1.46450650691986083984e+00) (20, -8.61514925956726074219e-01) (21, -1.42391920089721679688e-01) (22, 3.80789302289485931396e-02) (23, -6.10748380422592163086e-02) (24, 3.62308949232101440430e-01) (25, -9.18868780136108398438e-01) (26, 9.25364851951599121094e-01) (27, -1.08051002025604248047e-01) (28, 2.72032022476196289062e-01) (29, -3.06126475334167480469e+00) (30, -1.42695498466491699219e+00) (0, 3.42455923557281494141e-01) (1, 1.32215261459350585938e+00) (2, -6.56344950199127197266e-01) (3, 1.26072132587432861328e+00) (4, -1.59473776817321777344e+00) (5, -8.40850412845611572266e-01) (6, -4.67650079727172851562e+00) (7, -8.84309187531471252441e-02) (8, -4.04334776103496551514e-02) (9, 2.24334001541137695312e-01) (10, 1.62074792385101318359e+00) (11, -1.92160438746213912964e-02) (12, -5.11275306344032287598e-02) (13, 1.50000000000000000000e+03) (14, 7.43384003639221191406e-01) (15, -7.66142457723617553711e-02) (16, -4.12025272846221923828e-01) (17, 1.50000000000000000000e+03) (18, 1.50000000000000000000e+03) (19, 9.53518092632293701172e-01) (20, 6.43450736999511718750e-01) (21, 5.26308000087738037109e-01) (22, 1.50000000000000000000e+03) (23, 1.50000000000000000000e+03) (24, 1.50000000000000000000e+03) (25, 1.50000000000000000000e+03) (26, 1.50000000000000000000e+03) (27, 1.50000000000000000000e+03) (28, 1.50000000000000000000e+03) (29, 2.74790334701538085938e+00) (30, 2.75009489059448242188e+00) (0, -1.62425065040588378906e+00) (1, -2.59355574846267700195e-01) (2, -2.64953315258026123047e-01) (3, -2.09568887948989868164e-01) (4, -4.46375250816345214844e-01) (5, -3.92203807830810546875e-01) (6, -4.02802675962448120117e-01) (7, -2.83185958862304687500e-01) (8, -1.61090815067291259766e+00) (9, 1.93711414933204650879e-01) (10, -8.95275399088859558105e-02) (11, -5.28655163943767547607e-02) (12, 2.86878466606140136719e-01) (13, -3.25374491512775421143e-02) (14, -8.88793319463729858398e-02) (15, -1.73936784267425537109e-01) (16, 1.29355221986770629883e-01) (17, 8.99501621723175048828e-01) (18, 9.17326956987380981445e-02) (19, -1.32486268877983093262e-01) (20, -1.39146909117698669434e-01) (21, -5.92018663883209228516e-02) (22, -1.52085214853286743164e-01) (23, -1.04707352817058563232e-01) (24, -8.68010446429252624512e-02) (25, 1.25629886984825134277e-01) (26, -1.07270173728466033936e-01) (27, -1.32645115256309509277e-01) (28, -2.14744105935096740723e-01) (29, -9.10094976425170898438e-02) (30, -1.44528940320014953613e-01) (0, -1.10024809837341308594e+00) (1, 3.35602223873138427734e-01) (2, 2.31536477804183959961e-01) (3, 3.20716172456741333008e-01) (4, 3.28628234565258026123e-02) (5, -8.18492770195007324219e-02) (6, -1.24151669442653656006e-01) (7, -3.08841671794652938843e-02) (8, -2.10822090506553649902e-01) (9, -1.94222733378410339355e-01) (10, 1.19091659784317016602e-01) (11, -6.14425778388977050781e-01) (12, 1.41997933387756347656e-01) (13, -1.25842411071062088013e-02) (14, 2.33552023768424987793e-01) (15, 1.57258864492177963257e-02) (16, 1.94184169173240661621e-01) (17, -8.22171382606029510498e-03) (18, -6.20645955204963684082e-02) (19, -2.14944258332252502441e-02) (20, -3.97681184113025665283e-02) (21, -3.26072037220001220703e-01) (22, -2.59689480066299438477e-01) (23, -1.48145526647567749023e-01) (24, -2.66691774129867553711e-01) (25, -1.71345874667167663574e-01) (26, -1.32204145193099975586e-01) (27, -2.61894911527633666992e-02) (28, 1.41655541956424713135e-02) (29, -8.31474363803863525391e-02) (30, -1.64899781346321105957e-01) (0, 8.18586587905883789062e-01) (1, 1.58481383323669433594e+00) (2, -4.54059123992919921875e-01) (3, -4.94163656234741210938e+00) (4, -1.51247322559356689453e+00) (5, -1.87743932008743286133e-01) (6, -5.67491576075553894043e-02) (7, 9.91050004959106445312e-02) (8, -9.17568616569042205811e-03) (9, 1.92044913768768310547e-01) (10, -1.10320091247558593750e-01) (11, 7.55106091499328613281e-01) (12, 1.14843440055847167969e+00) (13, 1.70119762420654296875e-01) (14, 1.32631316781044006348e-01) (15, -2.28934258222579956055e-01) (16, 1.06337711215019226074e-01) (17, -1.22229731082916259766e+00) (18, -5.03131031990051269531e-01) (19, -1.21521651744842529297e+00) (20, 1.56910996884107589722e-03) (21, 6.52002822607755661011e-03) (22, 3.37380319833755493164e-01) (23, 5.02159714698791503906e-01) (24, 9.28151607513427734375e-01) (25, 4.42369878292083740234e-01) (26, 6.33866265416145324707e-02) (27, -2.41682380437850952148e-01) (28, -7.74743318557739257812e-01) (29, -8.12774419784545898438e-01) (30, -8.03080022335052490234e-01) (0, -5.05470395088195800781e-01) (1, 7.44515538215637207031e-01) (2, 4.13811385631561279297e-01) (3, 8.24051737785339355469e-01) (4, -3.94712500274181365967e-02) (5, 3.97192299365997314453e-01) (6, -2.73794859647750854492e-01) (7, 3.28294575214385986328e-01) (8, 4.18218821287155151367e-01) (9, 6.60140931606292724609e-01) (10, 4.67045992612838745117e-01) (11, -3.09165894985198974609e-01) (12, -5.55506408214569091797e-01) (13, -9.14177715778350830078e-01) (14, 6.45650088787078857422e-01) (15, -1.32283806800842285156e+00) (16, -2.04143285751342773438e-01) (17, 4.37855213880538940430e-01) (18, 2.93416857719421386719e-01) (19, 3.54792028665542602539e-01) (20, 1.52896672487258911133e-01) (21, 3.13129037618637084961e-01) (22, 1.31778240203857421875e-01) (23, 2.29952961206436157227e-01) (24, 6.13146983087062835693e-02) (25, 3.35319995880126953125e-01) (26, -1.87601834535598754883e-01) (27, 1.29170686006546020508e-01) (28, 5.44891297817230224609e-01) (29, 5.49125850200653076172e-01) (30, 2.08599090576171875000e-01) (0, -1.23968183994293212891e+00) (1, -4.56071615219116210938e-01) (2, -3.80122512578964233398e-01) (3, -2.93908178806304931641e-01) (4, -2.88571983575820922852e-01) (5, -3.21957141160964965820e-01) (6, -3.47765743732452392578e-01) (7, -2.80554562807083129883e-01) (8, -1.13177120685577392578e-01) (9, 9.25933793187141418457e-02) (10, 9.87112522125244140625e-02) (11, 9.30192917585372924805e-02) (12, 5.16607202589511871338e-02) (13, -7.53057077527046203613e-02) (14, 8.89138728380203247070e-02) (15, -4.42080199718475341797e-02) (16, 1.47994846105575561523e-01) (17, 8.11045095324516296387e-02) (18, 2.29774177074432373047e-01) (19, 9.08198207616806030273e-03) (20, 6.91088810563087463379e-02) (21, 5.86683265864849090576e-02) (22, -1.19147878140211105347e-02) (23, 2.92905867099761962891e-02) (24, -9.12430044263601303101e-03) (25, 4.19075898826122283936e-02) (26, -3.79947610199451446533e-02) (27, -1.37329012155532836914e-01) (28, -1.25957041978836059570e-01) (29, -5.33915720880031585693e-02) (30, 4.71760751679539680481e-03) (0, 7.30223798751831054688e+00) (1, 4.47114944458007812500e-01) (2, 1.06972157955169677734e+00) (3, 1.89036595821380615234e+00) (4, 1.68159115314483642578e+00) (5, -1.28575122356414794922e+00) (6, 1.24115622043609619141e+00) (7, 2.49752774834632873535e-01) (8, 5.96544444561004638672e-02) (9, -6.94731324911117553711e-02) (10, 2.61778980493545532227e-01) (11, -1.01366806030273437500e+00) (12, -8.60348403453826904297e-01) (13, -3.14538657665252685547e-01) (14, -5.17621397972106933594e-01) (15, -6.44298672676086425781e-01) (16, 6.54127717018127441406e-01) (17, -4.00919437408447265625e-01) (18, 6.56540870666503906250e-01) (19, -3.74582558870315551758e-01) (20, -2.10094690322875976562e-01) (21, -1.40979275107383728027e-01) (22, 1.79400563240051269531e-01) (23, 2.31964617967605590820e-01) (24, 5.63311755657196044922e-01) (25, 1.72001257538795471191e-01) (26, 2.36240178346633911133e-01) (27, 2.59435027837753295898e-01) (28, 2.88563251495361328125e-01) (29, -1.25172352790832519531e+00) (30, 6.22846245765686035156e-01) (0, -1.27808749675750732422e+00) (1, -3.64789158105850219727e-01) (2, -1.21760725975036621094e-01) (3, -2.52271965146064758301e-02) (4, -2.09994733333587646484e-01) (5, -1.14017516374588012695e-01) (6, -1.78145900368690490723e-01) (7, -1.69549182057380676270e-01) (8, -1.87341898679733276367e-01) (9, -2.41953730583190917969e-01) (10, 3.30864521674811840057e-03) (11, 1.84390004724264144897e-02) (12, -3.41834174469113349915e-03) (13, -3.30630689859390258789e-02) (14, 1.63776069879531860352e-01) (15, -9.40434634685516357422e-02) (16, 2.24882438778877258301e-02) (17, 7.03169330954551696777e-02) (18, 1.06369629502296447754e-01) (19, 1.05422168970108032227e-01) (20, 1.15711301565170288086e-01) (21, -3.51369567215442657471e-02) (22, 7.92407244443893432617e-02) (23, 1.05904661118984222412e-01) (24, -2.30266481637954711914e-01) (25, -1.49534761905670166016e-01) (26, -4.54196371138095855713e-02) (27, -1.55085414648056030273e-01) (28, -1.13100297749042510986e-01) (29, -5.50883226096630096436e-02) (30, -1.03187304921448230743e-03) (0, -2.18879675865173339844e+00) (1, 4.22445583343505859375e+00) (2, 2.05706524848937988281e+00) (3, -4.04735898971557617188e+00) (4, -1.24071586132049560547e+00) (5, 1.47747290134429931641e+00) (6, 6.88634753227233886719e-01) (7, -8.74119877815246582031e-01) (8, -7.00360536575317382812e-01) (9, 1.44781529903411865234e+00) (10, 5.27662970125675201416e-03) (11, 3.39783024787902832031e+00) (12, 5.27434349060058593750e-01) (13, 3.78671884536743164062e-01) (14, 5.53515553474426269531e-01) (15, 1.04361651465296745300e-02) (16, 5.28528392314910888672e-01) (17, 7.95993924140930175781e-01) (18, 6.39234185218811035156e-01) (19, 1.30142271518707275391e+00) (20, 3.34110558032989501953e-01) (21, -1.11884891986846923828e+00) (22, 5.62784969806671142578e-01) (23, 2.52454072237014770508e-01) (24, -2.45418742299079895020e-01) (25, -7.09167659282684326172e-01) (26, -1.23062722384929656982e-01) (27, 2.57400691509246826172e-01) (28, 3.11637848615646362305e-01) (29, 1.87908019870519638062e-02) (30, 5.81437766551971435547e-01) (0, 8.84362101554870605469e-01) (1, 9.79206919670104980469e-01) (2, 3.46277379989624023438e+00) (3, 2.33330106735229492188e+00) (4, 6.95092737674713134766e-01) (5, -1.39215707778930664062e+00) (6, -3.18811386823654174805e-01) (7, -9.81285810470581054688e-01) (8, -9.92469489574432373047e-01) (9, 3.80916327238082885742e-01) (10, 2.69005012512207031250e+00) (11, -1.27308809757232666016e+00) (12, 1.09277236461639404297e+00) (13, -9.27274644374847412109e-01) (14, 5.65570294857025146484e-01) (15, -1.75814056396484375000e+00) (16, -1.15939009189605712891e+00) (17, 1.09606575965881347656e+00) (18, 1.17927622795104980469e+00) (19, -1.34635734558105468750e+00) (20, 6.90136700868606567383e-02) (21, 6.39966011047363281250e-01) (22, 3.50249004364013671875e+00) (23, 5.11403679847717285156e-01) (24, 2.43438577651977539062e+00) (25, 2.41931104660034179688e+00) (26, 1.34755730628967285156e+00) (27, -5.66746473312377929688e+00) (28, 1.24578881263732910156e+00) (29, -1.40820634365081787109e+00) (30, 1.01421892642974853516e+00) (0, -1.00986421108245849609e+00) (1, -4.88347977399826049805e-01) (2, -3.23743432760238647461e-01) (3, -3.88051539659500122070e-01) (4, -1.31828144192695617676e-01) (5, -1.48332893848419189453e-01) (6, -7.94242247939109802246e-02) (7, -8.00405964255332946777e-02) (8, -1.82787641882896423340e-01) (9, -7.75223672389984130859e-02) (10, -2.67243713140487670898e-01) (11, -5.94953559339046478271e-02) (12, -1.25762507319450378418e-01) (13, -6.19236752390861511230e-02) (14, -1.56208217144012451172e-01) (15, -2.10691690444946289062e-01) (16, 4.60991337895393371582e-02) (17, -1.42222149297595024109e-02) (18, -4.94972877204418182373e-02) (19, -1.43271610140800476074e-01) (20, -9.29153934121131896973e-02) (21, -9.66624468564987182617e-02) (22, -6.07306845486164093018e-02) (23, -1.67295649647712707520e-01) (24, -1.13654449582099914551e-01) (25, -1.71193387359380722046e-02) (26, -1.52109220623970031738e-01) (27, -1.94071784615516662598e-01) (28, -1.14451661705970764160e-01) (29, -1.19216581806540489197e-02) (30, -8.83960798382759094238e-02) (0, 1.50000000000000000000e+03) (1, 1.50000000000000000000e+03) (2, 1.50000000000000000000e+03) (3, 1.50000000000000000000e+03) (4, 1.50000000000000000000e+03) (5, 1.50000000000000000000e+03) (6, 1.50000000000000000000e+03) (7, 1.50000000000000000000e+03) (8, 1.50000000000000000000e+03) (9, 1.50000000000000000000e+03) (10, 1.50000000000000000000e+03) (11, 1.50000000000000000000e+03) (12, 1.50000000000000000000e+03) (13, 1.50000000000000000000e+03) (14, 1.50000000000000000000e+03) (15, 1.50000000000000000000e+03) (16, 1.50000000000000000000e+03) (17, 1.50000000000000000000e+03) (18, 1.50000000000000000000e+03) (19, 1.50000000000000000000e+03) (20, 1.50000000000000000000e+03) (21, 1.50000000000000000000e+03) (22, 1.50000000000000000000e+03) (23, 1.50000000000000000000e+03) (24, 1.50000000000000000000e+03) (25, 1.50000000000000000000e+03) (26, 1.50000000000000000000e+03) (27, 1.50000000000000000000e+03) (28, 1.50000000000000000000e+03) (29, 1.50000000000000000000e+03) (30, 1.50000000000000000000e+03) (0, 8.21775913238525390625e+00) (1, -1.60261650085449218750e+01) (2, 1.50000000000000000000e+03) (3, 1.50000000000000000000e+03) (4, 4.08323135375976562500e+01) (5, 3.01830554008483886719e+00) (6, -3.04870200157165527344e+00) (7, 1.50000000000000000000e+03) (8, 1.50000000000000000000e+03) (9, 1.50000000000000000000e+03) (10, 1.50000000000000000000e+03) (11, -6.37286643981933593750e+01) (12, 1.24743187427520751953e+00) (13, 1.16268932819366455078e+00) (14, -1.15264759063720703125e+01) (15, 1.31778344511985778809e-01) (16, -7.37423777580261230469e-01) (17, -7.91647529602050781250e+00) (18, -7.86479711532592773438e+00) (19, -2.17746353149414062500e+00) (20, -2.92633748054504394531e+00) (21, -1.55863392353057861328e+00) (22, 3.49562668800354003906e+00) (23, 9.13382887840270996094e-01) (24, 5.55931901931762695312e+00) (25, 3.68018150329589843750e+00) (26, 1.16439332962036132812e+01) (27, 6.42145442962646484375e+00) (28, 7.25139951705932617188e+00) (29, 1.04207456111907958984e+00) (30, 2.18566513061523437500e+00) (31, 1.50000000000000000000e+03) (32, 5.89467406272888183594e-01) (33, 3.41907620429992675781e-01) (34, 2.00328254699707031250e+00) (35, -3.08794736862182617188e-01) (36, -2.44553580880165100098e-01) (37, -2.25771808624267578125e+00) (38, -7.37644493579864501953e-01) (39, 1.74978792667388916016e-01) (40, 4.99829530715942382812e+00) (41, 1.74504041671752929688e+00) (42, -3.10763984918594360352e-01) (43, -1.73870306462049484253e-02) (44, 8.04737663269042968750e+00) (45, 9.27069723606109619141e-01) (46, -4.20948974788188934326e-02) (47, -2.39732801914215087891e-01) (48, 1.09343409538269042969e+00) (49, -3.01668703556060791016e-01) (50, 1.50000000000000000000e+03) (51, -4.12653982639312744141e-01) (52, -1.63500890135765075684e-01) (53, -2.24558025598526000977e-01) (54, 1.08911457061767578125e+01) (55, 6.60604774951934814453e-01) (56, 6.49406015872955322266e-01) (57, -2.21062488853931427002e-02) (58, 9.92256069183349609375e+00) (59, -4.51975047588348388672e-01) (60, -1.42849236726760864258e-01) (61, 4.80328470468521118164e-01) (62, -3.53298604488372802734e-01) (63, 1.46639919281005859375e+00) (64, 1.50000000000000000000e+03) (65, -6.61695301532745361328e-01) (66, -6.73858404159545898438e+00) (67, -1.63848742842674255371e-01) (68, -4.38678234815597534180e-01) (69, 1.04735386371612548828e+00) (70, 4.28207635879516601562e+00) (71, 1.50000000000000000000e+03) (72, -1.74994456768035888672e+00) (73, 3.24994277954101562500e+00) (74, 1.92888700962066650391e+00) (75, -3.58124762773513793945e-01) (76, 1.50000000000000000000e+03) (77, -1.76241829991340637207e-01) (78, 1.37473627924919128418e-01) (79, -4.10761982202529907227e-02) (80, -3.09338688850402832031e-01) (81, -4.09219413995742797852e-01) (82, 8.34025442600250244141e-02) (83, -2.45123624801635742188e-01) (84, 1.29782363772392272949e-01) (85, -3.17077904939651489258e-01) (86, -1.75575745105743408203e+00) (87, -1.49663865566253662109e+00) (88, -1.88571065664291381836e-01) (89, 1.50000000000000000000e+03) (90, -1.90285658836364746094e+00) (91, 1.85335361957550048828e+00) (31, 1.50000000000000000000e+03) (32, 6.11554384231567382812e-01) (33, 6.08631134033203125000e-01) (34, 1.65246188640594482422e+00) (35, -7.07396045327186584473e-02) (36, -2.94397383928298950195e-01) (37, -2.00283980369567871094e+00) (38, -3.69680643081665039062e-01) (39, 6.55603051185607910156e-01) (40, 5.11346292495727539062e+00) (41, 1.25904202461242675781e+00) (42, -1.49518251419067382812e-01) (43, -9.34602599591016769409e-03) (44, 8.91976261138916015625e+00) (45, 8.31248164176940917969e-01) (46, -7.43948668241500854492e-02) (47, -3.01777273416519165039e-01) (48, 6.77398622035980224609e-01) (49, -1.51145800948143005371e-01) (50, 1.50000000000000000000e+03) (51, -3.48830789327621459961e-01) (52, -3.42640846967697143555e-01) (53, -4.33007299900054931641e-01) (54, 1.16673593521118164062e+01) (55, 6.50909185409545898438e-01) (56, 2.38883674144744873047e-01) (57, 3.14595326781272888184e-02) (58, 1.13217020034790039062e+01) (59, -3.32744628190994262695e-01) (60, -6.93730413913726806641e-01) (61, 3.39727252721786499023e-01) (62, -3.18515956401824951172e-01) (63, 1.46249341964721679688e+00) (64, 1.50000000000000000000e+03) (65, -6.65083706378936767578e-01) (66, -4.79750728607177734375e+00) (67, -9.95111539959907531738e-02) (68, -3.56077790260314941406e-01) (69, 1.20904684066772460938e+00) (70, 3.75637078285217285156e+00) (71, 1.50000000000000000000e+03) (72, -1.60398924350738525391e+00) (73, 2.24136304855346679688e+00) (74, 2.07830238342285156250e+00) (75, -2.10227072238922119141e-01) (76, 1.50000000000000000000e+03) (77, -2.39737719297409057617e-01) (78, 7.01354742050170898438e-02) (79, -2.34650209546089172363e-01) (80, -5.41299819946289062500e-01) (81, -5.50832271575927734375e-01) (82, 1.12533187493681907654e-02) (83, -3.93794864416122436523e-01) (84, 1.31000906229019165039e-01) (85, -3.59001845121383666992e-01) (86, -1.70079958438873291016e+00) (87, -1.31493878364562988281e+00) (88, -3.92815358936786651611e-02) (89, 1.50000000000000000000e+03) (90, -1.47450697422027587891e+00) (91, 1.74662137031555175781e+00) (31, 1.50000000000000000000e+03) (32, 8.45057845115661621094e-01) (33, 9.29067969322204589844e-01) (34, 1.32538199424743652344e+00) (35, -1.14163599908351898193e-01) (36, -2.12740808725357055664e-01) (37, -1.71025407314300537109e+00) (38, -1.31805285811424255371e-01) (39, 7.35702991485595703125e-01) (40, 5.09083366394042968750e+00) (41, 2.00047659873962402344e+00) (42, -2.64619350433349609375e-01) (43, -2.82678678631782531738e-02) (44, 9.29640483856201171875e+00) (45, 8.15053403377532958984e-01) (46, -1.11389808356761932373e-01) (47, -3.65110576152801513672e-01) (48, 4.79800164699554443359e-01) (49, -3.02673041820526123047e-01) (50, 1.50000000000000000000e+03) (51, -4.71231639385223388672e-01) (52, -2.88110375404357910156e-01) (53, -3.52588236331939697266e-01) (54, -1.28450846672058105469e+00) (55, 6.10439240932464599609e-01) (56, 3.62676344811916351318e-02) (57, 6.29569590091705322266e-02) (58, 1.26954126358032226562e+01) (59, -2.41250395774841308594e-01) (60, -1.17890894412994384766e+00) (61, 2.56387978792190551758e-01) (62, -4.62035804986953735352e-01) (63, 1.29620480537414550781e+00) (64, 1.50000000000000000000e+03) (65, -6.36640548706054687500e-01) (66, -3.40354013442993164062e+00) (67, -6.88806846737861633301e-02) (68, -2.29802712798118591309e-01) (69, 1.27875149250030517578e+00) (70, 3.31297564506530761719e+00) (71, 1.50000000000000000000e+03) (72, -1.33323943614959716797e+00) (73, 1.64800715446472167969e+00) (74, 2.04616069793701171875e+00) (75, -3.32573413848876953125e-01) (76, 1.50000000000000000000e+03) (77, -2.69447088241577148438e-01) (78, -6.98965132236480712891e-01) (79, -8.28808024525642395020e-02) (80, -4.24971163272857666016e-01) (81, -4.07410919666290283203e-01) (82, 1.49194419384002685547e-01) (83, -3.87276917695999145508e-01) (84, -3.46926227211952209473e-02) (85, -4.45925056934356689453e-01) (86, -1.58054852485656738281e+00) (87, -1.13663613796234130859e+00) (88, -8.62574428319931030273e-02) (89, 1.50000000000000000000e+03) (90, -9.63999092578887939453e-01) (91, 1.61851024627685546875e+00) (31, 1.50000000000000000000e+03) (32, 7.20949470996856689453e-02) (33, 1.21833011507987976074e-01) (34, -3.92217326164245605469e+00) (35, 3.56529563665390014648e-01) (36, 3.65151107311248779297e-01) (37, 5.90008687973022460938e+00) (38, 6.90086960792541503906e-01) (39, 1.85057163238525390625e-01) (40, -3.46529722213745117188e-01) (41, -1.30182194709777832031e+00) (42, 3.11399817466735839844e-01) (43, 1.47056055068969726562e+00) (44, -1.27642822265625000000e+00) (45, -1.51216244697570800781e+00) (46, 2.71495819091796875000e+00) (47, 3.43760311603546142578e-01) (48, -1.77844631671905517578e+00) (49, 3.64335000514984130859e-01) (50, 1.50000000000000000000e+03) (51, 2.91055262088775634766e-01) (52, 3.56826931238174438477e-01) (53, 3.17031234502792358398e-01) (54, -2.94853401184082031250e+00) (55, -4.85257506370544433594e-01) (56, -1.44730734825134277344e+00) (57, 1.36267733573913574219e+00) (58, 2.30218315124511718750e+00) (59, 2.53856003284454345703e-01) (60, -1.28745250403881072998e-02) (61, -9.19043719768524169922e-01) (62, 1.44369736313819885254e-01) (63, -2.73594236373901367188e+00) (64, 1.50000000000000000000e+03) (65, 8.99449825286865234375e-01) (66, 1.30157546997070312500e+01) (67, 4.47388887405395507812e-01) (68, 3.28794479370117187500e-01) (69, -5.28356194496154785156e-01) (70, -7.78637218475341796875e+00) (71, 1.50000000000000000000e+03) (72, 1.27155148983001708984e+00) (73, -5.89515209197998046875e+00) (74, -9.37102794647216796875e-01) (75, 3.81136476993560791016e-01) (76, 1.50000000000000000000e+03) (77, 1.87074184417724609375e+00) (78, -2.34034538269042968750e+00) (79, 4.17295753955841064453e-01) (80, 2.84630924463272094727e-01) (81, 2.31233191490173339844e+00) (82, -7.96402812004089355469e-01) (83, 2.54960715770721435547e-01) (84, 2.89924025535583496094e-01) (85, 1.92381873726844787598e-01) (86, 3.38802552223205566406e+00) (87, 2.87874794006347656250e+00) (88, 3.90000402927398681641e-01) (89, 1.50000000000000000000e+03) (90, 2.88965702056884765625e+00) (91, -7.22153335809707641602e-02) (31, 1.50000000000000000000e+03) (32, 1.59608926624059677124e-02) (33, 3.17128390073776245117e-01) (34, -3.73423504829406738281e+00) (35, 3.63450825214385986328e-01) (36, 4.14997488260269165039e-01) (37, 6.09837055206298828125e+00) (38, 5.31085908412933349609e-01) (39, 2.11961850523948669434e-01) (40, -3.50401759147644042969e-01) (41, -3.76950883865356445312e+00) (42, 1.65246188640594482422e-01) (43, 2.01658368110656738281e+00) (44, -7.45295226573944091797e-01) (45, -1.34569966793060302734e+00) (46, 3.35919642448425292969e+00) (47, 1.77415743470191955566e-01) (48, -1.71778213977813720703e+00) (49, 1.64255917072296142578e-01) (50, 1.50000000000000000000e+03) (51, 1.91273882985115051270e-01) (52, 3.16983848810195922852e-01) (53, 3.05784076452255249023e-01) (54, -1.98461759090423583984e+00) (55, -3.14502447843551635742e-01) (56, -1.38993144035339355469e+00) (57, 8.74689042568206787109e-01) (58, 1.34769165515899658203e+00) (59, 3.43849658966064453125e-01) (60, -9.38766747713088989258e-02) (61, -1.09360849857330322266e+00) (62, 2.86436647176742553711e-01) (63, -1.91677379608154296875e+00) (64, 1.50000000000000000000e+03) (65, 7.58670091629028320312e-01) (66, 1.31192464828491210938e+01) (67, 3.79913747310638427734e-01) (68, 2.04616725444793701172e-01) (69, -4.40107494592666625977e-01) (70, -8.18900203704833984375e+00) (71, 1.50000000000000000000e+03) (72, 1.40327572822570800781e+00) (73, -6.01165390014648437500e+00) (74, -8.87951731681823730469e-01) (75, 2.34363242983818054199e-01) (76, 1.50000000000000000000e+03) (77, 2.41423273086547851562e+00) (78, -9.52637195587158203125e-01) (79, 4.14570301771163940430e-01) (80, 3.08425694704055786133e-01) (81, 1.69407105445861816406e+00) (82, -9.44916784763336181641e-01) (83, 2.47970104217529296875e-01) (84, 7.46998906135559082031e-01) (85, 2.87067532539367675781e-01) (86, 3.54851388931274414062e+00) (87, 2.52829599380493164062e+00) (88, 3.73084068298339843750e-01) (89, 1.50000000000000000000e+03) (90, 3.47282552719116210938e+00) (91, -4.31357659399509429932e-02) (31, 1.50000000000000000000e+03) (32, 1.84844583272933959961e-01) (33, 5.22624671459197998047e-01) (34, -3.47774219512939453125e+00) (35, 9.16147883981466293335e-03) (36, 2.54662334918975830078e-01) (37, 6.39316892623901367188e+00) (38, 6.77336156368255615234e-01) (39, 4.77356523275375366211e-01) (40, -2.69100219011306762695e-01) (41, -2.06700396537780761719e+00) (42, 2.62522310018539428711e-01) (43, 1.43791162967681884766e+00) (44, -9.68185216188430786133e-02) (45, -6.58979058265686035156e-01) (46, 3.89630031585693359375e+00) (47, -3.54670248925685882568e-02) (48, -1.30519795417785644531e+00) (49, 7.89582356810569763184e-02) (50, 1.50000000000000000000e+03) (51, 2.68898665904998779297e-01) (52, 2.43099778890609741211e-01) (53, 2.76596397161483764648e-01) (54, -1.72155714035034179688e+00) (55, -4.19284731149673461914e-01) (56, -9.89981412887573242188e-01) (57, 5.03116846084594726562e-01) (58, 5.07640779018402099609e-01) (59, 1.25365301966667175293e-01) (60, -6.50685846805572509766e-01) (61, -9.98737156391143798828e-01) (62, 2.41236150264739990234e-01) (63, -8.09777081012725830078e-01) (64, 1.50000000000000000000e+03) (65, 6.53704285621643066406e-01) (66, 1.22771577835083007812e+01) (67, 1.71703651547431945801e-01) (68, 1.76246345043182373047e-01) (69, -1.76547244191169738770e-01) (70, -9.16078186035156250000e+00) (71, 1.50000000000000000000e+03) (72, 1.47476017475128173828e+00) (73, -5.89999389648437500000e+00) (74, -6.55475199222564697266e-01) (75, 5.97455464303493499756e-02) (76, 1.50000000000000000000e+03) (77, 2.67939901351928710938e+00) (78, -2.48963189125061035156e+00) (79, 2.60489255189895629883e-01) (80, 2.13444292545318603516e-01) (81, 1.03335297107696533203e+00) (82, -1.21935951709747314453e+00) (83, 7.23675936460494995117e-02) (84, 2.41440320014953613281e+00) (85, 1.77865505218505859375e-01) (86, 3.83291339874267578125e+00) (87, 1.99623370170593261719e+00) (88, 1.06237940490245819092e-01) (89, 1.50000000000000000000e+03) (90, 3.34174323081970214844e+00) (91, 3.34886796772480010986e-02) 
