FANN_FLO_2.1
num_layers=24
learning_rate=0.700000
connection_rate=1.000000
network_type=1
learning_momentum=0.000000
training_algorithm=2
train_error_function=0
train_stop_function=0
cascade_output_change_fraction=0.010000
quickprop_decay=-0.000100
quickprop_mu=1.750000
rprop_increase_factor=1.200000
rprop_decrease_factor=0.500000
rprop_delta_min=0.000000
rprop_delta_max=50.000000
rprop_delta_zero=0.100000
cascade_output_stagnation_epochs=12
cascade_candidate_change_fraction=0.010000
cascade_candidate_stagnation_epochs=12
cascade_max_out_epochs=150
cascade_max_cand_epochs=150
cascade_num_candidate_groups=2
bit_fail_limit=3.49999994039535520000e-001
cascade_candidate_limit=1.00000000000000000000e+003
cascade_weight_multiplier=4.00000005960464480000e-001
cascade_activation_functions_count=10
cascade_activation_functions=3 5 7 8 10 11 14 15 16 17 
cascade_activation_steepnesses_count=4
cascade_activation_steepnesses=2.50000000000000000000e-001 5.00000000000000000000e-001 7.50000000000000000000e-001 1.00000000000000000000e+000 
layer_sizes=31 1 1 1 1 1 1 1 1 1 1 1 1 1 1 1 1 1 1 1 1 1 1 6 
scale_included=0
neurons (num_inputs, activation_function, activation_steepness)=(0, 0, 0.00000000000000000000e+000) (0, 0, 0.00000000000000000000e+000) (0, 0, 0.00000000000000000000e+000) (0, 0, 0.00000000000000000000e+000) (0, 0, 0.00000000000000000000e+000) (0, 0, 0.00000000000000000000e+000) (0, 0, 0.00000000000000000000e+000) (0, 0, 0.00000000000000000000e+000) (0, 0, 0.00000000000000000000e+000) (0, 0, 0.00000000000000000000e+000) (0, 0, 0.00000000000000000000e+000) (0, 0, 0.00000000000000000000e+000) (0, 0, 0.00000000000000000000e+000) (0, 0, 0.00000000000000000000e+000) (0, 0, 0.00000000000000000000e+000) (0, 0, 0.00000000000000000000e+000) (0, 0, 0.00000000000000000000e+000) (0, 0, 0.00000000000000000000e+000) (0, 0, 0.00000000000000000000e+000) (0, 0, 0.00000000000000000000e+000) (0, 0, 0.00000000000000000000e+000) (0, 0, 0.00000000000000000000e+000) (0, 0, 0.00000000000000000000e+000) (0, 0, 0.00000000000000000000e+000) (0, 0, 0.00000000000000000000e+000) (0, 0, 0.00000000000000000000e+000) (0, 0, 0.00000000000000000000e+000) (0, 0, 0.00000000000000000000e+000) (0, 0, 0.00000000000000000000e+000) (0, 0, 0.00000000000000000000e+000) (0, 0, 0.00000000000000000000e+000) (31, 15, 2.50000000000000000000e-001) (32, 14, 2.50000000000000000000e-001) (33, 14, 5.00000000000000000000e-001) (34, 14, 5.00000000000000000000e-001) (35, 15, 1.00000000000000000000e+000) (36, 14, 7.50000000000000000000e-001) (37, 15, 7.50000000000000000000e-001) (38, 15, 7.50000000000000000000e-001) (39, 15, 7.50000000000000000000e-001) (40, 14, 1.00000000000000000000e+000) (41, 15, 1.00000000000000000000e+000) (42, 14, 2.50000000000000000000e-001) (43, 14, 1.00000000000000000000e+000) (44, 15, 7.50000000000000000000e-001) (45, 14, 7.50000000000000000000e-001) (46, 15, 7.50000000000000000000e-001) (47, 8, 5.00000000000000000000e-001) (48, 14, 7.50000000000000000000e-001) (49, 15, 5.00000000000000000000e-001) (50, 14, 7.50000000000000000000e-001) (51, 14, 7.50000000000000000000e-001) (52, 15, 7.50000000000000000000e-001) (53, 14, 5.00000000000000000000e-001) (53, 14, 5.00000000000000000000e-001) (53, 14, 5.00000000000000000000e-001) (53, 14, 5.00000000000000000000e-001) (53, 14, 5.00000000000000000000e-001) (53, 14, 5.00000000000000000000e-001) 
connections (connected_to_neuron, weight)=(1426263395, 8.04073524475097660000e+000) (1426263396, 1.59132826328277590000e+000) (1426263397, 2.21019339561462400000e+000) (1426263398, 3.52502536773681640000e+000) (1426263399, 1.62491470109671350000e-003) (1426263400, -8.81009995937347410000e-001) (1426263401, -1.54097247123718260000e+000) (1426263402, -3.74557495117187500000e+000) (1426263403, -9.49225902557373050000e-001) (1426263404, -6.25546053051948550000e-002) (1426263405, 6.18058621883392330000e-001) (1426263406, 8.46030712127685550000e-001) (1426263407, 4.74689722061157230000e+000) (1426263408, 2.45562028884887700000e+000) (1426263409, 3.23228025436401370000e+000) (1426263410, 9.30324494838714600000e-001) (1426263411, 2.20137977600097660000e+000) (1426263412, 7.90562033653259280000e-001) (1426263413, 1.01310276985168460000e+000) (1426263414, 4.32032883167266850000e-001) (1426263415, 9.63255584239959720000e-001) (1426263416, 1.52220547199249270000e+000) (1426263417, 3.93370360136032100000e-001) (1426263418, -5.61813414096832280000e-001) (1426263419, -2.49070978164672850000e+000) (1426263420, -4.37647342681884770000e+000) (1426263421, 9.81903016567230220000e-001) (1426263422, 1.82437860965728760000e+000) (1426263423, 5.39711761474609380000e+000) (1426263424, -3.32575619220733640000e-001) (1426263425, -4.83034402132034300000e-001) (1426263395, 4.77084302902221680000e+000) (1426263396, 9.59186077117919920000e+000) (1426263397, 4.57024955749511720000e+000) (1426263398, 1.15745139122009280000e+000) (1426263399, 7.49632537364959720000e-001) (1426263400, 1.38137483596801760000e+000) (1426263401, 1.58873891830444340000e+000) (1426263402, 1.71396124362945560000e+000) (1426263403, 2.10426592826843260000e+000) (1426263404, 1.59211325645446780000e+000) (1426263405, 4.82872152328491210000e+000) (1426263406, 1.89996987581253050000e-001) (1426263407, -3.30412817001342770000e+000) (1426263408, -3.30452442169189450000e-001) (1426263409, 3.13852168619632720000e-002) (1426263410, -6.71078324317932130000e-001) (1426263411, 1.36092162132263180000e+000) (1426263412, 1.80695796012878420000e+000) (1426263413, -1.93632468581199650000e-001) (1426263414, 4.77995693683624270000e-001) (1426263415, -2.21819710731506350000e+000) (1426263416, -4.45124953985214230000e-001) (1426263417, -8.46556603908538820000e-001) (1426263418, -4.99866485595703130000e-001) (1426263419, -1.29384362697601320000e+000) (1426263420, -5.78249549865722660000e+000) (1426263421, -5.48013830184936520000e+000) (1426263422, -6.72483348846435550000e+000) (1426263423, -3.18523645401000980000e+000) (1426263424, -2.44403886795043950000e+000) (1426263425, 1.33128690719604490000e+001) (1426263395, 2.99624896049499510000e+000) (1426263396, 1.07392120361328120000e+000) (1426263397, 7.78342008590698240000e-001) (1426263398, 2.64459419250488280000e+000) (1426263399, 2.85597968101501460000e+000) (1426263400, 6.07098054885864260000e+000) (1426263401, 2.95875883102416990000e+000) (1426263402, 2.24796581268310550000e+000) (1426263403, -5.65166711807250980000e-001) (1426263404, 1.40333223342895510000e+000) (1426263405, 3.72685670852661130000e+000) (1426263406, 2.10460948944091800000e+000) (1426263407, 5.32070779800415040000e+000) (1426263408, 2.71378231048583980000e+000) (1426263409, -1.11257660388946530000e+000) (1426263410, -2.38597941398620610000e+000) (1426263411, -7.97749161720275880000e-001) (1426263412, -5.41332840919494630000e-001) (1426263413, 1.61190176010131840000e+000) (1426263414, 2.83442926406860350000e+000) (1426263415, 1.20942819118499760000e+000) (1426263416, 2.91776442527771000000e+000) (1426263417, 7.05032014846801760000e+000) (1426263418, 3.30274248123168950000e+000) (1426263419, 1.75589632987976070000e+000) (1426263420, 1.01187455654144290000e+000) (1426263421, -2.08730435371398930000e+000) (1426263422, -1.05017232894897460000e+000) (1426263423, 8.08353424072265630000e-001) (1426263424, 1.20550227165222170000e+000) (1426263425, 1.61767685413360600000e+000) (1426263395, 3.68259906768798830000e-001) (1426263396, -1.45770335197448730000e+000) (1426263397, 7.28845596313476560000e-001) (1426263398, 3.19719743728637700000e+000) (1426263399, 1.17569935321807860000e+000) (1426263400, 1.30655324459075930000e+000) (1426263401, 2.49218440055847170000e+000) (1426263402, 1.26750957965850830000e+000) (1426263403, 1.39825749397277830000e+000) (1426263404, -7.01795220375061040000e-001) (1426263405, -1.87004375457763670000e+000) (1426263406, 7.83408939838409420000e-001) (1426263407, 1.72380518913269040000e+000) (1426263408, 2.62041354179382320000e+000) (1426263409, 3.54342913627624510000e+000) (1426263410, 3.08438062667846680000e+000) (1426263411, 6.63074254989624020000e-001) (1426263412, 6.90345644950866700000e-001) (1426263413, -3.25811123847961430000e+000) (1426263414, 1.46559429168701170000e+000) (1426263415, 1.79253673553466800000e+000) (1426263416, 1.21148240566253660000e+000) (1426263417, 2.10619592666625980000e+000) (1426263418, 1.37541055679321290000e+000) (1426263419, 1.18716776371002200000e+000) (1426263420, 2.43174648284912110000e+000) (1426263421, 2.97531366348266600000e+000) (1426263422, 5.80052566528320310000e+000) (1426263423, 2.66902232170104980000e+000) (1426263424, 2.54032182693481450000e+000) (1426263425, 1.77851259708404540000e+000) (1426263395, -2.88906288146972660000e+000) (1426263396, -5.42572915554046630000e-001) (1426263397, -1.55967724323272710000e+000) (1426263398, -2.67893970012664790000e-001) (1426263399, -2.28090548515319820000e+000) (1426263400, 4.13917154073715210000e-001) (1426263401, 3.56377154588699340000e-001) (1426263402, 4.64292854070663450000e-001) (1426263403, 1.30879890918731690000e+000) (1426263404, 1.44525122642517090000e+000) (1426263405, 4.07785844802856450000e+000) (1426263406, 1.38626527786254880000e+000) (1426263407, 1.92175567150115970000e+000) (1426263408, 7.13655233383178710000e-001) (1426263409, -1.64870664477348330000e-001) (1426263410, 5.20302355289459230000e-001) (1426263411, 1.53983557224273680000e+000) (1426263412, 3.30604839324951170000e+000) (1426263413, 5.68896913528442380000e+000) (1426263414, 1.70355999469757080000e+000) (1426263415, 1.48681879043579100000e+000) (1426263416, 9.82772111892700200000e-001) (1426263417, 1.29988479614257810000e+000) (1426263418, 4.11472529172897340000e-001) (1426263419, 6.26784324645996090000e-001) (1426263420, 5.62899947166442870000e-001) (1426263421, -9.67223495244979860000e-002) (1426263422, 1.88887846469879150000e+000) (1426263423, -2.33348751068115230000e+000) (1426263424, 8.81308674812316890000e-001) (1426263425, 1.01401424407958980000e+000) (1426263395, 2.88034462928771970000e+000) (1426263396, -9.33308899402618410000e-002) (1426263397, -4.01185184717178340000e-001) (1426263398, 7.49131858348846440000e-001) (1426263399, 8.17504882812500000000e-001) (1426263400, -1.45819795131683350000e+000) (1426263401, 1.55735802650451660000e+000) (1426263402, -1.37869998812675480000e-001) (1426263403, -7.78173625469207760000e-001) (1426263404, 5.63064873218536380000e-001) (1426263405, 5.79034519195556640000e+000) (1426263406, 1.75998342037200930000e+000) (1426263407, -1.52328550815582280000e-001) (1426263408, 1.35958361625671390000e+000) (1426263409, 1.92495870590209960000e+000) (1426263410, 3.04394149780273440000e+000) (1426263411, 2.73603343963623050000e+000) (1426263412, 2.51089620590209960000e+000) (1426263413, 2.10474395751953130000e+000) (1426263414, 1.20607113838195800000e+000) (1426263415, 2.36350369453430180000e+000) (1426263416, 1.30615150928497310000e+000) (1426263417, 1.43165600299835210000e+000) (1426263418, 2.66154217720031740000e+000) (1426263419, 2.45671486854553220000e+000) (1426263420, 2.80178451538085940000e+000) (1426263421, 4.01847791671752930000e+000) (1426263422, 2.20055174827575680000e+000) (1426263423, 4.60740041732788090000e+000) (1426263424, 2.37686777114868160000e+000) (1426263425, 2.04453468322753910000e+000) (2856532722, 1.85412168502807620000e-001) (2856532722, 2.50819873809814450000e+000) (2856532722, 1.03236770629882810000e+000) (2856532722, 2.46160149574279790000e+000) (2856532722, -2.48306870460510250000e-001) (2856532722, 5.77944517135620120000e-001) (2856532722, 2.08439040184021000000e+000) (2856532722, -8.37857902050018310000e-001) (2856532722, 1.14097036421298980000e-002) (2856532722, -9.56032216548919680000e-001) (2856532722, 2.94098377227783200000e+000) (2856532722, -1.37213158607482910000e+000) (2856532722, -6.65201306343078610000e-001) (2856532722, -3.50003182888031010000e-001) (2856532722, 7.00830996036529540000e-001) (2901228274, 1.64689683914184570000e+000) (2856532722, 1.83803486824035640000e+000) (2901228274, 6.93949282169342040000e-001) (2856532722, 9.43318083882331850000e-002) (2901228274, 1.66422235965728760000e+000) (2856532722, 2.03755736351013180000e+000) (2901228274, 1.60975730419158940000e+000) (2856532722, 7.10166811943054200000e-001) (2901228274, 4.95669633150100710000e-001) (2856532722, 1.50872957706451420000e+000) (2901228274, 2.13776946067810060000e-001) (2856532722, -7.42674529552459720000e-001) (2901228274, 4.05794262886047360000e-001) (2856532722, -3.22284549474716190000e-001) (2901228274, 8.96253705024719240000e-001) (2856532722, 1.56174218654632570000e+000) (2856532722, -1.04103958606719970000e+000) (2856532722, -2.44279608130455020000e-001) (2856532722, -9.37949955463409420000e-001) (2856532722, 8.28357696533203130000e-001) (2856532722, 4.17842656373977660000e-001) (2856532722, -1.45001396536827090000e-001) (2856532722, 1.58841717243194580000e+000) (2856532722, 1.00182485580444340000e+000) (2901228274, 7.55776345729827880000e-001) (2856532722, 1.20511603355407710000e+000) (2901228274, 1.62800407409667970000e+000) (2856532722, 2.42245912551879880000e+000) (2901228274, 3.74010229110717770000e+000) (2856532722, -6.33025541901588440000e-002) (2901228274, 1.42674720287323000000e+000) (2856532722, 1.86483108997344970000e+000) (2901228274, 2.33826231956481930000e+000) (2856532722, -2.28986054658889770000e-001) (2856532722, 4.91010516881942750000e-001) (2856532722, 4.16314125061035160000e-001) (2856532722, 1.11064732074737550000e+000) (2856532722, 1.53704357147216800000e+000) (2901228274, 2.89560103416442870000e+000) (2856532722, 6.57746076583862300000e-001) (2856532722, 2.43193292617797850000e+000) (2856532722, 8.67174148559570310000e-001) (2856532722, 2.12099730968475340000e-001) (2856532722, 4.29430097341537480000e-001) (2856532722, 1.21368312835693360000e+000) (2856532722, -2.45080739259719850000e-001) (2856532722, 2.02707552909851070000e+000) (2856532722, 2.46291351318359370000e+000) (2856532722, 2.70655798912048340000e+000) (2856532722, 6.23657345771789550000e-001) (2856532722, 1.89424324035644530000e+000) (2856532722, 1.23041725158691410000e+000) (2856532722, 8.95114064216613770000e-001) (2856532722, 1.15872812271118160000e+000) (2856532722, 4.24733877182006840000e-001) (2856532722, 1.14082813262939450000e+000) (2856532722, 1.65671503543853760000e+000) (2856532722, 1.37526583671569820000e+000) (2856532722, 9.72569048404693600000e-001) (2856532722, -2.32015579938888550000e-001) (2856532722, -1.49001777172088620000e-002) (2856532722, 4.90970790386199950000e-001) (2856532722, -6.68303132057189940000e-001) (2856532722, 2.23589920997619630000e+000) (2856532722, 5.54151535034179690000e-001) (2856532722, 2.47799944877624510000e+000) (2856532722, 2.64716196060180660000e+000) (2856532722, -1.57935082912445070000e-001) (2856532722, -2.54067778587341310000e+000) (2856532722, -1.75391510128974910000e-002) (2856532722, 2.05854320526123050000e+000) (2856532722, 4.07426983118057250000e-001) (2856532722, 3.03366732597351070000e+000) (2856532722, -4.02291715145111080000e-001) (2856532722, 1.58732259273529050000e+000) (2856532722, -1.47568255662918090000e-001) (2901228274, 1.25372803211212160000e+000) (2856532722, 2.62232613563537600000e+000) (2901228274, 1.88707327842712400000e+000) (2856532722, 5.23404502868652340000e+000) (2901228274, 3.61806058883666990000e+000) (2856532722, 2.66873431205749510000e+000) (2901228274, 1.44484782218933110000e+000) (2856532722, 1.71792972087860110000e+000) (2901228274, -1.58105158805847170000e+000) (2856532722, 2.36985707283020020000e+000) (2901228274, 2.60682344436645510000e+000) (2856532722, 3.52372431755065920000e+000) (2856532722, 2.68029952049255370000e+000) (2856532722, 1.71321356296539310000e+000) (2856532722, 1.23615574836730960000e+000) (2856532722, 2.64803528785705570000e+000) (2856532722, 1.28433024883270260000e+000) (2856532722, 3.25264644622802730000e+000) (2856532722, 2.10521864891052250000e+000) (2856532722, -4.34380799531936650000e-001) (2856532722, 1.59118032455444340000e+000) (2856532722, 1.94366955757141110000e+000) (2901228274, 9.03659760951995850000e-001) (2856532722, 1.14696085453033450000e+000) (2901228274, 4.03656035661697390000e-001) (2856532722, -6.78937315940856930000e-001) (2901228274, 2.09458351135253910000e+000) (2856532722, 3.00067853927612300000e+000) (2856532722, 9.56913173198699950000e-001) (2856532722, 7.23882734775543210000e-001) (2856532722, 1.11812782287597660000e+000) (2856532722, 1.30977904796600340000e+000) (2856532722, -1.89163938164711000000e-001) (2856532722, 3.54713654518127440000e+000) (2856532722, 2.69944459199905400000e-001) (2856532722, 2.36479449272155760000e+000) (2856532722, 7.36983835697174070000e-001) (2856532722, 1.42698931694030760000e+000) (2856532722, 3.72942161560058590000e+000) (2856532722, 1.36602735519409180000e+000) (2856532722, 1.15200543403625490000e+000) (2856532722, 8.15669775009155270000e-001) (2856532722, 1.68661952018737790000e+000) (2856532722, 9.65903878211975100000e-001) (2901228274, 9.78777408599853520000e-001) (2856532722, 9.41771745681762700000e-001) (2901228274, 1.60907959938049320000e+000) (2856532722, 7.24483370780944820000e-001) (2856532722, 2.30714225769042970000e+000) (2856532722, 1.11846888065338130000e+000) (2856532722, -2.31444165110588070000e-001) (2856532722, 9.16513919830322270000e-001) (2856532722, 1.23828184604644780000e+000) (2856532722, -3.13919752836227420000e-001) (2856532722, 1.07552671432495120000e+000) (2856532722, 3.08535337448120120000e+000) (2856532722, 2.51971530914306640000e+000) (2856532722, 6.58275902271270750000e-001) (2856532722, 5.91379106044769290000e-001) (2856532722, 1.09851908683776860000e+000) (2856532722, 7.97332286834716800000e-001) (2856532722, -2.84336447715759280000e+000) (2856532722, 3.67123633623123170000e-001) (2856532722, 8.12431216239929200000e-001) (2901228274, 1.16780392825603490000e-001) (2856532722, 2.44740605354309080000e+000) (2901228274, -7.40738093852996830000e-001) (2856532722, 1.92370295524597170000e+000) (2901228274, 5.40938854217529300000e-001) (2856532722, 5.81007301807403560000e-001) (2901228274, 3.26760983467102050000e+000) (2856532722, 7.16878354549407960000e-001) (2901228274, 3.92695331573486330000e+000) (2856532722, 9.86862301826477050000e-001) (2901228274, 5.84792196750640870000e-001) (2856532722, 2.55524373054504390000e+000) (2856532722, 3.33431458473205570000e+000) (2856532722, 1.24988579750061040000e+000) (2901228274, 2.18567109107971190000e+000) (2856532722, 1.13610303401947020000e+000) (2901228274, 1.57251250743865970000e+000) (2856532722, 8.37995827198028560000e-001) (2856532722, -7.60524719953536990000e-002) (2856532722, 9.73420023918151860000e-001) (2856532722, 5.80595135688781740000e-001) (2856532722, 1.74305343627929690000e+000) (2856532722, 1.02177715301513670000e+000) (2856532722, 2.77954792976379390000e+000) (2856532722, 5.29170513153076170000e-001) (2856532722, 1.59795618057250980000e+000) (2856532722, -3.75854372978210450000e-001) (2856532722, 1.23299813270568850000e+000) (2856532722, 2.25112628936767580000e+000) (2856532722, -5.51377296447753910000e-001) (2856532722, -2.24209859967231750000e-001) (2856532722, 1.35459315776824950000e+000) (2856532722, 5.72528362274169920000e-001) (2856532722, 2.92910742759704590000e+000) (2856532722, 2.96644240617752080000e-001) (2856532722, -4.02981996536254880000e-001) (2856532722, 4.45724153518676760000e+000) (2856532722, 6.73178136348724370000e-001) (2856532722, 4.91148054599761960000e-001) (2856532722, -3.19038741290569310000e-002) (2856532722, 8.42626571655273440000e-001) (2856532722, -1.98473429679870610000e+000) (2856532722, -8.18519946187734600000e-003) (2856532722, 1.55124056339263920000e+000) (2856532722, 4.50696408748626710000e-001) (2856532722, 8.55220016092062000000e-003) (2856532722, 9.09001708030700680000e-001) (2856532722, -1.91077721118927000000e+000) (2901228274, 2.52651429176330570000e+000) (2856532722, -5.57079017162323000000e-001) (2856532722, 1.14929544925689700000e+000) (2856532722, -1.73350918292999270000e+000) (2856532722, 1.32035303115844730000e+000) (2856532722, 3.25940757989883420000e-001) (2901228274, 6.66260063648223880000e-001) (2856532722, 2.13957524299621580000e+000) (2856532722, 1.21011304855346680000e+000) (2856532722, 2.03198122978210450000e+000) (2901228274, 2.61444020271301270000e+000) (2856532722, 2.45564281940460210000e-001) (2856532722, 2.27813816070556640000e+000) (2856532722, -3.65342926979064940000e+000) (2856532722, 1.15065491199493410000e+000) (2856532722, 2.18154168128967290000e+000) (2901228274, -5.50834465026855470000e+000) (2856532722, 5.70857346057891850000e-001) (2856532722, 1.06260514259338380000e+000) (2856532722, 6.04039609432220460000e-001) (2856532722, 2.69509577751159670000e+000) (2856532722, 1.11203706264495850000e+000) (2856532722, 3.12252664566040040000e+000) (2856532722, 1.02320289611816410000e+000) (2856532722, 7.86425352096557620000e+000) (2856532722, -3.19801950454711910000e+000) (2856532722, -1.25233469009399410000e+001) (2856532722, -1.28974163532257080000e+000) (2856532722, 2.04727196693420410000e+000) (2856532722, 1.45254964828491210000e+001) (2901228274, 7.37311410903930660000e+000) (2856532722, 2.05332016944885250000e+000) (2901228274, 7.44851160049438480000e+000) (2856532722, 1.14153409004211430000e+000) (2901228274, 7.57985293865203860000e-001) (2856532722, -5.39378309249877930000e+000) (2901228274, 4.42243069410324100000e-002) (2856532722, 7.46963024139404300000e-001) (2901228274, 1.35060667991638180000e+000) (2856532722, 5.54959106445312500000e+000) (2901228274, -2.55618500709533690000e+000) (2856532722, 4.88384389877319340000e+000) (2856532722, 6.39642238616943360000e+000) (2856532722, -4.32326555252075200000e-001) (2856532722, 6.49301469326019290000e-001) (2856532722, 6.04607629776000980000e+000) (2901228274, -1.17297804355621340000e+000) (2856532722, 1.89858460426330570000e+000) (2856532722, -1.56846213340759280000e+000) (2856532722, -6.80216729640960690000e-001) (2856532722, 6.20582103729248050000e-001) (2856532722, 1.24249982833862300000e+000) (2856532722, 1.30257636308670040000e-001) (2856532722, 1.44700932502746580000e+000) (2856532722, 3.16238546371459960000e+000) (2856532722, -2.40172758698463440000e-001) (2901228274, 8.38334932923316960000e-002) (2856532722, 1.94214940071105960000e+000) (2901228274, 1.75716590881347660000e+000) (2856532722, 7.60804116725921630000e-002) (2901228274, 1.03525745868682860000e+000) (2856532722, 2.38454341888427730000e+000) (2901228274, 1.92765569686889650000e+000) (2856532722, 2.35808074474334720000e-001) (2901228274, 5.48593401908874510000e-001) (2856532722, 1.03641271591186520000e+000) (2901228274, 8.01454663276672360000e-001) (2856532722, 5.31281054019927980000e-001) (2901228274, 1.61133873462677000000e+000) (2856532722, 1.61350041627883910000e-001) (2901228274, 4.82446253299713130000e-001) (2856532722, 1.64780962467193600000e+000) (2901228274, 1.33794331550598140000e+000) (2856532722, 2.57973408699035640000e+000) (2901228274, 2.09586668014526370000e+000) (2856532722, 4.30437713861465450000e-001) (2901228274, 1.70689851045608520000e-001) (2856532722, -2.52161884307861330000e+000) (2901228274, 2.16993021965026860000e+000) (2856532722, -1.93375134468078610000e+000) (2856532722, 1.19785940647125240000e+000) (2856532722, 3.18024110794067380000e+000) (2856532722, 2.81216382980346680000e+000) (2856532722, 2.77550965547561650000e-001) (2856532722, 2.61580610275268550000e+000) (2856532722, -5.26164174079895020000e-001) (2856532722, 6.87162399291992190000e-001) (2856532722, 1.94206523895263670000e+000) (2856532722, -1.82678326964378360000e-001) (2856532722, 5.79251229763031010000e-001) (2856532722, 3.46635437011718750000e+000) (2856532722, 1.98261415958404540000e+000) (2901228274, -6.05304837226867680000e-001) (2856532722, 8.68780195713043210000e-001) (2901228274, -1.59713566303253170000e-001) (2856532722, 1.40512633323669430000e+000) (2901228274, 4.64177310466766360000e-001) (2856532722, 1.42914736270904540000e+000) (2901228274, 1.60374402999877930000e+000) (2856532722, 8.66788864135742190000e-001) (2856532722, -6.38288795948028560000e-001) (2856532722, 2.37605428695678710000e+000) (2856532722, 1.98080909252166750000e+000) (2856532722, 1.86128175258636470000e+000) (2856532722, 2.66354131698608400000e+000) (2856532722, 9.49477404356002810000e-002) (2856532722, 3.13275861740112300000e+000) (2856532722, 1.50323975086212160000e+000) (2856532722, 7.36288428306579590000e-002) (2856532722, 1.27534329891204830000e+000) (2856532722, -2.83734107017517090000e+000) (2856532722, 8.97503495216369630000e-001) (2856532722, -2.70912400446832180000e-003) (2856532722, 3.05605888366699220000e-001) (2856532722, 2.46958449482917790000e-001) (2856532722, 1.60512888431549070000e+000) (2901228274, 1.78225481510162350000e+000) (2856532722, 1.34138584136962890000e+000) (2901228274, 2.83520531654357910000e+000) (2856532722, 8.46368789672851560000e-001) (2901228274, 6.67410731315612790000e-001) (2856532722, 5.87190926074981690000e-001) (2901228274, 1.69097316265106200000e+000) (2856532722, 2.53910899162292480000e+000) (2901228274, 1.93187654018402100000e+000) (2856532722, -5.44221103191375730000e-001) (2901228274, 2.10261583328247070000e+000) (2856532722, 4.36458587646484370000e+000) (2856532722, 2.06843352317810060000e+000) (2856532722, 1.79516136646270750000e+000) (2856532722, 6.43478453159332280000e-001) (2856532722, 7.79057899489998820000e-003) (2856532722, 2.42015004158020020000e+000) (2856532722, 3.38099479675292970000e+000) (2856532722, 9.75050806999206540000e-001) (2856532722, 6.80467009544372560000e-001) (2856532722, 3.13547945022583010000e+000) (2856532722, 4.12637329101562500000e+000) (2856532722, -1.57396450638771060000e-001) (2856532722, 1.09784758090972900000e+000) (2856532722, 8.23295474052429200000e-001) (2856532722, 1.82073757052421570000e-001) (2856532722, 1.04013788700103760000e+000) (2856532722, 8.35609316825866700000e-001) (2856532722, 1.00709819793701170000e+000) (2856532722, 8.86617481708526610000e-001) (2856532722, 1.76363289356231690000e-001) (2856532722, 3.45162689685821530000e-001) (2901228274, 5.73477089405059810000e-001) (2856532722, 3.02621769905090330000e+000) (2856532722, 2.87699484825134280000e+000) (2856532722, 1.48381936550140380000e+000) (2856532722, 1.10988247394561770000e+000) (2856532722, 1.80387282371521000000e+000) (2856532722, -1.39995408058166500000e+000) (2856532722, 1.83133140206336980000e-001) (2856532722, 1.99149596691131590000e+000) (2856532722, 7.75713980197906490000e-001) (2901228274, 4.82389926910400390000e+000) (2856532722, 2.00593256950378420000e+000) (2901228274, -3.01719045639038090000e+000) (2856532722, 3.43977600336074830000e-001) (2901228274, 1.76253330707550050000e+000) (2856532722, -2.98375153541564940000e+000) (2901228274, 2.82962822914123540000e+000) (2856532722, 4.50006276369094850000e-001) (2901228274, 1.39733481407165530000e+000) (2856532722, -9.01268482208251950000e-001) (2901228274, 1.53472280502319340000e+000) (2856532722, 4.63219165802001950000e-001) (2856532722, 2.28445720672607420000e+000) (2856532722, 7.04724669456481930000e-001) (2856532722, 5.89115679264068600000e-001) (2856532722, 1.60503792762756350000e+000) (2856532722, 3.23190379142761230000e+000) (2856532722, 1.03546452522277830000e+000) (2856532722, 2.88025045394897460000e+000) (2856532722, 1.93472385406494140000e+000) (2901228274, 3.24119830131530760000e+000) (2856532722, 1.95705568790435790000e+000) (2901228274, 1.26595818996429440000e+000) (2856532722, 2.52372097969055180000e+000) (2901228274, -2.13430464267730710000e-001) (2856532722, 4.44346457719802860000e-001) (2856532722, 1.26345336437225340000e+000) (2856532722, 1.88030254840850830000e+000) (2856532722, 1.41198372840881350000e+000) (2856532722, 2.31376677751541140000e-001) (2856532722, -2.87710213661193850000e+000) (2856532722, 6.82014822959899900000e-001) (2856532722, 5.43165981769561770000e-001) (2856532722, 3.22105503082275390000e+000) (2856532722, 2.82334589958190920000e+000) (2856532722, 2.52837109565734860000e+000) (2856532722, 3.34215313196182250000e-001) (2856532722, 1.37175631523132320000e+000) (2856532722, -2.10462406277656560000e-001) (2856532722, 1.89311826229095460000e+000) (2856532722, 2.44125175476074220000e+000) (2856532722, 7.87075579166412350000e-001) (2856532722, 1.76530432701110840000e+000) (2856532722, 2.34181809425354000000e+000) (2856532722, 1.39571475982666020000e+000) (2856532722, 1.06725311279296870000e+000) (2856532722, 2.08559560775756840000e+000) (2856532722, 3.63658040761947630000e-001) (2856532722, 1.66503882408142090000e+000) (2856532722, 1.20277023315429690000e+000) (2856532722, 1.70046532154083250000e+000) (2856532722, 2.24690413475036620000e+000) (2856532722, -1.57185383141040800000e-002) (2856532722, -6.85235202312469480000e-001) (2856532722, 6.19904458522796630000e-001) (2856532722, 1.98782479763031010000e+000) (2856532722, 1.30554044246673580000e+000) (2856532722, 1.10011386871337890000e+000) (2856532722, 1.54549717903137210000e+000) (2856532722, 1.88837373256683350000e+000) (2856532722, 1.74192380905151370000e+000) (2856532722, 5.62774658203125000000e-001) (2856532722, 6.78525120019912720000e-002) (2856532722, 2.33835458755493160000e+000) (2856532722, -6.69805288314819340000e-001) (2856532722, -5.98607718944549560000e-001) (2856532722, 2.06677675247192380000e+000) (2856532722, -9.73703205585479740000e-001) (2856532722, 1.36046838760375980000e+000) (2856532722, 4.95728477835655210000e-002) (2901228274, -7.86216259002685550000e-001) (2856532722, -3.09915214776992800000e-001) (2901228274, 1.38964164257049560000e+000) (2856532722, 2.24436134099960330000e-001) (2901228274, -2.21339359879493710000e-001) (2856532722, 9.31873142719268800000e-001) (2856532722, -7.86396980285644530000e-001) (2856532722, 1.01213216781616210000e+000) (2856532722, -2.50328451395034790000e-001) (2856532722, -2.07115864753723140000e+000) (2856532722, -8.91785994172096250000e-002) (2856532722, 3.11150521039962770000e-001) (2856532722, 9.82186257839202880000e-001) (2856532722, 8.72676193714141850000e-001) (2856532722, 2.67581534385681150000e+000) (2856532722, -1.42598831653594970000e+000) (2856532722, -2.79199719429016110000e-001) (2856532722, -5.48634111881256100000e-001) (2856532722, -1.31311535835266110000e+000) (2856532722, -8.74280631542205810000e-001) (2856532722, 6.36429339647293090000e-002) (2856532722, -2.46902108192443850000e-002) (2856532722, -3.55063110589981080000e-001) (2856532722, -9.16451215744018550000e-001) (2856532722, 3.25166136026382450000e-001) (2856532722, -5.42102396488189700000e-001) (2901228274, -1.69692301750183110000e+000) (2856532722, 1.55746296513825650000e-003) (2856532722, 2.58491992950439450000e-001) (2856532722, 2.18009066581726070000e+000) (2856532722, 8.56548964977264400000e-001) (2856532722, 1.08131909370422360000e+000) (2901228274, -2.64526396989822390000e-001) (2856532722, 7.50318706035614010000e-001) (2901228274, 1.20275795459747310000e+000) (2856532722, 4.22549307346343990000e-001) (2901228274, 8.84308218955993650000e-001) (2856532722, 4.41660642623901370000e-001) (2901228274, 7.96272635459899900000e-001) (2856532722, 1.33721375465393070000e+000) (2901228274, 1.37232482433319090000e+000) (2856532722, -4.04280930757522580000e-001) (2856532722, 8.93643438816070560000e-001) (2856532722, 1.34137558937072750000e+000) (2901228274, 8.23079645633697510000e-001) (2856532722, 1.84679067134857180000e+000) (2856532722, 4.92256551980972290000e-001) (2856532722, 2.33162355422973630000e+000) (2856532722, 3.52820611000061040000e+000) (2856532722, 1.88517272472381590000e+000) (2856532722, 1.48705542087554930000e+000) (2856532722, 5.13904631137847900000e-001) (2901228274, 2.80584514141082760000e-001) (2856532722, 2.78111547231674190000e-001) (2901228274, 1.88828539848327640000e+000) (2856532722, 7.45902657508850100000e-002) (2856532722, -2.24811151623725890000e-001) (2856532722, -1.79548606276512150000e-001) (2856532722, 2.57138907909393310000e-001) (2856532722, -5.14869272708892820000e-001) (2856532722, 8.36837470531463620000e-001) (2856532722, 2.70828962326049800000e-001) (2856532722, 1.34990677237510680000e-001) (2856532722, 3.06069910526275630000e-001) (2856532722, 1.34919118881225590000e+000) (2856532722, 1.03960990905761720000e+000) (2856532722, 1.79986536502838130000e+000) (2856532722, 1.03391945362091060000e-001) (2901228274, 1.79042696952819820000e+000) (2856532722, 4.59680223464965820000e+000) (2901228274, 1.80114352703094480000e+000) (2856532722, 1.64444279670715330000e+000) (2901228274, 3.57513755559921260000e-001) (2856532722, 1.72200620174407960000e+000) (2901228274, 6.27462387084960940000e-001) (2856532722, 2.41513538360595700000e+000) (2901228274, -2.39402604103088380000e+000) (2856532722, 2.17740082740783690000e+000) (2901228274, -1.23968446254730220000e+000) (2856532722, 4.66886699199676510000e-001) (2901228274, 2.47874689102172850000e+000) (2856532722, -8.90386819839477540000e-001) (2901228274, 2.04488563537597660000e+000) (2856532722, 1.01379704475402830000e+000) (2901228274, -6.97313785552978520000e-001) (2856532722, 1.75775671005249020000e+000) (2901228274, 1.96365952491760250000e+000) (2856532722, 2.42090725898742680000e+000) (2901228274, 1.66998040676116940000e+000) (2856532722, -2.71878153085708620000e-001) (2901228274, 2.10141706466674800000e+000) (2856532722, 1.24774241447448730000e+000) (2901228274, 8.84690940380096440000e-001) (2856532722, -4.39884215593338010000e-001) (2901228274, 1.07120597362518310000e+000) (2856532722, 8.62709105014801030000e-001) (2901228274, 1.69503939151763920000e+000) (2856532722, 2.75304913520812990000e-001) (2901228274, 1.73900559544563290000e-001) (2856532722, 1.05792391300201420000e+000) (2901228274, 2.63008683919906620000e-001) (2856532722, 1.43003571033477780000e+000) (2901228274, 3.81391555070877080000e-001) (2856532722, 7.27841973304748540000e-001) (2901228274, 5.06007075309753420000e-001) (2856532722, 1.12735235691070560000e+000) (2901228274, 9.04494047164916990000e-001) (2856532722, 1.63429856300354000000e+000) (2901228274, -3.91361236572265630000e+000) (2856532722, 4.72535037994384770000e+000) (2901228274, 1.04841053485870360000e+000) (2856532722, 6.78656876087188720000e-001) (2901228274, 3.15956997871398930000e+000) (2856532722, 5.35505235195159910000e-001) (2901228274, 7.05673217773437500000e-001) (2856532722, 1.23696732521057130000e+000) (2901228274, -1.22401523590087890000e+000) (2856532722, -6.12774863839149480000e-002) (2901228274, 2.00940823554992680000e+000) (2856532722, 7.88307487964630130000e-001) (2901228274, 6.73355817794799800000e-001) (2856532722, 8.06194961071014400000e-001) (2901228274, 2.39050197601318360000e+000) (2856532722, -3.15075993537902830000e+000) (2901228274, 2.87335634231567380000e+000) (2856532722, 2.19620609283447270000e+000) (2901228274, -1.22023262083530430000e-001) (2856532722, 5.07154226303100590000e-001) (2901228274, 1.16541457176208500000e+000) (2856532722, 6.71652972698211670000e-001) (2901228274, 2.09506750106811520000e+000) (2856532722, 2.12161612510681150000e+000) (2901228274, 1.75226056575775150000e+000) (2856532722, 5.75914280489087100000e-003) (2901228274, 1.14163291454315190000e+000) (2856532722, -2.79473274946212770000e-001) (2901228274, 2.54139661788940430000e+000) (2856532722, 2.79051947593688960000e+000) (2901228274, -2.19518685340881350000e+000) (2856532722, 1.09457993507385250000e+000) (2901228274, -6.92545354366302490000e-001) (2856532722, 2.10334491729736330000e+000) (2901228274, 5.10529375076293950000e+000) (2856532722, 5.35793423652648930000e-001) (2901228274, -2.41768434643745420000e-002) (2856532722, 1.65162372589111330000e+000) (2901228274, 1.61025857925415040000e+000) (2856532722, 5.64364612102508540000e-001) (2901228274, 7.23743319511413570000e-001) (2856532722, 6.27885282039642330000e-001) (2901228274, 1.23899841308593750000e+000) (2856532722, 4.22408938407897950000e-001) (2901228274, 9.67578351497650150000e-001) (2856532722, 1.59260284900665280000e+000) (2901228274, 7.22659707069396970000e-001) (2856532722, 1.55983853340148930000e+000) (2901228274, 9.05229970812797550000e-002) (2856532722, 7.35610365867614750000e-001) (2901228274, 1.20933604240417480000e+000) (2856532722, 5.45810043811798100000e-001) (2901228274, 2.13042306900024410000e+000) (2856532722, 6.45172476768493650000e-001) (2901228274, 5.59091269969940190000e-001) (2856532722, 1.53648281097412110000e+000) (2901228274, 5.23752689361572270000e-001) (2856532722, -3.82580250501632690000e-001) (2901228274, -2.46685314178466800000e+000) (2856532722, 1.50644648075103760000e+000) (2901228274, -4.76297020912170410000e-001) (2856532722, 1.72475075721740720000e+000) (2901228274, 3.05196237564086910000e+000) (2856532722, 4.57998245954513550000e-001) (2901228274, 2.70993494987487790000e+000) (2856532722, 2.98897147178649900000e+000) (2901228274, 2.35871970653533940000e-001) (2856532722, 1.68840992450714110000e+000) (2901228274, 3.77603602409362790000e+000) (2856532722, -1.77958583831787110000e+000) (2901228274, 1.35617208480834960000e+000) (2856532722, 2.31580615043640140000e+000) (2901228274, 1.92983543872833250000e+000) (2856532722, -4.43744927644729610000e-001) (2901228274, 1.58941388130187990000e+000) (2856532722, 1.91419792175292970000e+000) (2901228274, 5.58452188968658450000e-001) (2856532722, 2.32630133628845210000e+000) (2901228274, 1.20632028579711910000e+000) (2856532722, 1.71361815929412840000e+000) (2901228274, -1.36326417326927190000e-001) (2856532722, 1.70827448368072510000e+000) (2901228274, 2.16422319412231450000e+000) (2856532722, -1.98207783699035640000e+000) (2901228274, 5.31506240367889400000e-001) (2856532722, 6.65818691253662110000e-001) (2901228274, -9.86162185668945310000e-001) (2856532722, 5.57781040668487550000e-001) (2901228274, 8.71709167957305910000e-001) (2856532722, 2.42316818237304690000e+000) (2901228274, 2.09557414054870610000e+000) (2856532722, 7.66460716724395750000e-001) (2901228274, 1.43480300903320310000e+000) (2856532722, 1.74961352348327640000e+000) (2901228274, 4.56806451082229610000e-001) (2856532722, 1.27122187614440920000e+000) (2901228274, 1.98548805713653560000e+000) (2856532722, 2.71165561676025390000e+000) (2901228274, 2.08257365226745610000e+000) (2856532722, 1.25515425205230710000e+000) (2901228274, 2.29846262931823730000e+000) (2856532722, 1.49374794960021970000e+000) (2901228274, 9.13409233093261720000e-001) (2856532722, 6.71573400497436520000e-001) (2901228274, 1.37472724914550780000e+000) (2856532722, 2.33390069007873540000e+000) (2901228274, -2.95103013515472410000e-001) (2856532722, -6.49725319817662240000e-003) (2901228274, 3.18162751197814940000e+000) (2856532722, 1.25638568401336670000e+000) (2901228274, 1.84085440635681150000e+000) (2856532722, 2.92923712730407710000e+000) (2901228274, 5.74173092842102050000e-001) (2856532722, 9.87042248249053960000e-001) (2901228274, 4.83073264360427860000e-001) (2856532722, 8.61212790012359620000e-001) (2901228274, 8.31853568553924560000e-001) (2856532722, 9.80073213577270510000e-001) (2901228274, 1.73505708575248720000e-001) (2856532722, 1.31618547439575200000e+000) (2901228274, 1.30690717697143550000e+000) (2856532722, 6.28919661045074460000e-001) (2901228274, 7.06661418080329900000e-002) (2856532722, 1.45282721519470210000e+000) (2901228274, 1.71665084362030030000e+000) (2856532722, 2.68051481246948240000e+000) (2901228274, -9.75441992282867430000e-001) (2856532722, 1.39754951000213620000e+000) (2856532722, 1.70993244647979740000e+000) (2856532722, 1.23001623153686520000e+000) (2901228274, 2.10799908638000490000e+000) (2856532722, 6.96883499622344970000e-001) (2901228274, 8.59256625175476070000e-001) (2856532722, 1.13994792103767400000e-001) (2901228274, 3.00070738792419430000e+000) (2856532722, 4.11502361297607420000e-001) (2901228274, 1.98219347000122070000e+000) (2856532722, 5.43944001197814940000e-001) (2901228274, 5.95008850097656250000e-001) (2856532722, 2.50225114822387700000e+000) (2901228274, 4.39822149276733400000e+000) (2856532722, -1.78840863704681400000e+000) (2901228274, 9.84994769096374510000e-001) (2856532722, 2.06836962699890140000e+000) (2901228274, 8.90112519264221190000e-001) (2856532722, 2.22739982604980470000e+000) (2856532722, 3.05542182922363280000e+000) (2856532722, 3.23791533708572390000e-001) (2856532722, 1.15508174896240230000e+000) (2856532722, 1.27692654728889470000e-001) (2901228274, 3.33501636981964110000e-001) (2856532722, 2.76136994361877440000e+000) (2901228274, 9.70974326133728030000e-001) (2856532722, 7.42837011814117430000e-001) (2901228274, 1.75532293319702150000e+000) (2856532722, 8.12922179698944090000e-001) (2901228274, -7.12911605834960940000e-001) (2856532722, 1.56697845458984370000e+000) (2856532722, 1.41519141197204590000e+000) (2856532722, 2.95609450340271000000e+000) (2856532722, 1.94195818901062010000e+000) (2856532722, 5.16619861125946040000e-001) (2856532722, -1.93670570850372310000e-001) (2856532722, 8.82041990756988530000e-001) (2901228274, 1.02236855030059810000e+000) (2856532722, 1.07029902935028080000e+000) (2901228274, 7.74175405502319340000e-001) (2856532722, 1.92656230926513670000e+000) (2901228274, -6.57630383968353270000e-001) (2856532722, 2.29817938804626460000e+000) (2901228274, 2.38950562477111820000e+000) (2856532722, 7.52118587493896480000e-001) (2901228274, 2.08002448081970210000e+000) (2856532722, -2.73389816284179690000e-002) (2901228274, -2.11373972892761230000e+000) (2856532722, 1.58147752285003660000e+000) (2901228274, 1.51231694221496580000e+000) (2856532722, 2.93290591239929200000e+000) (2901228274, 8.73436272144317630000e-001) (2856532722, 2.16737580299377440000e+000) (2856532722, 2.68382501602172850000e+000) (2856532722, 1.78381979465484620000e+000) (2856532722, -1.86433702707290650000e-001) (2856532722, -1.70440816879272460000e+000) (2856532722, -1.34413033723831180000e-001) (2856532722, 5.28878808021545410000e-001) (2901228274, -1.23563373088836670000e+000) (2856532722, 1.47007131576538090000e+000) (2901228274, -4.75225836038589480000e-001) (2856532722, 3.23070943355560300000e-001) (2901228274, -5.66836357116699220000e-001) (2856532722, 2.85857379436492920000e-001) (2901228274, -2.94847041368484500000e-002) (2856532722, 2.61462718248367310000e-001) (2901228274, -1.36775195598602290000e-001) (2856532722, 1.28694966435432430000e-001) (2901228274, 7.43523519486188890000e-003) (2856532722, -6.98195025324821470000e-002) (2901228274, 2.53178179264068600000e-001) (2856532722, -1.48098068311810490000e-002) (2901228274, -8.04895460605621340000e-002) (2856532722, -4.35176379978656770000e-002) (2901228274, 5.50494939088821410000e-002) (2856532722, -1.69024765491485600000e-001) (2901228274, -1.66018694639205930000e-001) (2856532722, 4.41027462482452390000e-001) (2901228274, -4.70497697591781620000e-001) (2856532722, 2.19585582613945010000e-001) (2901228274, 4.81423467397689820000e-001) (2856532722, -4.02917265892028810000e-001) (2856532722, 1.43208652734756470000e-001) (2856532722, 4.68327552080154420000e-001) (2901228274, -3.01662832498550420000e-001) (2856532722, 4.32504445314407350000e-001) (2901228274, 2.36192792654037480000e-001) (2856532722, -1.33614480495452880000e-001) (2901228274, 5.64950644969940190000e-001) (2856532722, -5.59942685067653660000e-002) (2901228274, 6.11805021762847900000e-001) (2856532722, 3.52795749902725220000e-001) (2901228274, -3.40752154588699340000e-001) (2856532722, -3.78647536039352420000e-001) (2856532722, -2.25342750549316410000e-001) (2856532722, -3.56761962175369260000e-001) (2856532722, -3.49897205829620360000e-001) (2856532722, 1.08812384307384490000e-001) (2856532722, -3.13225269317626950000e-001) (2856532722, 3.18178176879882810000e-001) (2856532722, -2.13110089302062990000e-001) (2856532722, -5.08443079888820650000e-002) (2901228274, 2.83420622348785400000e-001) (2856532722, 2.37228691577911380000e-001) (2856532722, -2.16854244470596310000e-001) (2856532722, -8.54479148983955380000e-002) (2856532722, 4.34493198990821840000e-002) (2856532722, 5.27945645153522490000e-002) (2901228274, 3.22110921144485470000e-001) (2856532722, 3.96048992872238160000e-001) (2901228274, 3.19607526063919070000e-001) (2856532722, 3.64853143692016600000e-001) (2901228274, 3.06797713041305540000e-001) (2856532722, -4.51239310204982760000e-002) (2901228274, -3.43841426074504850000e-002) (2856532722, -5.07889151573181150000e-001) (2901228274, 3.51399958133697510000e-001) (2856532722, -1.75939455628395080000e-001) (2901228274, 1.97254300117492680000e-001) (2856532722, -7.56350457668304440000e-002) (2901228274, 3.70885312557220460000e-001) (2856532722, -4.71989028155803680000e-002) (2901228274, -2.17896744608879090000e-001) (2856532722, 2.41647928953170780000e-001) (2901228274, -1.35686621069908140000e-001) (2856532722, -2.20570825040340420000e-002) (2901228274, -6.75183311104774480000e-002) (2856532722, -3.93904596567153930000e-002) (2901228274, -3.28823775053024290000e-002) (2856532722, -1.63935184478759770000e-001) (2901228274, 1.42187818884849550000e-001) (2856532722, -1.91295132040977480000e-001) (2856532722, 1.17715284228324890000e-001) (2856532722, 4.15724307298660280000e-001) (2901228274, -1.26282632350921630000e-001) (2856532722, -2.05282270908355710000e-002) (2901228274, 2.26668938994407650000e-001) (2856532722, -6.04554079473018650000e-002) (2901228274, 2.34616592526435850000e-001) (2856532722, 2.53438711166381840000e-001) (2901228274, 7.50912204384803770000e-002) (2856532722, 4.49823647737503050000e-001) (2901228274, -1.40560716390609740000e-001) (2856532722, 5.38487017154693600000e-001) (2901228274, 3.57161313295364380000e-001) (2856532722, -3.52917999029159550000e-001) (2901228274, -3.80338281393051150000e-001) (2856532722, -1.85560032725334170000e-001) (2856532722, -2.89088100194931030000e-001) (2856532722, -2.83400535583496090000e-001) (2856532722, 1.16835974156856540000e-001) (2856532722, -3.13660621643066410000e-001) (2856532722, 3.43026608228683470000e-001) (2856532722, -1.79161205887794490000e-001) (2856532722, -7.29935169219970700000e-002) (2856532722, 2.82384902238845830000e-001) (2856532722, 2.72101610898971560000e-001) (2856532722, -2.12668970227241520000e-001) (2901228274, -2.26747579872608180000e-002) (2856532722, 4.72426973283290860000e-002) (2901228274, 6.14526718854904170000e-002) (2856532722, 3.15448462963104250000e-001) (2901228274, 3.24720829725265500000e-001) (2856532722, 3.48066151142120360000e-001) (2901228274, 3.38948696851730350000e-001) (2856532722, 2.48690277338027950000e-001) (2901228274, -8.45022425055503850000e-002) (2856532722, 1.88854604959487920000e-001) (2901228274, -5.35701632499694820000e-001) (2856532722, 3.02360981702804570000e-001) (2901228274, -1.77191734313964840000e-001) (2856532722, 6.75870254635810850000e-002) (2901228274, 1.51172667741775510000e-001) (2856532722, 1.08914799988269810000e-001) (2901228274, 6.23341500759124760000e-002) (2856532722, -4.62306058034300800000e-003) (2901228274, 1.44224137067794800000e-001) (2856532722, -1.21476151049137120000e-001) (2901228274, -4.72923833876848220000e-003) (2856532722, 1.05776423588395120000e-002) (2901228274, -1.69549196958541870000e-001) (2856532722, 6.47784350439906120000e-003) (2856532722, -2.82449036836624150000e-001) (2856532722, 2.17760816216468810000e-001) (2856532722, -2.40808829665184020000e-001) (2856532722, 2.68220286816358570000e-002) (2856532722, 4.26621615886688230000e-001) (2856532722, -8.95416811108589170000e-002) (2856532722, 4.22371178865432740000e-002) (2856532722, 8.88832956552505490000e-002) (2856532722, 1.13835968077182770000e-002) (2856532722, 2.20421567559242250000e-001) (2856532722, 2.47500851750373840000e-001) (2856532722, 1.65532007813453670000e-001) (2901228274, 3.09360295534133910000e-001) (2856532722, -8.49186480045318600000e-002) (2901228274, 4.16282653808593750000e-001) (2856532722, 3.38084667921066280000e-001) (2901228274, -3.13522368669509890000e-001) (2856532722, -3.38147699832916260000e-001) (2901228274, -1.76539793610572810000e-001) (2856532722, -2.21614524722099300000e-001) (2901228274, -2.72887051105499270000e-001) (2856532722, 1.04842342436313630000e-001) (2901228274, -2.80981063842773440000e-001) (2856532722, 3.23982089757919310000e-001) (2901228274, -1.99705347418785100000e-001) (2856532722, -9.19770449399948120000e-002) (2901228274, 2.32967600226402280000e-001) (2856532722, 2.31364518404006960000e-001) (2901228274, -2.10905820131301880000e-001) (2856532722, -2.63364966958761220000e-002) (2901228274, 7.04801306128501890000e-002) (2856532722, 6.40056952834129330000e-002) (2901228274, 2.96891778707504270000e-001) (2856532722, 2.98769056797027590000e-001) (2856532722, 3.15935701131820680000e-001) (2856532722, 3.11761379241943360000e-001) (2901228274, 2.06523790955543520000e-001) (2856532722, 1.26610651612281800000e-001) (2856532722, 1.03349618613719940000e-001) (2856532722, -6.50199055671691890000e-002) (2901228274, -5.38050681352615360000e-002) (2856532722, 2.83693466335535050000e-002) (2901228274, -2.00352579355239870000e-001) (2856532722, -3.78289610147476200000e-001) (2856532722, 4.36115771532058720000e-001) (2856532722, -2.66044884920120240000e-001) (2901228274, 4.01626527309417720000e-003) (2856532722, -5.80602176487445830000e-002) (2856532722, 2.83941570669412610000e-002) (2856532722, -6.06441386044025420000e-002) (2856532722, 6.99788406491279600000e-002) (2856532722, -6.83084428310394290000e-002) (2856532722, 1.57643511891365050000e-001) (2856532722, 3.39061439037323000000e-001) (2856532722, -2.23990857601165770000e-001) (2856532722, -2.03864052891731260000e-001) (2856532722, 2.44162082672119140000e-001) (2856532722, -3.85136343538761140000e-002) (2856532722, -8.63697230815887450000e-002) (2856532722, 4.44177240133285520000e-002) (2856532722, -2.24305674433708190000e-001) (2856532722, -2.52357006072998050000e-001) (2856532722, -2.29808278381824490000e-002) (2856532722, -2.22483217716217040000e-001) (2856532722, -3.32347750663757320000e-001) (2856532722, -1.98164001107215880000e-001) (2856532722, -1.55515357851982120000e-001) (2856532722, 1.95601487159729000000e+000) (2856532722, 1.64164423942565920000e-001) (2856532722, 2.78785884380340580000e-001) (2856532722, 1.15413151681423190000e-001) (2856532722, 4.40833866596221920000e-001) (2856532722, 3.79325062036514280000e-001) (2856532722, 2.82503068447113040000e-001) (2856532722, 4.53193038702011110000e-001) (2856532722, 1.64125114679336550000e-001) (2856532722, 4.37110923230648040000e-002) (2856532722, 3.29670310020446780000e-001) (2856532722, 4.21324968338012700000e-001) (2856532722, -2.49315828084945680000e-001) (2856532722, 2.88686364889144900000e-001) (2856532722, 1.91570043563842770000e-001) (2856532722, 3.36118996143341060000e-001) (2856532722, 3.59641015529632570000e-001) (2856532722, -3.68417531251907350000e-001) (2856532722, -1.42653718590736390000e-001) (2856532722, 1.21517434716224670000e-001) (2856532722, -1.16222612559795380000e-001) (2856532722, -2.24997475743293760000e-002) (2856532722, 2.62926906347274780000e-001) (2856532722, 2.91006475687026980000e-001) (2856532722, -1.01945186033844950000e-002) (2856532722, 9.17999446392059330000e-003) (2856532722, -1.84154167771339420000e-001) (2856532722, 1.58000108785927300000e-003) (2856532722, -3.06398570537567140000e-001) (2856532722, -3.16331565380096440000e-001) (2856532722, 2.68709897994995120000e-001) (2856532722, -1.26824036240577700000e-001) (2856532722, 1.48367002606391910000e-001) (2856532722, -1.38122752308845520000e-001) (2856532722, 2.07517027854919430000e-001) (2856532722, 4.05447669327259060000e-002) (2856532722, -9.25475209951400760000e-002) (2856532722, 9.57214906811714170000e-002) (2856532722, 1.83091551065444950000e-001) (2856532722, 1.83861359953880310000e-001) (2856532722, -3.11680197715759280000e-001) (2856532722, -3.98878864943981170000e-002) (2856532722, 1.93948730826377870000e-001) (2856532722, -1.33971720933914180000e-001) (2856532722, -1.06688126921653750000e-001) (2856532722, 8.04475173354148860000e-002) (2856532722, -2.50861346721649170000e-001) (2856532722, -1.86573088169097900000e-001) (2856532722, 8.45673382282257080000e-002) (2856532722, -2.03287735581398010000e-001) (2856532722, -3.29601645469665530000e-001) (2856532722, -1.80760875344276430000e-001) (2856532722, -1.77965342998504640000e-001) (2856532722, 1.64831948280334470000e+000) (2856532722, 1.69349744915962220000e-001) (2856532722, 2.00159355998039250000e-001) (2856532722, 1.66818991303443910000e-001) (2856532722, 3.90931606292724610000e-001) (2856532722, 3.50774139165878300000e-001) (2856532722, 3.10956597328186040000e-001) (2856532722, 4.02217745780944820000e-001) (2856532722, 1.34377121925354000000e-001) (2856532722, 4.69515211880207060000e-002) (2856532722, 3.59521806240081790000e-001) (2856532722, 4.07848685979843140000e-001) (2856532722, -2.77361631393432620000e-001) (2856532722, 2.52986133098602290000e-001) (2856532722, 2.26992428302764890000e-001) (2856532722, 3.07653576135635380000e-001) (2856532722, 3.29792737960815430000e-001) (2856532722, -3.49460333585739140000e-001) (2856532722, -1.24975875020027160000e-001) (2856532722, 1.25788047909736630000e-001) (2856532722, -1.05804257094860080000e-001) (2856532722, -3.16129848361015320000e-002) (2856532722, 2.38448351621627810000e-001) (2856532722, 2.35198214650154110000e-001) (2856532722, 1.58203825354576110000e-001) (2856532722, 1.15149416029453280000e-001) (2856532722, -3.89621764421463010000e-001) (2856532722, -3.13855595886707310000e-002) (2856532722, -1.88846647739410400000e-001) (2856532722, -3.63680750131607060000e-001) (2856532722, 2.22936704754829410000e-001) (2856532722, 1.11545801162719730000e-001) (2856532722, 2.48576089739799500000e-001) (2856532722, -1.62820428609848020000e-001) (2856532722, 4.46548778563737870000e-003) (2856532722, -1.99681207537651060000e-001) (2856532722, 6.20606727898120880000e-002) (2856532722, 1.41520828008651730000e-001) (2856532722, 7.10455998778343200000e-002) (2856532722, 4.67439703643321990000e-002) (2856532722, -2.05476716160774230000e-001) (2856532722, 5.98792098462581630000e-002) (2856532722, 2.85380750894546510000e-001) (2856532722, -3.73778253793716430000e-001) (2856532722, -3.58239933848381040000e-002) (2856532722, 1.50496512651443480000e-001) (2856532722, -2.71539777517318730000e-001) (2856532722, -2.33147814869880680000e-001) (2856532722, -1.97792034596204760000e-002) (2856532722, -9.18672084808349610000e-002) (2856532722, -1.22708991169929500000e-001) (2856532722, -2.67168998718261720000e-001) (2856532722, -3.96491169929504390000e-001) (2856532722, 1.61988222599029540000e+000) (2856532722, 1.56794399023056030000e-001) (2856532722, 1.87036246061325070000e-001) (2856532722, 1.77632004022598270000e-001) (2856532722, 4.36007142066955570000e-001) (2856532722, 3.29955488443374630000e-001) (2856532722, 2.64098167419433590000e-001) (2856532722, 3.37404757738113400000e-001) (2856532722, 1.14210881292819980000e-001) (2856532722, 6.69140592217445370000e-002) (2856532722, 3.29715371131896970000e-001) (2856532722, 3.69233459234237670000e-001) (2856532722, -2.43362888693809510000e-001) (2856532722, 2.18217164278030400000e-001) (2856532722, 2.31140464544296260000e-001) (2856532722, 3.06250661611557010000e-001) (2856532722, 3.21212291717529300000e-001) (2856532722, -3.48264068365097050000e-001) (2856532722, -1.31059393286705020000e-001) (2856532722, 8.55476856231689450000e-002) (2856532722, -9.44203436374664310000e-002) (2856532722, -2.49322149902582170000e-002) (2856532722, 2.07156464457511900000e-001) 
