FANN_FLO_2.1
num_layers=5
learning_rate=0.300000
connection_rate=1.000000
network_type=0
learning_momentum=0.500000
training_algorithm=2
train_error_function=0
train_stop_function=0
cascade_output_change_fraction=0.010000
quickprop_decay=-0.000100
quickprop_mu=1.750000
rprop_increase_factor=1.200000
rprop_decrease_factor=0.500000
rprop_delta_min=0.000000
rprop_delta_max=50.000000
rprop_delta_zero=0.100000
cascade_output_stagnation_epochs=12
cascade_candidate_change_fraction=0.010000
cascade_candidate_stagnation_epochs=12
cascade_max_out_epochs=150
cascade_min_out_epochs=50
cascade_max_cand_epochs=150
cascade_min_cand_epochs=50
cascade_num_candidate_groups=2
bit_fail_limit=3.49999994039535520000e-001
cascade_candidate_limit=1.00000000000000000000e+003
cascade_weight_multiplier=4.00000005960464480000e-001
cascade_activation_functions_count=10
cascade_activation_functions=3 5 7 8 10 11 14 15 16 17 
cascade_activation_steepnesses_count=4
cascade_activation_steepnesses=2.50000000000000000000e-001 5.00000000000000000000e-001 7.50000000000000000000e-001 1.00000000000000000000e+000 
layer_sizes=8 25 20 8 7 
scale_included=0
neurons (num_inputs, activation_function, activation_steepness)=(0, 0, 0.00000000000000000000e+000) (0, 0, 0.00000000000000000000e+000) (0, 0, 0.00000000000000000000e+000) (0, 0, 0.00000000000000000000e+000) (0, 0, 0.00000000000000000000e+000) (0, 0, 0.00000000000000000000e+000) (0, 0, 0.00000000000000000000e+000) (0, 0, 0.00000000000000000000e+000) (8, 11, 5.00000000000000000000e-001) (8, 11, 5.00000000000000000000e-001) (8, 11, 5.00000000000000000000e-001) (8, 11, 5.00000000000000000000e-001) (8, 11, 5.00000000000000000000e-001) (8, 11, 5.00000000000000000000e-001) (8, 11, 5.00000000000000000000e-001) (8, 11, 5.00000000000000000000e-001) (8, 11, 5.00000000000000000000e-001) (8, 11, 5.00000000000000000000e-001) (8, 11, 5.00000000000000000000e-001) (8, 11, 5.00000000000000000000e-001) (8, 11, 5.00000000000000000000e-001) (8, 11, 5.00000000000000000000e-001) (8, 11, 5.00000000000000000000e-001) (8, 11, 5.00000000000000000000e-001) (8, 11, 5.00000000000000000000e-001) (8, 11, 5.00000000000000000000e-001) (8, 11, 5.00000000000000000000e-001) (8, 11, 5.00000000000000000000e-001) (8, 11, 5.00000000000000000000e-001) (8, 11, 5.00000000000000000000e-001) (8, 11, 5.00000000000000000000e-001) (8, 11, 5.00000000000000000000e-001) (0, 11, 5.00000000000000000000e-001) (25, 11, 5.00000000000000000000e-001) (25, 11, 5.00000000000000000000e-001) (25, 11, 5.00000000000000000000e-001) (25, 11, 5.00000000000000000000e-001) (25, 11, 5.00000000000000000000e-001) (25, 11, 5.00000000000000000000e-001) (25, 11, 5.00000000000000000000e-001) (25, 11, 5.00000000000000000000e-001) (25, 11, 5.00000000000000000000e-001) (25, 11, 5.00000000000000000000e-001) (25, 11, 5.00000000000000000000e-001) (25, 11, 5.00000000000000000000e-001) (25, 11, 5.00000000000000000000e-001) (25, 11, 5.00000000000000000000e-001) (25, 11, 5.00000000000000000000e-001) (25, 11, 5.00000000000000000000e-001) (25, 11, 5.00000000000000000000e-001) (25, 11, 5.00000000000000000000e-001) (25, 11, 5.00000000000000000000e-001) (0, 11, 5.00000000000000000000e-001) (20, 11, 5.00000000000000000000e-001) (20, 11, 5.00000000000000000000e-001) (20, 11, 5.00000000000000000000e-001) (20, 11, 5.00000000000000000000e-001) (20, 11, 5.00000000000000000000e-001) (20, 11, 5.00000000000000000000e-001) (20, 11, 5.00000000000000000000e-001) (0, 11, 5.00000000000000000000e-001) (8, 8, 5.00000000000000000000e-001) (8, 8, 5.00000000000000000000e-001) (8, 8, 5.00000000000000000000e-001) (8, 8, 5.00000000000000000000e-001) (8, 8, 5.00000000000000000000e-001) (8, 8, 5.00000000000000000000e-001) (0, 8, 5.00000000000000000000e-001) 
connections (connected_to_neuron, weight)=(0, -4.42998886108398440000e+000) (1, 2.54439926147460940000e+000) (2, 1.11307585239410400000e+000) (3, -5.78735709190368650000e-001) (4, 2.57355928421020510000e-001) (5, 7.62560904026031490000e-001) (6, 5.58608710765838620000e-001) (7, 4.97247517108917240000e-001) (0, -6.31802260875701900000e-001) (1, 9.76856611669063570000e-003) (2, 2.98029780387878420000e-002) (3, 1.06805391609668730000e-001) (4, 5.28738319873809810000e-001) (5, 2.90441006422042850000e-001) (6, 1.47673726081848140000e-001) (7, -2.83073544502258300000e-001) (0, 2.25496336817741390000e-001) (1, 1.09414115548133850000e-001) (2, 1.99565455317497250000e-001) (3, 1.14631550386548040000e-002) (4, 2.96233762055635450000e-002) (5, 5.37854395806789400000e-002) (6, -6.14415407180786130000e-002) (7, -1.97532251477241520000e-001) (0, 1.38640195131301880000e-001) (1, 1.80647745728492740000e-001) (2, 2.32415854930877690000e-001) (3, 1.85148313641548160000e-001) (4, 3.66568356752395630000e-001) (5, 2.99631834030151370000e-001) (6, 2.97138959169387820000e-001) (7, 3.31084460020065310000e-001) (0, -4.54725885391235350000e+000) (1, 1.44138407707214360000e+000) (2, -1.85875996947288510000e-001) (3, 1.04127097129821780000e+000) (4, 9.16302144527435300000e-001) (5, 1.12735664844512940000e+000) (6, -2.43953168392181400000e-001) (7, 4.18091922998428340000e-001) (0, -7.26880311965942380000e-001) (1, 1.62827050685882570000e+000) (2, 2.99896776676177980000e-001) (3, 1.16928470134735110000e+000) (4, 2.38741683959960940000e+000) (5, -2.98610776662826540000e-002) (6, -2.09203863143920900000e+000) (7, 1.78882777690887450000e-001) (0, 2.74114549160003660000e-001) (1, 4.81095731258392330000e-001) (2, 5.85875613614916800000e-003) (3, 1.91709417849779130000e-002) (4, -2.31357902288436890000e-001) (5, 1.42004266381263730000e-001) (6, 2.21388310194015500000e-001) (7, -4.44405764341354370000e-001) (0, 2.36323028802871700000e-001) (1, 1.87391772866249080000e-001) (2, 2.10596874356269840000e-001) (3, 3.66609424352645870000e-001) (4, 4.59707796573638920000e-001) (5, 3.57990980148315430000e-001) (6, 4.38989996910095210000e-001) (7, 3.28187346458435060000e-001) (0, 1.47769287109375000000e+003) (1, 1.16675395965576170000e+001) (2, -2.76254701614379880000e+000) (3, 1.09483518600463870000e+001) (4, -4.14810376241803170000e-003) (5, -4.83968639373779300000e+000) (6, -1.96079134941101070000e+000) (7, 9.16388869285583500000e-001) (0, -2.06826955080032350000e-001) (1, -5.70230841636657710000e-001) (2, -1.31050929427146910000e-001) (3, -8.11199247837066650000e-002) (4, -7.89900049567222600000e-002) (5, -6.33968263864517210000e-002) (6, -3.06976977735757830000e-002) (7, -1.63909494876861570000e-001) (0, 1.87257543206214900000e-001) (1, 2.83936470746994020000e-001) (2, 1.45104780793190000000e-001) (3, 3.63610088825225830000e-001) (4, 3.14364463090896610000e-001) (5, 4.55035120248794560000e-001) (6, 4.69227463006973270000e-001) (7, 4.27224159240722660000e-001) (0, -1.42233967781066890000e-001) (1, -1.21864929795265200000e-001) (2, -2.32967510819435120000e-001) (3, -1.44226089119911190000e-001) (4, -2.20494978129863740000e-002) (5, -2.18177400529384610000e-002) (6, -1.22440412640571590000e-001) (7, -2.43131458759307860000e-001) (0, 5.46592056751251220000e-001) (1, 4.56719309091567990000e-001) (2, 2.97758560627698900000e-002) (3, -1.08906544744968410000e-001) (4, -6.97240456938743590000e-002) (5, 2.92502269148826600000e-002) (6, -6.93814605474472050000e-002) (7, -1.07579398155212400000e+000) (0, 2.01138436794281010000e-001) (1, 1.68155282735824580000e-001) (2, 1.42765730619430540000e-001) (3, 3.71339648962020870000e-001) (4, 2.69895195960998540000e-001) (5, 4.36228215694427490000e-001) (6, 3.81283551454544070000e-001) (7, 4.39595490694046020000e-001) (0, 2.16377466917037960000e-001) (1, 5.85171341896057130000e-001) (2, 8.49292799830436710000e-002) (3, 6.42284154891967770000e-001) (4, -9.07719075679779050000e-001) (5, -4.00047898292541500000e-001) (6, -1.31316065788269040000e-001) (7, -6.98150396347045900000e-001) (0, -1.50386720895767210000e-001) (1, -7.96532511711120610000e-001) (2, -1.19977176189422610000e-001) (3, -1.67177528142929080000e-001) (4, -1.76676765084266660000e-001) (5, -3.47276628017425540000e-002) (6, -1.26798540353775020000e-001) (7, -1.95577114820480350000e-001) (0, -6.89079388976097110000e-002) (1, -2.33390793204307560000e-001) (2, -7.42044895887374880000e-002) (3, -9.32984724640846250000e-002) (4, -9.00602266192436220000e-002) (5, -9.12668928503990170000e-002) (6, -9.28947106003761290000e-002) (7, -6.31317913532257080000e-001) (0, -2.15120029449462890000e+000) (1, 8.96414041519165040000e-001) (2, 2.26321840286254880000e+000) (3, 6.10009670257568360000e-001) (4, 7.55437672138214110000e-001) (5, -1.85861074924468990000e+000) (6, -7.48555302619934080000e-001) (7, 6.80263936519622800000e-001) (0, 3.52612316608428960000e-001) (1, 2.44462043046951290000e-001) (2, 2.09667935967445370000e-001) (3, 2.99900740385055540000e-001) (4, 4.46453988552093510000e-001) (5, 3.98593813180923460000e-001) (6, 4.47583109140396120000e-001) (7, 3.32712411880493160000e-001) (0, -2.34654486179351810000e-001) (1, 7.89699852466583250000e-001) (2, 1.99684154987335210000e+000) (3, -8.12100052833557130000e-001) (4, 8.18648338317871090000e-001) (5, 6.92750215530395510000e-001) (6, 2.22053706645965580000e-001) (7, -1.65924477577209470000e+000) (0, 2.59480237960815430000e-001) (1, 1.56155213713645940000e-001) (2, 1.83906197547912600000e-001) (3, 2.92995840311050420000e-001) (4, 3.54496479034423830000e-001) (5, 4.27563250064849850000e-001) (6, 4.22299176454544070000e-001) (7, 4.06566888093948360000e-001) (0, -3.85402679443359380000e+000) (1, 8.04039299488067630000e-001) (2, 1.04946362972259520000e+000) (3, 1.52267897129058840000e+000) (4, 7.73272514343261720000e-001) (5, 1.26200902462005620000e+000) (6, 4.27222669124603270000e-001) (7, 5.43913066387176510000e-001) (0, -2.03807145357131960000e-001) (1, -3.44986587762832640000e-001) (2, -2.04169929027557370000e-001) (3, -8.06258711963891980000e-003) (4, -1.70018389821052550000e-001) (5, -1.59561529755592350000e-001) (6, -1.29527017474174500000e-001) (7, -1.65327042341232300000e-001) (0, 1.86597913503646850000e-001) (1, 3.27571332454681400000e-001) (2, 2.10548982024192810000e-001) (3, -7.37617760896682740000e-002) (4, 6.42908588051795960000e-002) (5, 1.92496310919523240000e-002) (6, 2.04770296812057500000e-001) (7, -2.88728207349777220000e-001) (8, -2.17170819640159610000e-001) (9, 3.88060510158538820000e-001) (10, 1.47750558853149410000e+001) (11, 5.17661273479461670000e-001) (12, -1.67613267898559570000e-001) (13, -1.49986088275909420000e-001) (14, -9.72224521636962890000e+000) (15, 4.76805627346038820000e-001) (16, -1.92807108163833620000e-001) (17, 6.19744837284088130000e-001) (18, 4.29278761148452760000e-001) (19, 6.78625881671905520000e-001) (20, 9.84193533658981320000e-002) (21, 4.45634692907333370000e-001) (22, -1.10510885715484620000e+000) (23, 6.99623167514801030000e-001) (24, 3.03662568330764770000e-001) (25, 4.91769641637802120000e-001) (26, 4.01220053434371950000e-001) (27, 3.25190901756286620000e-001) (28, 4.96907949447631840000e-001) (29, -5.30069023370742800000e-002) (30, 7.33503341674804690000e-001) (31, 1.67446279525756840000e+000) (32, -8.26403275132179260000e-002) (8, 2.95272022485733030000e-001) (9, -2.15333557128906250000e+000) (10, -2.46929955482482910000e+000) (11, -3.81470412015914920000e-001) (12, 2.42091432213783260000e-001) (13, -2.46363639831542970000e+000) (14, 4.95791167020797730000e-001) (15, -5.81810116767883300000e-001) (16, -1.94328784942626950000e-001) (17, 2.84494787454605100000e-001) (18, -3.68000656366348270000e-001) (19, 3.50824773311614990000e-001) (20, 5.02539515495300290000e-001) (21, -3.78383070230484010000e-001) (22, 6.34487807750701900000e-001) (23, 2.87376254796981810000e-001) (24, 6.31675958633422850000e-001) (25, -6.92420339584350590000e+000) (26, -5.41997373104095460000e-001) (27, -3.41998553276062010000e+000) (28, -4.63059097528457640000e-001) (29, 3.40721130371093750000e-001) (30, 3.35617691278457640000e-001) (31, -6.54684066772460940000e-001) (32, 2.22035557031631470000e-001) (8, -1.13837242126464840000e+000) (9, -3.32357954978942870000e+000) (10, 4.80629682540893550000e+000) (11, 4.85554784536361690000e-001) (12, -1.11164033412933350000e+000) (13, -4.77923035621643070000e-001) (14, -2.16500020027160640000e+000) (15, 4.88260149955749510000e-001) (16, -6.36889934539794920000e-001) (17, 6.59310042858123780000e-001) (18, 4.33947533369064330000e-001) (19, 6.71928346157073970000e-001) (20, 3.09970587491989140000e-001) (21, 4.28357213735580440000e-001) (22, -1.83206450939178470000e+000) (23, 6.53171181678771970000e-001) (24, 3.25896620750427250000e-001) (25, 6.81455194950103760000e-001) (26, 3.39821487665176390000e-001) (27, 8.72975528240203860000e-001) (28, 4.62077885866165160000e-001) (29, -4.47639018297195430000e-001) (30, 6.19856894016265870000e-001) (31, -1.94548881053924560000e+000) (32, -5.84447532892227170000e-002) (8, 6.27137944102287290000e-002) (9, 8.53012800216674800000e-001) (10, 1.73759961128234860000e+000) (11, -1.10861398279666900000e-001) (12, 9.09871697425842290000e-001) (13, 2.12769191712141040000e-002) (14, 2.44504272937774660000e-001) (15, -1.52779340744018550000e-001) (16, -1.15307331085205080000e-001) (17, 6.93841099739074710000e-001) (18, -8.91008898615837100000e-002) (19, 7.72903025150299070000e-001) (20, 3.17554116249084470000e-001) (21, -1.81393191218376160000e-001) (22, 5.09348928928375240000e-001) (23, 6.93254888057708740000e-001) (24, 2.24451899528503420000e-001) (25, 1.85724210739135740000e+000) (26, -2.84694343805313110000e-001) (27, -1.73519444465637210000e+000) (28, -1.39897108078002930000e-001) (29, 1.15810453891754150000e-001) (30, 6.10195577144622800000e-001) (31, -8.76344859600067140000e-001) (32, -1.62472799420356750000e-001) (8, 4.09720230102539060000e+000) (9, 4.46095752716064450000e+000) (10, 6.89252662658691410000e+000) (11, -2.18633696436882020000e-001) (12, -8.13350868225097660000e+000) (13, 1.72129974365234380000e+001) (14, 3.64673763513565060000e-001) (15, -4.85385447740554810000e-001) (16, 4.48334503173828120000e+000) (17, 1.23564377427101140000e-001) (18, -4.12649661302566530000e-001) (19, 4.13809251785278320000e+000) (20, 4.49233144521713260000e-001) (21, -6.22380256652832030000e-001) (22, 1.22625671327114110000e-001) (23, 9.51563119888305660000e-002) (24, 4.35164272785186770000e-001) (25, 1.75321998596191410000e+001) (26, -2.39961996674537660000e-001) (27, 2.48259186744689940000e+000) (28, -3.92978936433792110000e-001) (29, 3.33183318376541140000e-001) (30, 8.28028768301010130000e-002) (31, 1.41610851287841800000e+001) (32, 4.67555105686187740000e-001) (8, 1.49289064407348630000e+001) (9, 7.68744659423828120000e+001) (10, -9.81567001342773440000e+001) (11, -5.84120340645313260000e-002) (12, 1.84290676116943360000e+001) (13, 3.44531148672103880000e-001) (14, 4.63272781372070310000e+001) (15, -3.18882554769515990000e-001) (16, 9.40851926803588870000e-001) (17, 3.88234287500381470000e-001) (18, -1.10965788364410400000e-001) (19, 3.64016056060791020000e-001) (20, 3.31112712621688840000e-001) (21, -1.70198947191238400000e-001) (22, 4.73632907867431640000e+000) (23, 6.51304662227630620000e-001) (24, 2.44736075401306150000e-001) (25, 2.86769084930419920000e+001) (26, -1.84097990393638610000e-001) (27, 4.79670959472656250000e+002) (28, -1.84292599558830260000e-001) (29, 1.30649432539939880000e-001) (30, 2.89666473865509030000e-001) (31, 7.15512619018554690000e+001) (32, 4.88973081111907960000e-001) (8, -1.03792488098144530000e+002) (9, 1.86577896118164060000e+002) (10, 5.36081161499023440000e+001) (11, 1.31565260887146000000e+000) (12, 4.47109107971191410000e+001) (13, 2.36441635131835940000e+002) (14, 2.90114712715148930000e+000) (15, 8.49459609985351560000e+001) (16, -1.62555274963378910000e+001) (17, 1.51414906978607180000e+000) (18, 1.93526935577392580000e+000) (19, -6.37653470039367680000e-001) (20, 2.95806415379047390000e-002) (21, 4.19727325439453130000e+000) (22, 5.45012712478637700000e+000) (23, 4.77460473775863650000e-001) (24, 1.50874942541122440000e-001) (25, -5.36124687194824220000e+001) (26, 7.60215854644775390000e+000) (27, 1.26158695220947270000e+001) (28, 4.00738620758056640000e+000) (29, -3.06459188461303710000e+000) (30, -3.39663863182067870000e-001) (31, 5.83443832397460940000e+000) (32, 8.95356416702270510000e-001) (8, 4.73973369598388670000e+000) (9, -5.51409482955932620000e+000) (10, -2.93661098480224610000e+001) (11, 3.97567659616470340000e-001) (12, -2.01381931304931640000e+001) (13, -1.11340265274047850000e+001) (14, 6.82426300048828130000e+001) (15, 4.67611104249954220000e-001) (16, -1.11784681677818300000e-001) (17, 1.00448894500732420000e+000) (18, 3.30735504627227780000e-001) (19, 7.51649141311645510000e-001) (20, 3.49814414978027340000e-001) (21, 4.26844835281372070000e-001) (22, 3.26694321632385250000e+000) (23, 8.61468434333801270000e-001) (24, 1.62701442837715150000e-001) (25, -4.75560235977172850000e+000) (26, 4.79799330234527590000e-001) (27, -5.98306512832641600000e+000) (28, 3.47993016242980960000e-001) (29, -5.52278804779052730000e+000) (30, 8.82404029369354250000e-001) (31, 8.70675754547119140000e+000) (32, -3.38768184185028080000e-001) (8, -1.63821041584014890000e+000) (9, 6.44739866256713870000e+000) (10, -3.47181777954101560000e+001) (11, 7.87499397993087770000e-002) (12, -7.35047638416290280000e-001) (13, 5.98912239074707030000e+000) (14, -3.07942652702331540000e+000) (15, 2.15755939483642580000e-001) (16, -1.41155302524566650000e+000) (17, 1.31889379024505620000e+000) (18, 1.98903650045394900000e-001) (19, 9.38071131706237790000e-001) (20, 4.11615073680877690000e-001) (21, 1.29586338996887210000e-001) (22, -2.64440417289733890000e-001) (23, 1.24284219741821290000e+000) (24, 7.18960344791412350000e-001) (25, -8.16981568932533260000e-002) (26, 1.97278127074241640000e-001) (27, -2.42578840255737300000e+000) (28, 2.09544658660888670000e-001) (29, -3.77932429313659670000e-001) (30, 1.08902621269226070000e+000) (31, -7.80937862396240230000e+000) (32, -2.76253998279571530000e-001) (8, 4.08299493789672850000e+000) (9, 3.01189632415771480000e+001) (10, -2.43202037811279300000e+001) (11, 3.04471905110403900000e-004) (12, -4.74097251892089840000e+000) (13, -1.37730121612548830000e+000) (14, 1.50165820121765140000e+000) (15, 4.31629940867424010000e-002) (16, -4.68039572238922120000e-001) (17, 1.03849482536315920000e+000) (18, 1.70883014798164370000e-002) (19, 8.85949194431304930000e-001) (20, 1.52813875675201420000e+000) (21, 5.24795763194561000000e-002) (22, 1.10833168029785160000e+001) (23, 9.43898260593414310000e-001) (24, 8.41697514057159420000e-001) (25, 3.70634526014328000000e-001) (26, 1.07226334512233730000e-001) (27, -6.43460988998413090000e+000) (28, 3.07176411151885990000e-002) (29, 1.40765011310577390000e-001) (30, 1.03354620933532710000e+000) (31, 7.91138916015625000000e+001) (32, -7.31409668922424320000e-001) (8, -2.87690258026123050000e+001) (9, 3.31293106079101560000e+001) (10, 5.60565612792968750000e+002) (11, 1.19464099407196040000e+000) (12, -2.39261579513549800000e+000) (13, 1.32919299602508540000e+000) (14, -3.40594635009765630000e+001) (15, 4.61417049169540410000e-001) (16, 2.39046171307563780000e-001) (17, 1.83062002062797550000e-001) (18, 3.91730099916458130000e-001) (19, 7.11990594863891600000e-001) (20, 1.90319821238517760000e-001) (21, 4.47365343570709230000e-001) (22, 1.84207477569580080000e+001) (23, 6.79853379726409910000e-001) (24, 5.09131014347076420000e-001) (25, 1.37514467239379880000e+001) (26, 3.97090941667556760000e-001) (27, 1.14446992874145510000e+001) (28, 3.58787298202514650000e-001) (29, -1.04903483390808110000e+000) (30, 6.50847196578979490000e-001) (31, -1.19954833984375000000e+002) (32, -2.17104136943817140000e-001) (8, 3.90635490417480470000e-001) (9, 6.50583740234375000000e+002) (10, 4.47160949707031250000e+001) (11, 2.61697262525558470000e-001) (12, 5.46979188919067380000e+000) (13, -2.65612274408340450000e-001) (14, 1.08462760925292970000e+002) (15, 1.74126014113426210000e-001) (16, -2.64914393424987790000e-001) (17, 8.67762744426727290000e-001) (18, 1.03907056152820590000e-001) (19, 8.79100799560546880000e-001) (20, 1.95336067676544190000e+000) (21, 2.05847501754760740000e-001) (22, 2.67826202392578120000e+002) (23, 8.47175359725952150000e-001) (24, 5.87823987007141110000e-001) (25, -1.18418369293212890000e+001) (26, 2.32303828001022340000e-001) (27, 2.34698638319969180000e-001) (28, 1.44976243376731870000e-001) (29, -4.32034134864807130000e-001) (30, 8.03710222244262700000e-001) (31, 5.02982902526855470000e+000) (32, -3.71807426214218140000e-001) (8, 1.89182758331298830000e+000) (9, -6.17676353454589840000e+000) (10, -1.70083198547363280000e+001) (11, 5.25285005569458010000e-001) (12, 8.95550727844238280000e-001) (13, -2.32133213430643080000e-002) (14, -9.82671451568603520000e+000) (15, 4.22102779150009160000e-001) (16, 7.66259385272860530000e-003) (17, 7.44726002216339110000e-001) (18, 4.59191381931304930000e-001) (19, 7.62544453144073490000e-001) (20, -1.53710857033729550000e-001) (21, 5.36843538284301760000e-001) (22, -4.94068592786788940000e-001) (23, 7.36443102359771730000e-001) (24, 1.13260924816131590000e-001) (25, -2.52348923683166500000e+000) (26, 4.12968844175338750000e-001) (27, -7.64224171638488770000e-001) (28, 5.31300902366638180000e-001) (29, -4.16318237781524660000e-001) (30, 7.53275692462921140000e-001) (31, 6.09840345382690430000e+000) (32, -1.76372621208429340000e-002) (8, -1.82356640696525570000e-001) (9, 1.78898656368255620000e+000) (10, -1.43896455764770510000e+001) (11, 2.41615653038024900000e-001) (12, -1.66302964091300960000e-001) (13, -4.73736599087715150000e-002) (14, 5.13607680797576900000e-001) (15, 2.65602052211761470000e-001) (16, -4.27984058856964110000e-001) (17, 6.91293895244598390000e-001) (18, 3.97900134325027470000e-001) (19, 7.68353998661041260000e-001) (20, 5.82858800888061520000e-001) (21, 3.10525327920913700000e-001) (22, 3.17086845636367800000e-001) (23, 8.12942624092102050000e-001) (24, 5.30531048774719240000e-001) (25, -2.58004277944564820000e-001) (26, 3.96972566843032840000e-001) (27, -5.99400922656059270000e-002) (28, 3.33484858274459840000e-001) (29, -1.34956687688827510000e-001) (30, 8.40183615684509280000e-001) (31, 1.25952970981597900000e+000) (32, -2.33007878065109250000e-001) (8, 2.84730863571166990000e+000) (9, -5.55029869079589840000e+000) (10, 2.14667773246765140000e+000) (11, -3.55422765016555790000e-001) (12, -2.98359870910644530000e+000) (13, -3.03229975700378420000e+000) (14, 7.73582267761230470000e+000) (15, -3.07748883962631230000e-001) (16, -1.19891330599784850000e-001) (17, 9.38650190830230710000e-001) (18, -2.47395873069763180000e-001) (19, 9.14580583572387700000e-001) (20, 3.22212696075439450000e+000) (21, -2.57957845926284790000e-001) (22, 2.73401737213134770000e+000) (23, 8.49024355411529540000e-001) (24, 5.83405911922454830000e-001) (25, -3.06819581985473630000e+000) (26, -2.19141498208045960000e-001) (27, 4.55600357055664060000e+000) (28, -3.40971797704696660000e-001) (29, -2.26221770048141480000e-001) (30, 7.90175557136535640000e-001) (31, 8.25348436832427980000e-001) (32, -2.68571883440017700000e-001) (8, -3.34213180541992190000e+001) (9, 2.33622684478759770000e+001) (10, 5.03170156478881840000e+000) (11, 1.88236081600189210000e+000) (12, 5.14101867675781250000e+001) (13, 1.10705537796020510000e+001) (14, -6.95637512207031250000e+001) (15, 1.12770290374755860000e+001) (16, 6.64926671981811520000e+000) (17, -2.15048253536224370000e-001) (18, 2.09929370880126950000e+000) (19, -6.07099473476409910000e-001) (20, -1.44206732511520390000e-001) (21, 1.39041650295257570000e+000) (22, -1.96722781658172610000e+000) (23, -3.90167772769927980000e-001) (24, -4.49341326951980590000e-001) (25, 4.37836875915527340000e+001) (26, 8.04603195190429690000e+000) (27, 3.68741798400878910000e+000) (28, 2.04172039031982420000e+000) (29, -1.71434955596923830000e+001) (30, -4.75099802017211910000e-001) (31, 4.58846168518066410000e+001) (32, 2.11376643180847170000e+000) (8, 2.67722845077514650000e+000) (9, -7.51374816894531250000e+000) (10, -6.35935783386230470000e+000) (11, 1.78877681493759160000e-001) (12, -1.41889047622680660000e+001) (13, -2.00717017054557800000e-001) (14, 4.63390133518259970000e-005) (15, 3.25253516435623170000e-001) (16, -2.11743548512458800000e-001) (17, 8.42887163162231450000e-001) (18, 2.92535066604614260000e-001) (19, 7.23151862621307370000e-001) (20, 4.03905272483825680000e-001) (21, 1.72587782144546510000e-001) (22, 4.68912935256958010000e+000) (23, 9.14059996604919430000e-001) (24, 5.33609867095947270000e-001) (25, -1.07464876174926760000e+001) (26, 2.91628152132034300000e-001) (27, 2.86592125892639160000e+000) (28, 3.13292592763900760000e-001) (29, -2.26885154843330380000e-001) (30, 8.49129021167755130000e-001) (31, 1.91030883789062500000e+000) (32, -2.43043437600135800000e-001) (8, -5.16904211044311520000e+000) (9, 2.31739101409912110000e+001) (10, 6.36110687255859380000e+001) (11, 1.65687605738639830000e-001) (12, -1.16221709176898000000e-002) (13, 2.28026318550109860000e+000) (14, -3.96215963363647460000e+000) (15, 3.32664638757705690000e-001) (16, 1.89370441436767580000e+000) (17, -1.96006260812282560000e-002) (18, 1.16520382463932040000e-001) (19, -1.43034204840660100000e-001) (20, 2.24878579378128050000e-001) (21, 1.80264279246330260000e-001) (22, -9.73357498645782470000e-001) (23, 6.47761002182960510000e-002) (24, 1.58289745450019840000e-001) (25, 1.17804384231567380000e+001) (26, 2.05119341611862180000e-001) (27, 8.43404388427734370000e+000) (28, 2.02052146196365360000e-001) (29, 6.54769539833068850000e-001) (30, 1.51908574625849720000e-002) (31, -3.35466651916503910000e+001) (32, 7.03076541423797610000e-001) (8, -1.00185260772705080000e+001) (9, -4.18107128143310550000e+000) (10, -2.03726911544799800000e+000) (11, 4.96291965246200560000e-001) (12, -2.92110214233398440000e+001) (13, -1.76729214191436770000e+000) (14, -1.87969055175781250000e+001) (15, 4.32906061410903930000e-001) (16, -4.68425369262695310000e+000) (17, 8.35350453853607180000e-001) (18, 3.65802586078643800000e-001) (19, 5.68344950675964360000e-001) (20, 3.25785785913467410000e-001) (21, 4.98437166213989260000e-001) (22, -1.65940666198730470000e+001) (23, 8.46627295017242430000e-001) (24, 5.13768851757049560000e-001) (25, -9.20610504150390620000e+001) (26, 4.94986593723297120000e-001) (27, 7.62319183349609380000e+000) (28, 3.40903192758560180000e-001) (29, 6.99950885772705080000e+000) (30, 6.65414333343505860000e-001) (31, -4.36141633987426760000e+000) (32, 3.21491099894046780000e-002) (33, 3.40674924850463870000e+000) (34, 5.59882931411266330000e-002) (35, 2.90426158905029300000e+000) (36, 1.25453218817710880000e-001) (37, -2.58647501468658450000e-001) (38, 1.33755192160606380000e-001) (39, 4.54438835382461550000e-001) (40, -8.44536304473876950000e-001) (41, 7.23260164260864260000e-001) (42, 4.39843177795410160000e+000) (43, -4.22661364078521730000e-001) (44, 8.06163609027862550000e-001) (45, 4.75030243396759030000e-001) (46, 8.53904902935028080000e-001) (47, 1.05536796152591710000e-001) (48, -1.43740162253379820000e-001) (49, 4.90582585334777830000e-001) (50, -3.06134462356567380000e-001) (51, 3.88377875089645390000e-001) (52, -3.60093742609024050000e-001) (33, -2.34151899814605710000e-001) (34, 1.16293346881866460000e+000) (35, -2.34625387191772460000e+000) (36, 1.17418074607849120000e+000) (37, 1.31013858318328860000e+000) (38, 1.48543655872344970000e+000) (39, -4.16727691888809200000e-001) (40, 1.17831480503082280000e+000) (41, -1.19205784797668460000e+000) (42, -1.11227202415466310000e+000) (43, 1.25249400734901430000e-001) (44, -3.98635178804397580000e-001) (45, 3.17002725601196290000e+000) (46, -3.40292528271675110000e-002) (47, 8.81066858768463130000e-001) (48, 7.68291771411895750000e-001) (49, -3.35069626569747920000e-001) (50, 5.70843040943145750000e-001) (51, 9.65485274791717530000e-002) (52, 6.75988197326660160000e-001) (33, -3.41166257858276370000e+000) (34, 4.98553991317749020000e-001) (35, 3.28418076038360600000e-001) (36, 2.43676528334617610000e-001) (37, 3.67195159196853640000e-001) (38, 2.46228709816932680000e-001) (39, 2.05088064074516300000e-001) (40, 1.25170600414276120000e+000) (41, -6.96260809898376460000e-001) (42, -1.47032529115676880000e-001) (43, -5.72547078132629390000e-001) (44, 6.99510648846626280000e-002) (45, 1.40633356571197510000e+000) (46, 2.12886407971382140000e-001) (47, 6.88287436962127690000e-001) (48, 1.53795167803764340000e-001) (49, -1.08815097808837890000e+000) (50, 4.89215046167373660000e-001) (51, -4.76438105106353760000e-002) (52, 2.61382341384887700000e-001) (33, 1.09142084121704100000e+001) (34, 5.62553691864013670000e+000) (35, -7.78516530990600590000e+000) (36, 2.56962966918945310000e+000) (37, 1.92787200212478640000e-001) (38, 5.92057406902313230000e-001) (39, 4.39211159944534300000e-001) (40, -1.54510152339935300000e+000) (41, -3.88803839683532710000e+000) (42, -2.94770693778991700000e+000) (43, 1.49812233448028560000e+000) (44, -4.48456294834613800000e-002) (45, 2.39765197038650510000e-002) (46, 2.70114187151193620000e-002) (47, 4.88448762893676760000e+000) (48, 4.05143260955810550000e+000) (49, -7.13681042194366460000e-001) (50, 7.80380725860595700000e-001) (51, 1.37702107429504390000e+000) (52, 5.74019968509674070000e-001) (33, 4.67553985595703120000e+002) (34, 2.49847441911697390000e-001) (35, 3.43069821596145630000e-001) (36, 4.23870891332626340000e-001) (37, -6.27810537815093990000e-001) (38, -7.72578567266464230000e-002) (39, -5.16457557678222660000e-001) (40, 1.20093055069446560000e-001) (41, 4.73561167716979980000e-001) (42, 3.48089069128036500000e-001) (43, 2.60226756334304810000e-001) (44, 3.24420988559722900000e-001) (45, 9.52428400516510010000e-001) (46, 1.49995935058593750000e+003) (47, 1.35732367634773250000e-001) (48, -1.15537559613585470000e-002) (49, 4.34681832790374760000e-001) (50, 1.33563280105590820000e-001) (51, 5.78878116607666020000e+000) (52, 8.00895169377326970000e-002) (33, -9.97057437896728520000e-001) (34, 9.43040132522583010000e-001) (35, 3.39823104441165920000e-002) (36, 3.84383618831634520000e-001) (37, 9.48514223098754880000e-001) (38, -2.72426635026931760000e-001) (39, -3.70319813489913940000e-001) (40, 3.83081436157226560000e-001) (41, -4.28379297256469730000e-001) (42, -2.54494071006774900000e-001) (43, 4.35710310935974120000e-001) (44, -2.69290506839752200000e-001) (45, 4.24127191305160520000e-001) (46, 4.30417172610759740000e-002) (47, 7.70311594009399410000e-001) (48, 1.05694389343261720000e+000) (49, -1.44951278343796730000e-002) (50, 6.67341530323028560000e-001) (51, 3.09141159057617190000e-001) (52, 7.64451444149017330000e-001) (33, 1.41131496429443360000e+000) (34, 5.57266712188720700000e-001) (35, 1.27144408226013180000e+000) (36, 8.38646829128265380000e-001) (37, 5.76553046703338620000e-002) (38, -2.78016686439514160000e-001) (39, 1.90076723694801330000e-001) (40, 1.35512262582778930000e-001) (41, 5.56596994400024410000e-001) (42, -1.88304081559181210000e-001) (43, 1.10753524303436280000e+000) (44, 3.11885654926300050000e-001) (45, 2.41447798907756810000e-002) (46, 8.01011323928833010000e-001) (47, 2.00659871101379390000e-001) (48, 4.00015622377395630000e-001) (49, -8.71908187866210940000e-001) (50, 9.49660036712884900000e-003) (51, 3.91236484050750730000e-001) (52, 1.30983591079711910000e-001) (53, -3.81522744894027710000e-001) (54, -8.16874146461486820000e-001) (55, -9.56707954406738280000e-001) (56, -8.47688198089599610000e-001) (57, -5.92798054218292240000e-001) (58, -1.39078855514526370000e+000) (59, -6.17021739482879640000e-001) (60, -4.59616243839263920000e-001) (53, 5.13333797454833980000e-001) (54, 1.10658109188079830000e+000) (55, 1.36208260059356690000e+000) (56, 9.94537293910980220000e-001) (57, 5.29632806777954100000e-001) (58, 1.26982367038726810000e+000) (59, 1.05115580558776860000e+000) (60, 7.05517709255218510000e-001) (53, 4.57550942897796630000e-001) (54, 1.07367622852325440000e+000) (55, 1.07359230518341060000e+000) (56, 1.00448966026306150000e+000) (57, 5.14491319656372070000e-001) (58, 1.08262515068054200000e+000) (59, 8.27342569828033450000e-001) (60, 8.16214382648468020000e-001) (53, 8.23548078536987300000e-001) (54, 8.25585484504699710000e-001) (55, 1.95404839515686040000e+000) (56, 3.91732931137084960000e-001) (57, 2.80542731285095210000e-001) (58, 3.37862253189086910000e-001) (59, 1.71140360832214360000e+000) (60, -9.54418852925300600000e-002) (53, 1.20102834701538090000e+000) (54, 1.07912409305572510000e+000) (55, 2.65775823593139650000e+000) (56, 2.88393199443817140000e-001) (57, 2.85513222217559810000e-001) (58, 3.31078380346298220000e-001) (59, 2.75163745880126950000e+000) (60, 8.30396637320518490000e-002) (53, 1.13239300251007080000e+000) (54, 7.85073757171630860000e-001) (55, 2.36823844909667970000e+000) (56, 2.28215664625167850000e-001) (57, 2.63630568981170650000e-001) (58, 3.52374732494354250000e-001) (59, 2.41674661636352540000e+000) (60, -1.22485376894474030000e-001) 
