FANN_FLO_2.1
num_layers=6
learning_rate=0.700000
connection_rate=1.000000
network_type=0
learning_momentum=0.000000
training_algorithm=2
train_error_function=1
train_stop_function=0
cascade_output_change_fraction=0.010000
quickprop_decay=-0.000100
quickprop_mu=1.750000
rprop_increase_factor=1.200000
rprop_decrease_factor=0.500000
rprop_delta_min=0.000000
rprop_delta_max=50.000000
rprop_delta_zero=0.100000
cascade_output_stagnation_epochs=12
cascade_candidate_change_fraction=0.010000
cascade_candidate_stagnation_epochs=12
cascade_max_out_epochs=150
cascade_max_cand_epochs=150
cascade_num_candidate_groups=2
bit_fail_limit=3.49999994039535522461e-01
cascade_candidate_limit=1.00000000000000000000e+03
cascade_weight_multiplier=4.00000005960464477539e-01
cascade_activation_functions_count=10
cascade_activation_functions=3 5 7 8 10 11 14 15 16 17 
cascade_activation_steepnesses_count=4
cascade_activation_steepnesses=2.50000000000000000000e-01 5.00000000000000000000e-01 7.50000000000000000000e-01 1.00000000000000000000e+00 
layer_sizes=7 101 101 101 101 2 
scale_included=0
neurons (num_inputs, activation_function, activation_steepness)=(0, 0, 0.00000000000000000000e+00) (0, 0, 0.00000000000000000000e+00) (0, 0, 0.00000000000000000000e+00) (0, 0, 0.00000000000000000000e+00) (0, 0, 0.00000000000000000000e+00) (0, 0, 0.00000000000000000000e+00) (0, 0, 0.00000000000000000000e+00) (7, 5, 5.00000000000000000000e-01) (7, 5, 5.00000000000000000000e-01) (7, 5, 5.00000000000000000000e-01) (7, 5, 5.00000000000000000000e-01) (7, 5, 5.00000000000000000000e-01) (7, 5, 5.00000000000000000000e-01) (7, 5, 5.00000000000000000000e-01) (7, 5, 5.00000000000000000000e-01) (7, 5, 5.00000000000000000000e-01) (7, 5, 5.00000000000000000000e-01) (7, 5, 5.00000000000000000000e-01) (7, 5, 5.00000000000000000000e-01) (7, 5, 5.00000000000000000000e-01) (7, 5, 5.00000000000000000000e-01) (7, 5, 5.00000000000000000000e-01) (7, 5, 5.00000000000000000000e-01) (7, 5, 5.00000000000000000000e-01) (7, 5, 5.00000000000000000000e-01) (7, 5, 5.00000000000000000000e-01) (7, 5, 5.00000000000000000000e-01) (7, 5, 5.00000000000000000000e-01) (7, 5, 5.00000000000000000000e-01) (7, 5, 5.00000000000000000000e-01) (7, 5, 5.00000000000000000000e-01) (7, 5, 5.00000000000000000000e-01) (7, 5, 5.00000000000000000000e-01) (7, 5, 5.00000000000000000000e-01) (7, 5, 5.00000000000000000000e-01) (7, 5, 5.00000000000000000000e-01) (7, 5, 5.00000000000000000000e-01) (7, 5, 5.00000000000000000000e-01) (7, 5, 5.00000000000000000000e-01) (7, 5, 5.00000000000000000000e-01) (7, 5, 5.00000000000000000000e-01) (7, 5, 5.00000000000000000000e-01) (7, 5, 5.00000000000000000000e-01) (7, 5, 5.00000000000000000000e-01) (7, 5, 5.00000000000000000000e-01) (7, 5, 5.00000000000000000000e-01) (7, 5, 5.00000000000000000000e-01) (7, 5, 5.00000000000000000000e-01) (7, 5, 5.00000000000000000000e-01) (7, 5, 5.00000000000000000000e-01) (7, 5, 5.00000000000000000000e-01) (7, 5, 5.00000000000000000000e-01) (7, 5, 5.00000000000000000000e-01) (7, 5, 5.00000000000000000000e-01) (7, 5, 5.00000000000000000000e-01) (7, 5, 5.00000000000000000000e-01) (7, 5, 5.00000000000000000000e-01) (7, 5, 5.00000000000000000000e-01) (7, 5, 5.00000000000000000000e-01) (7, 5, 5.00000000000000000000e-01) (7, 5, 5.00000000000000000000e-01) (7, 5, 5.00000000000000000000e-01) (7, 5, 5.00000000000000000000e-01) (7, 5, 5.00000000000000000000e-01) (7, 5, 5.00000000000000000000e-01) (7, 5, 5.00000000000000000000e-01) (7, 5, 5.00000000000000000000e-01) (7, 5, 5.00000000000000000000e-01) (7, 5, 5.00000000000000000000e-01) (7, 5, 5.00000000000000000000e-01) (7, 5, 5.00000000000000000000e-01) (7, 5, 5.00000000000000000000e-01) (7, 5, 5.00000000000000000000e-01) (7, 5, 5.00000000000000000000e-01) (7, 5, 5.00000000000000000000e-01) (7, 5, 5.00000000000000000000e-01) (7, 5, 5.00000000000000000000e-01) (7, 5, 5.00000000000000000000e-01) (7, 5, 5.00000000000000000000e-01) (7, 5, 5.00000000000000000000e-01) (7, 5, 5.00000000000000000000e-01) (7, 5, 5.00000000000000000000e-01) (7, 5, 5.00000000000000000000e-01) (7, 5, 5.00000000000000000000e-01) (7, 5, 5.00000000000000000000e-01) (7, 5, 5.00000000000000000000e-01) (7, 5, 5.00000000000000000000e-01) (7, 5, 5.00000000000000000000e-01) (7, 5, 5.00000000000000000000e-01) (7, 5, 5.00000000000000000000e-01) (7, 5, 5.00000000000000000000e-01) (7, 5, 5.00000000000000000000e-01) (7, 5, 5.00000000000000000000e-01) (7, 5, 5.00000000000000000000e-01) (7, 5, 5.00000000000000000000e-01) (7, 5, 5.00000000000000000000e-01) (7, 5, 5.00000000000000000000e-01) (7, 5, 5.00000000000000000000e-01) (7, 5, 5.00000000000000000000e-01) (7, 5, 5.00000000000000000000e-01) (7, 5, 5.00000000000000000000e-01) (7, 5, 5.00000000000000000000e-01) (7, 5, 5.00000000000000000000e-01) (7, 5, 5.00000000000000000000e-01) (7, 5, 5.00000000000000000000e-01) (7, 5, 5.00000000000000000000e-01) (7, 5, 5.00000000000000000000e-01) (0, 5, 0.00000000000000000000e+00) (101, 5, 5.00000000000000000000e-01) (101, 5, 5.00000000000000000000e-01) (101, 5, 5.00000000000000000000e-01) (101, 5, 5.00000000000000000000e-01) (101, 5, 5.00000000000000000000e-01) (101, 5, 5.00000000000000000000e-01) (101, 5, 5.00000000000000000000e-01) (101, 5, 5.00000000000000000000e-01) (101, 5, 5.00000000000000000000e-01) (101, 5, 5.00000000000000000000e-01) (101, 5, 5.00000000000000000000e-01) (101, 5, 5.00000000000000000000e-01) (101, 5, 5.00000000000000000000e-01) (101, 5, 5.00000000000000000000e-01) (101, 5, 5.00000000000000000000e-01) (101, 5, 5.00000000000000000000e-01) (101, 5, 5.00000000000000000000e-01) (101, 5, 5.00000000000000000000e-01) (101, 5, 5.00000000000000000000e-01) (101, 5, 5.00000000000000000000e-01) (101, 5, 5.00000000000000000000e-01) (101, 5, 5.00000000000000000000e-01) (101, 5, 5.00000000000000000000e-01) (101, 5, 5.00000000000000000000e-01) (101, 5, 5.00000000000000000000e-01) (101, 5, 5.00000000000000000000e-01) (101, 5, 5.00000000000000000000e-01) (101, 5, 5.00000000000000000000e-01) (101, 5, 5.00000000000000000000e-01) (101, 5, 5.00000000000000000000e-01) (101, 5, 5.00000000000000000000e-01) (101, 5, 5.00000000000000000000e-01) (101, 5, 5.00000000000000000000e-01) (101, 5, 5.00000000000000000000e-01) (101, 5, 5.00000000000000000000e-01) (101, 5, 5.00000000000000000000e-01) (101, 5, 5.00000000000000000000e-01) (101, 5, 5.00000000000000000000e-01) (101, 5, 5.00000000000000000000e-01) (101, 5, 5.00000000000000000000e-01) (101, 5, 5.00000000000000000000e-01) (101, 5, 5.00000000000000000000e-01) (101, 5, 5.00000000000000000000e-01) (101, 5, 5.00000000000000000000e-01) (101, 5, 5.00000000000000000000e-01) (101, 5, 5.00000000000000000000e-01) (101, 5, 5.00000000000000000000e-01) (101, 5, 5.00000000000000000000e-01) (101, 5, 5.00000000000000000000e-01) (101, 5, 5.00000000000000000000e-01) (101, 5, 5.00000000000000000000e-01) (101, 5, 5.00000000000000000000e-01) (101, 5, 5.00000000000000000000e-01) (101, 5, 5.00000000000000000000e-01) (101, 5, 5.00000000000000000000e-01) (101, 5, 5.00000000000000000000e-01) (101, 5, 5.00000000000000000000e-01) (101, 5, 5.00000000000000000000e-01) (101, 5, 5.00000000000000000000e-01) (101, 5, 5.00000000000000000000e-01) (101, 5, 5.00000000000000000000e-01) (101, 5, 5.00000000000000000000e-01) (101, 5, 5.00000000000000000000e-01) (101, 5, 5.00000000000000000000e-01) (101, 5, 5.00000000000000000000e-01) (101, 5, 5.00000000000000000000e-01) (101, 5, 5.00000000000000000000e-01) (101, 5, 5.00000000000000000000e-01) (101, 5, 5.00000000000000000000e-01) (101, 5, 5.00000000000000000000e-01) (101, 5, 5.00000000000000000000e-01) (101, 5, 5.00000000000000000000e-01) (101, 5, 5.00000000000000000000e-01) (101, 5, 5.00000000000000000000e-01) (101, 5, 5.00000000000000000000e-01) (101, 5, 5.00000000000000000000e-01) (101, 5, 5.00000000000000000000e-01) (101, 5, 5.00000000000000000000e-01) (101, 5, 5.00000000000000000000e-01) (101, 5, 5.00000000000000000000e-01) (101, 5, 5.00000000000000000000e-01) (101, 5, 5.00000000000000000000e-01) (101, 5, 5.00000000000000000000e-01) (101, 5, 5.00000000000000000000e-01) (101, 5, 5.00000000000000000000e-01) (101, 5, 5.00000000000000000000e-01) (101, 5, 5.00000000000000000000e-01) (101, 5, 5.00000000000000000000e-01) (101, 5, 5.00000000000000000000e-01) (101, 5, 5.00000000000000000000e-01) (101, 5, 5.00000000000000000000e-01) (101, 5, 5.00000000000000000000e-01) (101, 5, 5.00000000000000000000e-01) (101, 5, 5.00000000000000000000e-01) (101, 5, 5.00000000000000000000e-01) (101, 5, 5.00000000000000000000e-01) (101, 5, 5.00000000000000000000e-01) (101, 5, 5.00000000000000000000e-01) (101, 5, 5.00000000000000000000e-01) (101, 5, 5.00000000000000000000e-01) (0, 5, 0.00000000000000000000e+00) (101, 5, 5.00000000000000000000e-01) (101, 5, 5.00000000000000000000e-01) (101, 5, 5.00000000000000000000e-01) (101, 5, 5.00000000000000000000e-01) (101, 5, 5.00000000000000000000e-01) (101, 5, 5.00000000000000000000e-01) (101, 5, 5.00000000000000000000e-01) (101, 5, 5.00000000000000000000e-01) (101, 5, 5.00000000000000000000e-01) (101, 5, 5.00000000000000000000e-01) (101, 5, 5.00000000000000000000e-01) (101, 5, 5.00000000000000000000e-01) (101, 5, 5.00000000000000000000e-01) (101, 5, 5.00000000000000000000e-01) (101, 5, 5.00000000000000000000e-01) (101, 5, 5.00000000000000000000e-01) (101, 5, 5.00000000000000000000e-01) (101, 5, 5.00000000000000000000e-01) (101, 5, 5.00000000000000000000e-01) (101, 5, 5.00000000000000000000e-01) (101, 5, 5.00000000000000000000e-01) (101, 5, 5.00000000000000000000e-01) (101, 5, 5.00000000000000000000e-01) (101, 5, 5.00000000000000000000e-01) (101, 5, 5.00000000000000000000e-01) (101, 5, 5.00000000000000000000e-01) (101, 5, 5.00000000000000000000e-01) (101, 5, 5.00000000000000000000e-01) (101, 5, 5.00000000000000000000e-01) (101, 5, 5.00000000000000000000e-01) (101, 5, 5.00000000000000000000e-01) (101, 5, 5.00000000000000000000e-01) (101, 5, 5.00000000000000000000e-01) (101, 5, 5.00000000000000000000e-01) (101, 5, 5.00000000000000000000e-01) (101, 5, 5.00000000000000000000e-01) (101, 5, 5.00000000000000000000e-01) (101, 5, 5.00000000000000000000e-01) (101, 5, 5.00000000000000000000e-01) (101, 5, 5.00000000000000000000e-01) (101, 5, 5.00000000000000000000e-01) (101, 5, 5.00000000000000000000e-01) (101, 5, 5.00000000000000000000e-01) (101, 5, 5.00000000000000000000e-01) (101, 5, 5.00000000000000000000e-01) (101, 5, 5.00000000000000000000e-01) (101, 5, 5.00000000000000000000e-01) (101, 5, 5.00000000000000000000e-01) (101, 5, 5.00000000000000000000e-01) (101, 5, 5.00000000000000000000e-01) (101, 5, 5.00000000000000000000e-01) (101, 5, 5.00000000000000000000e-01) (101, 5, 5.00000000000000000000e-01) (101, 5, 5.00000000000000000000e-01) (101, 5, 5.00000000000000000000e-01) (101, 5, 5.00000000000000000000e-01) (101, 5, 5.00000000000000000000e-01) (101, 5, 5.00000000000000000000e-01) (101, 5, 5.00000000000000000000e-01) (101, 5, 5.00000000000000000000e-01) (101, 5, 5.00000000000000000000e-01) (101, 5, 5.00000000000000000000e-01) (101, 5, 5.00000000000000000000e-01) (101, 5, 5.00000000000000000000e-01) (101, 5, 5.00000000000000000000e-01) (101, 5, 5.00000000000000000000e-01) (101, 5, 5.00000000000000000000e-01) (101, 5, 5.00000000000000000000e-01) (101, 5, 5.00000000000000000000e-01) (101, 5, 5.00000000000000000000e-01) (101, 5, 5.00000000000000000000e-01) (101, 5, 5.00000000000000000000e-01) (101, 5, 5.00000000000000000000e-01) (101, 5, 5.00000000000000000000e-01) (101, 5, 5.00000000000000000000e-01) (101, 5, 5.00000000000000000000e-01) (101, 5, 5.00000000000000000000e-01) (101, 5, 5.00000000000000000000e-01) (101, 5, 5.00000000000000000000e-01) (101, 5, 5.00000000000000000000e-01) (101, 5, 5.00000000000000000000e-01) (101, 5, 5.00000000000000000000e-01) (101, 5, 5.00000000000000000000e-01) (101, 5, 5.00000000000000000000e-01) (101, 5, 5.00000000000000000000e-01) (101, 5, 5.00000000000000000000e-01) (101, 5, 5.00000000000000000000e-01) (101, 5, 5.00000000000000000000e-01) (101, 5, 5.00000000000000000000e-01) (101, 5, 5.00000000000000000000e-01) (101, 5, 5.00000000000000000000e-01) (101, 5, 5.00000000000000000000e-01) (101, 5, 5.00000000000000000000e-01) (101, 5, 5.00000000000000000000e-01) (101, 5, 5.00000000000000000000e-01) (101, 5, 5.00000000000000000000e-01) (101, 5, 5.00000000000000000000e-01) (101, 5, 5.00000000000000000000e-01) (101, 5, 5.00000000000000000000e-01) (101, 5, 5.00000000000000000000e-01) (0, 5, 0.00000000000000000000e+00) (101, 5, 5.00000000000000000000e-01) (101, 5, 5.00000000000000000000e-01) (101, 5, 5.00000000000000000000e-01) (101, 5, 5.00000000000000000000e-01) (101, 5, 5.00000000000000000000e-01) (101, 5, 5.00000000000000000000e-01) (101, 5, 5.00000000000000000000e-01) (101, 5, 5.00000000000000000000e-01) (101, 5, 5.00000000000000000000e-01) (101, 5, 5.00000000000000000000e-01) (101, 5, 5.00000000000000000000e-01) (101, 5, 5.00000000000000000000e-01) (101, 5, 5.00000000000000000000e-01) (101, 5, 5.00000000000000000000e-01) (101, 5, 5.00000000000000000000e-01) (101, 5, 5.00000000000000000000e-01) (101, 5, 5.00000000000000000000e-01) (101, 5, 5.00000000000000000000e-01) (101, 5, 5.00000000000000000000e-01) (101, 5, 5.00000000000000000000e-01) (101, 5, 5.00000000000000000000e-01) (101, 5, 5.00000000000000000000e-01) (101, 5, 5.00000000000000000000e-01) (101, 5, 5.00000000000000000000e-01) (101, 5, 5.00000000000000000000e-01) (101, 5, 5.00000000000000000000e-01) (101, 5, 5.00000000000000000000e-01) (101, 5, 5.00000000000000000000e-01) (101, 5, 5.00000000000000000000e-01) (101, 5, 5.00000000000000000000e-01) (101, 5, 5.00000000000000000000e-01) (101, 5, 5.00000000000000000000e-01) (101, 5, 5.00000000000000000000e-01) (101, 5, 5.00000000000000000000e-01) (101, 5, 5.00000000000000000000e-01) (101, 5, 5.00000000000000000000e-01) (101, 5, 5.00000000000000000000e-01) (101, 5, 5.00000000000000000000e-01) (101, 5, 5.00000000000000000000e-01) (101, 5, 5.00000000000000000000e-01) (101, 5, 5.00000000000000000000e-01) (101, 5, 5.00000000000000000000e-01) (101, 5, 5.00000000000000000000e-01) (101, 5, 5.00000000000000000000e-01) (101, 5, 5.00000000000000000000e-01) (101, 5, 5.00000000000000000000e-01) (101, 5, 5.00000000000000000000e-01) (101, 5, 5.00000000000000000000e-01) (101, 5, 5.00000000000000000000e-01) (101, 5, 5.00000000000000000000e-01) (101, 5, 5.00000000000000000000e-01) (101, 5, 5.00000000000000000000e-01) (101, 5, 5.00000000000000000000e-01) (101, 5, 5.00000000000000000000e-01) (101, 5, 5.00000000000000000000e-01) (101, 5, 5.00000000000000000000e-01) (101, 5, 5.00000000000000000000e-01) (101, 5, 5.00000000000000000000e-01) (101, 5, 5.00000000000000000000e-01) (101, 5, 5.00000000000000000000e-01) (101, 5, 5.00000000000000000000e-01) (101, 5, 5.00000000000000000000e-01) (101, 5, 5.00000000000000000000e-01) (101, 5, 5.00000000000000000000e-01) (101, 5, 5.00000000000000000000e-01) (101, 5, 5.00000000000000000000e-01) (101, 5, 5.00000000000000000000e-01) (101, 5, 5.00000000000000000000e-01) (101, 5, 5.00000000000000000000e-01) (101, 5, 5.00000000000000000000e-01) (101, 5, 5.00000000000000000000e-01) (101, 5, 5.00000000000000000000e-01) (101, 5, 5.00000000000000000000e-01) (101, 5, 5.00000000000000000000e-01) (101, 5, 5.00000000000000000000e-01) (101, 5, 5.00000000000000000000e-01) (101, 5, 5.00000000000000000000e-01) (101, 5, 5.00000000000000000000e-01) (101, 5, 5.00000000000000000000e-01) (101, 5, 5.00000000000000000000e-01) (101, 5, 5.00000000000000000000e-01) (101, 5, 5.00000000000000000000e-01) (101, 5, 5.00000000000000000000e-01) (101, 5, 5.00000000000000000000e-01) (101, 5, 5.00000000000000000000e-01) (101, 5, 5.00000000000000000000e-01) (101, 5, 5.00000000000000000000e-01) (101, 5, 5.00000000000000000000e-01) (101, 5, 5.00000000000000000000e-01) (101, 5, 5.00000000000000000000e-01) (101, 5, 5.00000000000000000000e-01) (101, 5, 5.00000000000000000000e-01) (101, 5, 5.00000000000000000000e-01) (101, 5, 5.00000000000000000000e-01) (101, 5, 5.00000000000000000000e-01) (101, 5, 5.00000000000000000000e-01) (101, 5, 5.00000000000000000000e-01) (101, 5, 5.00000000000000000000e-01) (101, 5, 5.00000000000000000000e-01) (101, 5, 5.00000000000000000000e-01) (0, 5, 0.00000000000000000000e+00) (101, 5, 5.00000000000000000000e-01) (0, 5, 0.00000000000000000000e+00) 
connections (connected_to_neuron, weight)=(0, -8.70449692010879516602e-02) (1, -2.51174718141555786133e-03) (2, -2.85774469375610351562e-04) (3, 7.49836638569831848145e-02) (4, 3.94126996397972106934e-02) (5, -7.20666795969009399414e-02) (6, -3.04500758647918701172e-03) (0, -6.00936822593212127686e-02) (1, 9.86087098717689514160e-02) (2, 9.02860686182975769043e-02) (3, -5.46542517840862274170e-02) (4, -4.72794435918331146240e-02) (5, 7.86206200718879699707e-02) (6, 6.66679814457893371582e-02) (0, 8.13795700669288635254e-02) (1, -1.81138217449188232422e-02) (2, 6.52076378464698791504e-02) (3, 5.97786977887153625488e-02) (4, 4.74706292152404785156e-04) (5, 1.46440863609313964844e-02) (6, 2.74656489491462707520e-02) (0, 3.00617516040802001953e-03) (1, -9.33327376842498779297e-02) (2, -4.53986898064613342285e-02) (3, -2.20174118876457214355e-02) (4, -1.46409124135971069336e-02) (5, 9.08346548676490783691e-02) (6, 4.65326383709907531738e-02) (0, 2.26888433098793029785e-02) (1, 3.88755276799201965332e-02) (2, 9.07527878880500793457e-02) (3, 3.56438830494880676270e-02) (4, -6.36362284421920776367e-02) (5, -9.53299552202224731445e-03) (6, 1.06275454163551330566e-02) (0, 7.57764801383018493652e-02) (1, 1.84003263711929321289e-02) (2, -9.24174711108207702637e-02) (3, -8.43172073364257812500e-02) (4, 1.70090347528457641602e-02) (5, 9.78685989975929260254e-02) (6, -3.89714613556861877441e-02) (0, 6.97295889258384704590e-02) (1, 7.64892175793647766113e-02) (2, -7.23034888505935668945e-02) (3, 5.11091575026512145996e-02) (4, -4.16246019303798675537e-02) (5, 9.29041579365730285645e-02) (6, 1.08878612518310546875e-02) (0, 5.88501170277595520020e-02) (1, 7.54823535680770874023e-03) (2, -6.16464801132678985596e-02) (3, -3.81437204778194427490e-02) (4, 1.42155066132545471191e-02) (5, -7.04516470432281494141e-03) (6, 3.98388579487800598145e-02) (0, 9.95745882391929626465e-02) (1, -1.62105187773704528809e-02) (2, -1.36285051703453063965e-02) (3, 2.22634300589561462402e-02) (4, -7.73350000381469726562e-02) (5, -2.28757336735725402832e-02) (6, -4.20926921069622039795e-02) (0, -4.09712269902229309082e-02) (1, 6.75912722945213317871e-02) (2, 6.85348585247993469238e-02) (3, -6.51947483420372009277e-02) (4, -1.40084102749824523926e-02) (5, 7.61173740029335021973e-02) (6, -4.95119504630565643311e-02) (0, -9.69993770122528076172e-02) (1, 7.39859715104103088379e-02) (2, 1.15165933966636657715e-02) (3, 7.27302059531211853027e-02) (4, 5.04751875996589660645e-02) (5, 3.92130985856056213379e-02) (6, 2.38393694162368774414e-02) (0, -9.11494046449661254883e-02) (1, 3.21172550320625305176e-02) (2, -6.52727708220481872559e-02) (3, 6.77006915211677551270e-02) (4, -6.03345148265361785889e-02) (5, -2.69192531704902648926e-02) (6, -7.04430192708969116211e-02) (0, 5.38809970021247863770e-02) (1, 6.60355761647224426270e-02) (2, 6.93958476185798645020e-02) (3, 5.34555837512016296387e-02) (4, -5.01749366521835327148e-02) (5, -4.42326664924621582031e-02) (6, -2.42809876799583435059e-02) (0, -2.75099426507949829102e-02) (1, 3.28916087746620178223e-02) (2, 3.36263254284858703613e-02) (3, 3.15188392996788024902e-02) (4, 4.82872128486633300781e-04) (5, 2.16116756200790405273e-03) (6, 6.63240924477577209473e-02) (0, 8.64744707942008972168e-02) (1, -2.17214599251747131348e-02) (2, -8.31878632307052612305e-02) (3, 8.94751027226448059082e-02) (4, -4.77354824542999267578e-02) (5, 2.83287242054939270020e-02) (6, 6.22053071856498718262e-02) (0, -9.72602888941764831543e-02) (1, -3.24581712484359741211e-02) (2, -1.39553323388099670410e-02) (3, -8.84096920490264892578e-02) (4, 9.96590927243232727051e-02) (5, 2.07718983292579650879e-02) (6, 7.92910084128379821777e-02) (0, -6.06754273176193237305e-02) (1, 9.38526466488838195801e-02) (2, -9.11520123481750488281e-02) (3, 9.32055637240409851074e-02) (4, 5.98882213234901428223e-02) (5, 7.82438293099403381348e-02) (6, 4.66611459851264953613e-02) (0, -9.02867168188095092773e-02) (1, -6.59888386726379394531e-02) (2, -7.76198506355285644531e-02) (3, -1.77966505289077758789e-02) (4, 6.69027641415596008301e-02) (5, 5.60064688324928283691e-02) (6, -8.62778127193450927734e-02) (0, -3.26143652200698852539e-02) (1, -4.18323688209056854248e-02) (2, 8.00462886691093444824e-02) (3, -4.61398959159851074219e-02) (4, 3.64461764693260192871e-02) (5, 9.68584194779396057129e-02) (6, -5.66648058593273162842e-02) (0, 8.87106880545616149902e-02) (1, 2.51871421933174133301e-02) (2, -9.44595038890838623047e-02) (3, 9.14504006505012512207e-02) (4, 9.27289798855781555176e-02) (5, -8.41484218835830688477e-03) (6, -9.69592928886413574219e-02) (0, 9.23880711197853088379e-02) (1, -8.76429453492164611816e-02) (2, 8.23317244648933410645e-02) (3, -6.82873651385307312012e-02) (4, -9.37903001904487609863e-02) (5, 9.11797061562538146973e-02) (6, -7.50818029046058654785e-02) (0, 6.60979226231575012207e-02) (1, 6.94235339760780334473e-02) (2, 7.15793445706367492676e-02) (3, 7.58112147450447082520e-02) (4, -9.65653136372566223145e-02) (5, 9.39594730734825134277e-02) (6, -4.19854335486888885498e-02) (0, 7.03374519944190979004e-02) (1, 4.99659404158592224121e-02) (2, -2.82632485032081604004e-02) (3, -6.22769072651863098145e-02) (4, -9.18664261698722839355e-02) (5, -4.82169687747955322266e-02) (6, -8.41680169105529785156e-03) (0, 4.45797517895698547363e-02) (1, -5.13585470616817474365e-02) (2, 3.49183902144432067871e-02) (3, 3.32904383540153503418e-02) (4, 7.38286003470420837402e-02) (5, 4.04588803648948669434e-02) (6, 2.47408375144004821777e-02) (0, 6.65575936436653137207e-02) (1, -6.79559558629989624023e-02) (2, 2.77815535664558410645e-02) (3, 5.89456483721733093262e-02) (4, -5.55988959968090057373e-02) (5, 1.01132616400718688965e-02) (6, 9.06582847237586975098e-02) (0, -4.93891946971416473389e-02) (1, 1.29295885562896728516e-03) (2, -8.44235271215438842773e-02) (3, -8.32912623882293701172e-02) (4, -2.92835086584091186523e-02) (5, 8.71558114886283874512e-02) (6, 9.25199463963508605957e-02) (0, -2.58488208055496215820e-02) (1, 8.11152979731559753418e-02) (2, -4.94654849171638488770e-02) (3, -5.55113665759563446045e-02) (4, 3.10812368988990783691e-02) (5, 2.22712606191635131836e-02) (6, -1.77882686257362365723e-02) (0, 3.92147973179817199707e-02) (1, 7.40543082356452941895e-02) (2, 7.37949237227439880371e-02) (3, -1.62054449319839477539e-02) (4, -7.73042440414428710938e-02) (5, 8.71331989765167236328e-03) (6, -8.29150080680847167969e-02) (0, 9.65243652462959289551e-02) (1, -5.08277900516986846924e-02) (2, 4.18258383870124816895e-02) (3, 6.30819275975227355957e-02) (4, -1.87837406992912292480e-02) (5, -3.03926244378089904785e-02) (6, 2.20275744795799255371e-02) (0, 2.56173685193061828613e-02) (1, 7.97206386923789978027e-02) (2, 1.26858577132225036621e-02) (3, 7.62281641364097595215e-02) (4, -1.89864039421081542969e-02) (5, 2.82623395323753356934e-02) (6, 9.29369106888771057129e-02) (0, 5.17300888895988464355e-02) (1, 1.54181495308876037598e-02) (2, 8.54568555951118469238e-02) (3, -7.41187334060668945312e-02) (4, -3.46656143665313720703e-03) (5, -6.40086308121681213379e-02) (6, -2.96300947666168212891e-02) (0, -7.23853334784507751465e-02) (1, 5.82626387476921081543e-02) (2, 5.25816306471824645996e-02) (3, 6.68294802308082580566e-02) (4, 3.23169305920600891113e-02) (5, 2.63765677809715270996e-02) (6, -4.93759773671627044678e-02) (0, 5.50126954913139343262e-02) (1, -6.49101138114929199219e-02) (2, -3.22909802198410034180e-02) (3, 5.15370443463325500488e-02) (4, -1.57379060983657836914e-02) (5, -9.04651507735252380371e-02) (6, 1.46189928054809570312e-02) (0, 6.54783621430397033691e-02) (1, -2.08577737212181091309e-02) (2, -6.33534342050552368164e-02) (3, -8.90427827835083007812e-03) (4, -4.11371402442455291748e-02) (5, 4.93324324488639831543e-02) (6, -3.26761081814765930176e-02) (0, 3.98764535784721374512e-02) (1, -2.24052295088768005371e-02) (2, -3.97392027080059051514e-02) (3, -8.39345902204513549805e-03) (4, 9.30129215121269226074e-02) (5, -5.42823486030101776123e-02) (6, 1.74878090620040893555e-02) (0, -1.04536488652229309082e-02) (1, -1.82909816503524780273e-02) (2, 8.78577157855033874512e-02) (3, 1.71610265970230102539e-02) (4, -6.00283406674861907959e-02) (5, 4.04393598437309265137e-02) (6, -1.60095095634460449219e-02) (0, 7.22885951399803161621e-02) (1, -3.31840813159942626953e-02) (2, 3.46145108342170715332e-02) (3, 2.73013040423393249512e-02) (4, 1.90581381320953369141e-03) (5, -9.76764634251594543457e-02) (6, -2.11616531014442443848e-02) (0, 8.61679092049598693848e-02) (1, -8.81416127085685729980e-02) (2, 9.34573486447334289551e-02) (3, 5.16462698578834533691e-02) (4, -8.99939239025115966797e-03) (5, -6.98960945010185241699e-02) (6, -5.72580173611640930176e-02) (0, 4.98634651303291320801e-02) (1, 7.94363394379615783691e-02) (2, 1.00658759474754333496e-02) (3, -1.02600753307342529297e-02) (4, -4.29688952863216400146e-02) (5, 7.03266784548759460449e-02) (6, 8.13464596867561340332e-02) (0, -4.99559827148914337158e-02) (1, -8.39556753635406494141e-02) (2, -1.16572529077529907227e-03) (3, 3.95903661847114562988e-02) (4, -2.24664807319641113281e-03) (5, -1.33080109953880310059e-02) (6, -4.32486124336719512939e-02) (0, 3.77250090241432189941e-02) (1, -7.28686600923538208008e-02) (2, 4.07418832182884216309e-02) (3, 1.00136175751686096191e-02) (4, -6.05274736881256103516e-03) (5, -2.46435925364494323730e-02) (6, -6.26850873231887817383e-02) (0, 9.58530679345130920410e-02) (1, -2.23200544714927673340e-02) (2, 1.61532610654830932617e-02) (3, 8.20209607481956481934e-02) (4, -1.04616731405258178711e-02) (5, 9.61059331893920898438e-03) (6, 3.36672291159629821777e-02) (0, 8.05389359593391418457e-02) (1, 3.97145077586174011230e-02) (2, 7.64092281460762023926e-02) (3, 3.04024145007133483887e-02) (4, 1.91508382558822631836e-02) (5, -1.35249048471450805664e-02) (6, -7.98576697707176208496e-02) (0, 7.61819407343864440918e-02) (1, -4.31982353329658508301e-02) (2, -9.85112041234970092773e-02) (3, -7.37740397453308105469e-02) (4, -2.71539017558097839355e-02) (5, 3.23072075843811035156e-04) (6, 6.58163353800773620605e-02) (0, 7.05994442105293273926e-02) (1, 8.70150551199913024902e-02) (2, -7.74322748184204101562e-02) (3, 8.32445919513702392578e-03) (4, -8.58536064624786376953e-02) (5, 6.33096173405647277832e-02) (6, -8.16619247198104858398e-02) (0, 8.09365510940551757812e-03) (1, -6.13339878618717193604e-02) (2, -4.43470180034637451172e-02) (3, 3.94670665264129638672e-03) (4, 1.63459554314613342285e-02) (5, 7.18062445521354675293e-02) (6, -1.40323191881179809570e-02) (0, -9.41157117486000061035e-02) (1, -1.85831636190414428711e-02) (2, -8.03650915622711181641e-02) (3, 8.64232257008552551270e-02) (4, -7.88686648011207580566e-02) (5, 9.60441306233406066895e-02) (6, 1.68256387114524841309e-02) (0, 4.02821674942970275879e-02) (1, -1.74807757139205932617e-02) (2, 3.69679704308509826660e-02) (3, 1.64641141891479492188e-02) (4, 3.93209978938102722168e-02) (5, 3.84567752480506896973e-02) (6, 4.26900759339332580566e-02) (0, -8.78329128026962280273e-02) (1, -6.12201578915119171143e-02) (2, 8.50640237331390380859e-03) (3, 8.27665403485298156738e-02) (4, -7.42051005363464355469e-02) (5, 3.10741290450096130371e-02) (6, -8.90900194644927978516e-03) (0, -6.00587017834186553955e-02) (1, -5.61626255512237548828e-03) (2, 9.42905992269515991211e-03) (3, 4.80349585413932800293e-02) (4, 3.30497547984123229980e-02) (5, 6.50820508599281311035e-02) (6, -4.80183325707912445068e-02) (0, -5.06042949855327606201e-02) (1, 3.68882939219474792480e-02) (2, 3.79493460059165954590e-02) (3, -4.47200052440166473389e-02) (4, -8.16948786377906799316e-02) (5, 5.75842633843421936035e-02) (6, -5.82967773079872131348e-02) (0, -6.05635456740856170654e-02) (1, 5.36283925175666809082e-02) (2, 5.85288628935813903809e-02) (3, 7.97186270356178283691e-02) (4, -6.38523995876312255859e-02) (5, -4.50316071510314941406e-03) (6, -3.81726771593093872070e-03) (0, 7.54685923457145690918e-02) (1, -6.60463869571685791016e-02) (2, -6.11271969974040985107e-02) (3, 8.76356735825538635254e-02) (4, -2.72665470838546752930e-02) (5, 4.73792031407356262207e-02) (6, 7.04022124409675598145e-02) (0, -1.47164613008499145508e-03) (1, -2.15466618537902832031e-02) (2, -3.85067947208881378174e-02) (3, 3.84696647524833679199e-02) (4, 7.28370621800422668457e-02) (5, 7.09222629666328430176e-02) (6, -1.34953856468200683594e-02) (0, 5.88681548833847045898e-03) (1, 3.60043123364448547363e-02) (2, 3.84862795472145080566e-02) (3, 5.52825257182121276855e-02) (4, -2.71074026823043823242e-02) (5, -2.35643684864044189453e-02) (6, -8.94374847412109375000e-02) (0, -8.80227982997894287109e-03) (1, -6.59801140427589416504e-02) (2, -4.77342605590820312500e-02) (3, 3.06341722607612609863e-02) (4, 8.76482799649238586426e-02) (5, -8.92053917050361633301e-02) (6, 1.03527903556823730469e-02) (0, -7.62041211128234863281e-02) (1, 6.29144906997680664062e-03) (2, -9.34644713997840881348e-02) (3, 9.92644652724266052246e-02) (4, 4.02450636029243469238e-02) (5, -5.45916669070720672607e-02) (6, 8.69001522660255432129e-02) (0, -8.70214849710464477539e-02) (1, 9.27875414490699768066e-02) (2, 5.73023632168769836426e-02) (3, 1.15068778395652770996e-02) (4, -2.87591144442558288574e-02) (5, -8.12044367194175720215e-02) (6, -5.00234663486480712891e-02) (0, -5.59220463037490844727e-02) (1, 8.97178277373313903809e-02) (2, 3.64811494946479797363e-02) (3, 4.99647781252861022949e-02) (4, 2.57221534848213195801e-02) (5, -2.50325724482536315918e-02) (6, 5.24729490280151367188e-03) (0, 9.86147448420524597168e-02) (1, 5.14030531048774719238e-02) (2, 1.58098116517066955566e-02) (3, -1.01875439286231994629e-02) (4, 8.54229405522346496582e-02) (5, 6.80755451321601867676e-02) (6, -7.95533657073974609375e-02) (0, 7.30712190270423889160e-02) (1, 7.88701698184013366699e-02) (2, 3.07994261384010314941e-02) (3, 9.68670919537544250488e-02) (4, -1.48383900523185729980e-02) (5, 3.73349562287330627441e-02) (6, 9.61315706372261047363e-02) (0, -7.45933279395103454590e-02) (1, 8.27432945370674133301e-02) (2, 8.30317214131355285645e-02) (3, -6.16148151457309722900e-02) (4, 7.55308344960212707520e-02) (5, 4.03340682387351989746e-02) (6, 4.98920604586601257324e-02) (0, -5.32282851636409759521e-02) (1, 5.91296479105949401855e-02) (2, 9.98686030507087707520e-02) (3, -9.15033370256423950195e-03) (4, 4.88474741578102111816e-02) (5, 3.63497361540794372559e-02) (6, -5.91855607926845550537e-02) (0, -2.54303887486457824707e-02) (1, -8.86828377842903137207e-02) (2, 4.60617467761039733887e-02) (3, -2.68156453967094421387e-02) (4, 6.27202168107032775879e-02) (5, -3.81284467875957489014e-02) (6, 6.29968121647834777832e-02) (0, 4.81431558728218078613e-02) (1, -7.00528919696807861328e-02) (2, 8.34434404969215393066e-02) (3, 2.12143808603286743164e-02) (4, -9.11827310919761657715e-02) (5, 1.42428725957870483398e-02) (6, 1.80814713239669799805e-02) (0, -6.02112710475921630859e-03) (1, -4.84221763908863067627e-02) (2, 1.42130404710769653320e-02) (3, 1.93855389952659606934e-02) (4, -6.56788870692253112793e-02) (5, -2.75524705648422241211e-03) (6, 5.77707365155220031738e-02) (0, -9.01480540633201599121e-02) (1, -6.24211765825748443604e-02) (2, 7.66279548406600952148e-03) (3, -4.33763377368450164795e-02) (4, 9.67084690928459167480e-02) (5, 7.53138959407806396484e-03) (6, 4.74733337759971618652e-02) (0, 4.55559417605400085449e-02) (1, -5.61188720166683197021e-02) (2, 8.82877781987190246582e-02) (3, -7.98744559288024902344e-02) (4, -4.48017120361328125000e-02) (5, 3.43495085835456848145e-02) (6, -6.69009983539581298828e-03) (0, -8.20814967155456542969e-02) (1, 9.62210670113563537598e-02) (2, -4.36932854354381561279e-02) (3, 6.60616680979728698730e-02) (4, -7.38318264484405517578e-02) (5, -6.02498464286327362061e-02) (6, -1.27239674329757690430e-02) (0, -6.50145635008811950684e-02) (1, 5.39930239319801330566e-02) (2, -9.46424975991249084473e-02) (3, 2.89643183350563049316e-02) (4, -9.44291502237319946289e-02) (5, 1.95705443620681762695e-02) (6, -5.16501404345035552979e-02) (0, -6.01080320775508880615e-02) (1, -8.31847116351127624512e-02) (2, -9.38794091343879699707e-02) (3, -5.02560846507549285889e-02) (4, -4.56058867275714874268e-02) (5, 1.37833803892135620117e-02) (6, 6.36757910251617431641e-03) (0, -4.88974228501319885254e-02) (1, -7.86852315068244934082e-02) (2, -4.61590886116027832031e-02) (3, 9.66585204005241394043e-02) (4, -3.48040983080863952637e-02) (5, -5.78713193535804748535e-02) (6, -8.32159444689750671387e-02) (0, 2.03941836953163146973e-02) (1, 7.64781907200813293457e-02) (2, 1.00939646363258361816e-02) (3, 3.83126959204673767090e-02) (4, 7.26992562413215637207e-02) (5, 6.64006695151329040527e-02) (6, 4.37436252832412719727e-03) (0, 9.88674238324165344238e-02) (1, -9.38491746783256530762e-02) (2, 9.16503891348838806152e-02) (3, -6.61471337080001831055e-02) (4, 6.01438507437705993652e-02) (5, 9.70078930258750915527e-02) (6, 6.28171786665916442871e-02) (0, 6.57147094607353210449e-02) (1, 1.65784358978271484375e-02) (2, -8.88329669833183288574e-02) (3, -9.43933278322219848633e-02) (4, 3.33937332034111022949e-02) (5, -8.27123746275901794434e-02) (6, -4.46494184434413909912e-02) (0, 8.77878442406654357910e-02) (1, 3.10710147023200988770e-02) (2, 6.17181733250617980957e-02) (3, -6.11095726490020751953e-02) (4, 5.23857846856117248535e-02) (5, -8.44409316778182983398e-02) (6, -6.44510537385940551758e-02) (0, -8.24183151125907897949e-02) (1, -4.23122458159923553467e-02) (2, -4.76669967174530029297e-02) (3, 3.79758700728416442871e-02) (4, -6.58340603113174438477e-02) (5, 6.24269619584083557129e-02) (6, -2.37114354968070983887e-02) (0, -9.31347981095314025879e-02) (1, 2.88276299834251403809e-02) (2, 8.06629136204719543457e-02) (3, -9.42673757672309875488e-02) (4, 3.49784567952156066895e-02) (5, 7.23133161664009094238e-02) (6, -6.04145079851150512695e-02) (0, -4.87770140171051025391e-03) (1, 6.93212226033210754395e-02) (2, -9.75973308086395263672e-02) (3, -3.91629934310913085938e-02) (4, -1.41003504395484924316e-02) (5, -8.64302963018417358398e-02) (6, -3.35563272237777709961e-02) (0, -8.07066187262535095215e-02) (1, -6.91426694393157958984e-02) (2, 2.17942595481872558594e-02) (3, -9.29187759757041931152e-02) (4, 6.19283393025398254395e-02) (5, -1.64875760674476623535e-02) (6, -5.40283434092998504639e-02) (0, 1.43141373991966247559e-02) (1, -9.28506255149841308594e-04) (2, -1.84793993830680847168e-02) (3, 3.18958237767219543457e-02) (4, 5.67592456936836242676e-02) (5, 3.38535979390144348145e-02) (6, -3.01283150911331176758e-02) (0, 9.09251943230628967285e-02) (1, -3.71943414211273193359e-03) (2, 4.61602434515953063965e-02) (3, 9.77903977036476135254e-02) (4, -7.48918130993843078613e-02) (5, 2.68231704831123352051e-02) (6, -9.64769795536994934082e-02) (0, 6.00866451859474182129e-02) (1, -8.63522291183471679688e-04) (2, -5.68914860486984252930e-02) (3, -4.47910614311695098877e-02) (4, -3.15423160791397094727e-02) (5, -5.44888190925121307373e-02) (6, 1.60459503531455993652e-02) (0, 5.43573424220085144043e-02) (1, -4.09191139042377471924e-02) (2, 8.24896171689033508301e-02) (3, 7.36507251858711242676e-02) (4, -1.00617781281471252441e-02) (5, 4.28388267755508422852e-03) (6, 8.07319507002830505371e-02) (0, -4.81334328651428222656e-02) (1, 8.77963081002235412598e-02) (2, -7.32963979244232177734e-02) (3, 6.61807134747505187988e-02) (4, -1.31321996450424194336e-02) (5, 8.22420418262481689453e-03) (6, -1.92348659038543701172e-03) (0, -5.63729554414749145508e-02) (1, -5.79221956431865692139e-02) (2, 6.79482147097587585449e-02) (3, -6.54477626085281372070e-02) (4, 3.83583679795265197754e-02) (5, 1.41084566712379455566e-02) (6, -6.76573663949966430664e-02) (0, 6.34665563702583312988e-02) (1, -5.90683780610561370850e-02) (2, -6.41343444585800170898e-02) (3, 2.35531926155090332031e-02) (4, 4.00680974125862121582e-02) (5, -2.10258364677429199219e-02) (6, 7.87621363997459411621e-02) (0, -9.14742201566696166992e-02) (1, 2.44853496551513671875e-02) (2, -5.19192218780517578125e-03) (3, 6.28831312060356140137e-02) (4, 8.35662409663200378418e-02) (5, -2.27022990584373474121e-02) (6, 3.65338400006294250488e-02) (0, -2.64955461025238037109e-02) (1, 8.15815851092338562012e-02) (2, 1.72657817602157592773e-02) (3, 2.53710225224494934082e-02) (4, 6.93778917193412780762e-02) (5, 4.39694002270698547363e-02) (6, -8.44827294349670410156e-03) (0, -4.37543205916881561279e-02) (1, -4.78064008057117462158e-02) (2, 8.96282419562339782715e-02) (3, -1.27270817756652832031e-04) (4, -5.72859495878219604492e-03) (5, 5.75764551758766174316e-02) (6, 3.44249680638313293457e-02) (0, -6.73702359199523925781e-02) (1, -2.83150896430015563965e-02) (2, 6.67675957083702087402e-02) (3, 9.60963293910026550293e-02) (4, 1.26165300607681274414e-02) (5, -9.73667576909065246582e-02) (6, 1.96495205163955688477e-02) (0, -4.73153777420520782471e-02) (1, -1.83925852179527282715e-02) (2, -1.58835202455520629883e-03) (3, -3.87895889580249786377e-02) (4, -9.39072445034980773926e-02) (5, 9.32197347283363342285e-02) (6, -7.59064704179763793945e-02) (0, 8.96589979529380798340e-02) (1, -2.94825732707977294922e-02) (2, 6.06273785233497619629e-02) (3, -3.68365496397018432617e-02) (4, -4.79009933769702911377e-02) (5, -2.21068412065505981445e-02) (6, 8.85344818234443664551e-02) (0, -7.85231068730354309082e-02) (1, -7.81374424695968627930e-02) (2, -1.99138000607490539551e-02) (3, -2.22774296998977661133e-02) (4, -2.59438380599021911621e-02) (5, -3.02855521440505981445e-02) (6, 7.75953009724617004395e-02) (0, 6.83275535702705383301e-02) (1, -7.27090984582901000977e-02) (2, 1.20202526450157165527e-02) (3, -9.90426689386367797852e-02) (4, -1.02419406175613403320e-03) (5, -2.12121456861495971680e-02) (6, 9.70536544919013977051e-02) (0, -8.84076654911041259766e-02) (1, -1.85789018869400024414e-02) (2, 1.67031735181808471680e-02) (3, -3.57230454683303833008e-02) (4, 6.30285069346427917480e-02) (5, -8.48851725459098815918e-02) (6, 2.54873707890510559082e-02) (0, 6.91212639212608337402e-02) (1, -9.16654467582702636719e-02) (2, 4.95808944106101989746e-02) (3, 5.87802603840827941895e-02) (4, -2.11480185389518737793e-02) (5, 1.02082714438438415527e-02) (6, -7.80562907457351684570e-02) (0, 3.09509858489036560059e-02) (1, 8.81014391779899597168e-02) (2, -8.95218104124069213867e-02) (3, 5.24278804659843444824e-02) (4, -9.00360047817230224609e-02) (5, -9.43560898303985595703e-03) (6, -6.98495507240295410156e-02) (0, -1.59798488020896911621e-02) (1, 6.02788403630256652832e-02) (2, -9.22542512416839599609e-02) (3, -4.76522855460643768311e-02) (4, 8.75697359442710876465e-02) (5, 1.97660103440284729004e-02) (6, -4.66949529945850372314e-02) (0, -1.34544521570205688477e-02) (1, 9.85538437962532043457e-02) (2, -4.96412925422191619873e-02) (3, -1.86211615800857543945e-03) (4, -2.00250595808029174805e-02) (5, 6.70618787407875061035e-02) (6, 6.24148324131965637207e-02) (7, -5.69965504109859466553e-02) (8, 8.21767076849937438965e-02) (9, -1.20977908372879028320e-02) (10, -8.78752842545509338379e-02) (11, 9.05112698674201965332e-02) (12, -6.25168979167938232422e-02) (13, 7.09049776196479797363e-02) (14, -3.06367576122283935547e-02) (15, 4.76913824677467346191e-02) (16, 9.28486958146095275879e-02) (17, -9.96857658028602600098e-02) (18, 3.57928201556205749512e-02) (19, -9.66731160879135131836e-02) (20, 5.27421161532402038574e-02) (21, 4.57568243145942687988e-02) (22, -6.10872358083724975586e-03) (23, 8.28925743699073791504e-02) (24, -7.02230334281921386719e-02) (25, -4.58298884332180023193e-02) (26, 9.06383171677589416504e-02) (27, -1.78753212094306945801e-02) (28, -5.82601465284824371338e-02) (29, 1.04043260216712951660e-02) (30, 3.54297235608100891113e-02) (31, 2.82854065299034118652e-02) (32, 8.95817577838897705078e-03) (33, 8.57884362339973449707e-02) (34, -7.35767111182212829590e-02) (35, 8.89331176877021789551e-02) (36, 5.28503134846687316895e-02) (37, 8.88381227850914001465e-02) (38, -6.80634230375289916992e-02) (39, 3.50270345807075500488e-02) (40, -2.32596620917320251465e-02) (41, -5.59387058019638061523e-02) (42, 2.55382880568504333496e-02) (43, 1.42234414815902709961e-02) (44, -8.50337222218513488770e-02) (45, 9.49015393853187561035e-02) (46, -3.80851738154888153076e-02) (47, -9.21850278973579406738e-02) (48, 9.52157750725746154785e-02) (49, 9.77076366543769836426e-02) (50, -8.88581499457359313965e-02) (51, 4.79578897356986999512e-02) (52, 4.34644594788551330566e-02) (53, 5.03312051296234130859e-03) (54, 3.08504626154899597168e-02) (55, 7.32414200901985168457e-02) (56, 5.92032447457313537598e-02) (57, 2.14887708425521850586e-02) (58, -4.46339026093482971191e-02) (59, -9.90568995475769042969e-02) (60, -6.81069046258926391602e-02) (61, 9.07958224415779113770e-02) (62, 2.92285159230232238770e-02) (63, 4.08512726426124572754e-02) (64, 7.65842571854591369629e-02) (65, 5.56517913937568664551e-02) (66, 2.97843888401985168457e-02) (67, 2.94345691800117492676e-02) (68, 4.44899275898933410645e-02) (69, 6.17209747433662414551e-02) (70, -3.55383977293968200684e-02) (71, -7.87697434425354003906e-02) (72, -9.42177474498748779297e-02) (73, 8.99998918175697326660e-02) (74, 3.54536995291709899902e-02) (75, -7.92514681816101074219e-02) (76, 8.49014148116111755371e-02) (77, 9.73685458302497863770e-02) (78, -7.14364945888519287109e-02) (79, 8.01171883940696716309e-02) (80, 9.50761809945106506348e-02) (81, -6.02946430444717407227e-02) (82, 2.80750766396522521973e-02) (83, 3.85406389832496643066e-02) (84, 4.47384789586067199707e-02) (85, -4.10744734108448028564e-02) (86, 1.17820650339126586914e-02) (87, 3.94172966480255126953e-03) (88, 8.04143026471138000488e-02) (89, 6.71481564640998840332e-02) (90, 4.88482415676116943359e-03) (91, -8.76926034688949584961e-02) (92, 5.79439774155616760254e-02) (93, -6.58866688609123229980e-02) (94, 5.31586632132530212402e-02) (95, 3.45282331109046936035e-02) (96, 8.97651240229606628418e-02) (97, -1.70569494366645812988e-02) (98, -3.60371917486190795898e-02) (99, 3.42550352215766906738e-02) (100, -5.53359836339950561523e-02) (101, 2.84244045615196228027e-02) (102, 5.54853007197380065918e-02) (103, -4.95537295937538146973e-02) (104, 1.84242948889732360840e-02) (105, -9.06099379062652587891e-03) (106, -2.88051962852478027344e-02) (107, 3.32571566104888916016e-03) (7, -1.16924569010734558105e-02) (8, -2.41696834564208984375e-04) (9, -1.65570974349975585938e-02) (10, -1.66162773966789245605e-02) (11, 3.94636616110801696777e-02) (12, -8.84820297360420227051e-02) (13, -7.80756399035453796387e-02) (14, -1.57978534698486328125e-02) (15, -2.95564979314804077148e-02) (16, 3.37064191699028015137e-02) (17, 8.81438776850700378418e-02) (18, -4.91422004997730255127e-02) (19, 8.54566693305969238281e-04) (20, -6.97129219770431518555e-03) (21, -3.68347987532615661621e-02) (22, -4.12014536559581756592e-02) (23, 2.71420404314994812012e-02) (24, -8.36761370301246643066e-02) (25, 9.33267846703529357910e-02) (26, 1.69071555137634277344e-02) (27, -7.33084976673126220703e-04) (28, -4.27104122936725616455e-02) (29, -4.88377995789051055908e-02) (30, 4.39309403300285339355e-02) (31, 8.57139900326728820801e-02) (32, -9.33524966239929199219e-02) (33, 9.43772122263908386230e-02) (34, 4.13829088211059570312e-03) (35, -2.41348892450332641602e-03) (36, -3.44279929995536804199e-02) (37, -9.25359949469566345215e-02) (38, 8.58940556645393371582e-02) (39, 6.53303042054176330566e-02) (40, -9.09309089183807373047e-03) (41, -3.07222232222557067871e-02) (42, 4.79396432638168334961e-03) (43, 2.42488086223602294922e-03) (44, -8.79786908626556396484e-03) (45, 8.89961197972297668457e-02) (46, 7.28683844208717346191e-02) (47, -7.50914514064788818359e-02) (48, 7.71399810910224914551e-02) (49, -7.62738138437271118164e-02) (50, 2.57631167769432067871e-02) (51, -2.98313051462173461914e-02) (52, -1.31086185574531555176e-02) (53, 8.45616683363914489746e-02) (54, 9.73107293248176574707e-02) (55, 3.21523845195770263672e-03) (56, 7.78884366154670715332e-02) (57, 1.42178907990455627441e-02) (58, -9.75178405642509460449e-02) (59, -6.48219585418701171875e-02) (60, 6.53801038861274719238e-02) (61, 4.64131012558937072754e-02) (62, -7.91079625487327575684e-02) (63, 7.20276013016700744629e-02) (64, 4.07902970910072326660e-02) (65, 2.50303223729133605957e-02) (66, -3.03858891129493713379e-02) (67, -9.36376973986625671387e-02) (68, 3.24943438172340393066e-02) (69, -4.44918349385261535645e-02) (70, 7.16926082968711853027e-02) (71, -7.65987485647201538086e-02) (72, 2.47859507799148559570e-02) (73, -2.35134214162826538086e-02) (74, 2.58261337876319885254e-02) (75, -8.40119197964668273926e-02) (76, -3.45173031091690063477e-02) (77, -1.30548328161239624023e-03) (78, -5.91033734381198883057e-02) (79, -5.73773197829723358154e-02) (80, 2.24206894636154174805e-02) (81, 6.66597560048103332520e-02) (82, 1.27913802862167358398e-02) (83, -9.06879231333732604980e-02) (84, 5.12214079499244689941e-02) (85, 1.01021081209182739258e-02) (86, 1.25273242592811584473e-02) (87, 2.91098579764366149902e-02) (88, -7.56800025701522827148e-02) (89, 1.50094851851463317871e-02) (90, 6.42879083752632141113e-02) (91, 8.97000953555107116699e-02) (92, -3.85774150490760803223e-02) (93, 8.51799324154853820801e-02) (94, 6.17276951670646667480e-02) (95, -9.77871194481849670410e-02) (96, 1.02102607488632202148e-02) (97, -6.86581879854202270508e-02) (98, -9.14248153567314147949e-02) (99, -5.72953931987285614014e-02) (100, -1.31500214338302612305e-02) (101, 8.02677944302558898926e-02) (102, -3.38941439986228942871e-02) (103, -8.83640795946121215820e-02) (104, -4.32456247508525848389e-02) (105, 9.19319912791252136230e-02) (106, -7.23759979009628295898e-02) (107, 2.22370624542236328125e-02) (7, -9.37350094318389892578e-03) (8, -3.14793735742568969727e-02) (9, 6.48597553372383117676e-02) (10, -8.69528055191040039062e-02) (11, -6.48196265101432800293e-02) (12, -2.23488733172416687012e-02) (13, -7.76407271623611450195e-02) (14, 8.64017829298973083496e-02) (15, 8.77532437443733215332e-02) (16, 3.48866060376167297363e-02) (17, 1.55116468667984008789e-02) (18, -8.79267603158950805664e-02) (19, -5.01039139926433563232e-02) (20, -2.02004611492156982422e-02) (21, -9.82266664505004882812e-02) (22, 1.13186687231063842773e-02) (23, -3.50205302238464355469e-02) (24, 6.35010227560997009277e-02) (25, 1.35315507650375366211e-02) (26, 7.51897320151329040527e-02) (27, 9.48428437113761901855e-02) (28, 2.21067443490028381348e-02) (29, -8.21056589484214782715e-02) (30, -1.83071866631507873535e-02) (31, 2.37454473972320556641e-03) (32, -1.59998089075088500977e-02) (33, -6.67126476764678955078e-03) (34, 5.91289177536964416504e-02) (35, -2.40678191184997558594e-02) (36, 2.09527388215065002441e-02) (37, -1.86340212821960449219e-02) (38, 6.65586814284324645996e-02) (39, 8.94733741879463195801e-02) (40, -5.37742748856544494629e-02) (41, 7.96058699488639831543e-02) (42, -7.53462612628936767578e-02) (43, 2.38768607378005981445e-02) (44, -9.80348587036132812500e-02) (45, -8.89444798231124877930e-02) (46, 1.16300955414772033691e-02) (47, 3.68517413735389709473e-02) (48, 2.65671685338020324707e-02) (49, 2.37033218145370483398e-02) (50, 8.67478325963020324707e-02) (51, -9.36333015561103820801e-02) (52, 2.54766568541526794434e-02) (53, -1.93350762128829956055e-03) (54, -2.86538228392601013184e-02) (55, -1.10223069787025451660e-02) (56, -8.84019583463668823242e-02) (57, -5.34640923142433166504e-02) (58, -1.61794647574424743652e-02) (59, 3.37047800421714782715e-02) (60, -3.55697423219680786133e-02) (61, 6.55133500695228576660e-02) (62, -6.39206767082214355469e-02) (63, 4.84304502606391906738e-02) (64, -4.11579199135303497314e-02) (65, 9.52082350850105285645e-02) (66, -7.56373703479766845703e-02) (67, 7.97948166728019714355e-02) (68, -2.34257876873016357422e-02) (69, 9.09213051199913024902e-02) (70, 6.92681744694709777832e-02) (71, 2.27999463677406311035e-02) (72, 7.05271884799003601074e-02) (73, 9.39219072461128234863e-02) (74, -5.33232055604457855225e-02) (75, 7.24923238158226013184e-02) (76, -9.50225666165351867676e-02) (77, 5.83068802952766418457e-02) (78, 9.34406369924545288086e-03) (79, 3.15445885062217712402e-02) (80, -1.79897919297218322754e-02) (81, -3.90811264514923095703e-03) (82, 3.79113033413887023926e-02) (83, -9.25131291151046752930e-02) (84, 9.41583737730979919434e-02) (85, -9.07425284385681152344e-02) (86, -3.53543460369110107422e-03) (87, -9.42435786128044128418e-02) (88, -4.42066192626953125000e-02) (89, 8.02850946784019470215e-02) (90, 3.94612029194831848145e-02) (91, 2.02236324548721313477e-02) (92, 4.57984432578086853027e-02) (93, 7.55405351519584655762e-02) (94, -3.13459187746047973633e-02) (95, -9.53594744205474853516e-02) (96, 7.07487687468528747559e-02) (97, -6.98328763246536254883e-03) (98, 8.44353511929512023926e-02) (99, -5.26770167052745819092e-02) (100, -1.60619765520095825195e-02) (101, 5.37035241723060607910e-02) (102, 7.01229199767112731934e-02) (103, -4.55348007380962371826e-02) (104, 4.76254299283027648926e-02) (105, -8.32002833485603332520e-02) (106, -7.30424746870994567871e-02) (107, 5.26028648018836975098e-02) (7, 7.51065984368324279785e-02) (8, 3.63015905022621154785e-02) (9, -1.58525481820106506348e-02) (10, -4.28831949830055236816e-02) (11, -6.76065310835838317871e-02) (12, -7.79412463307380676270e-02) (13, -3.53963151574134826660e-02) (14, -7.34481513500213623047e-02) (15, -6.86837807297706604004e-02) (16, 6.10682442784309387207e-02) (17, -6.76917284727096557617e-02) (18, -1.28903985023498535156e-02) (19, 4.13533523678779602051e-02) (20, 7.17694833874702453613e-02) (21, -9.26667675375938415527e-02) (22, -1.28482058644294738770e-02) (23, 4.73100170493125915527e-02) (24, -2.40126773715019226074e-02) (25, -8.20767879486083984375e-03) (26, 1.80587917566299438477e-02) (27, 6.90040364861488342285e-02) (28, -2.37723439931869506836e-02) (29, 6.53817728161811828613e-02) (30, -4.70579527318477630615e-02) (31, -7.00688213109970092773e-02) (32, 3.55047062039375305176e-02) (33, 7.40724802017211914062e-03) (34, 7.75566175580024719238e-02) (35, 5.23044094443321228027e-02) (36, 3.43647673726081848145e-02) (37, 3.01594659686088562012e-02) (38, 2.74110063910484313965e-02) (39, -2.93336361646652221680e-02) (40, -8.56930762529373168945e-02) (41, 8.45278128981590270996e-02) (42, 3.05982679128646850586e-03) (43, -6.36343285441398620605e-02) (44, -5.08685000240802764893e-02) (45, 2.96116843819618225098e-02) (46, -3.23181003332138061523e-02) (47, -8.98002535104751586914e-02) (48, 6.19199499487876892090e-02) (49, 5.47915026545524597168e-02) (50, 5.15530928969383239746e-02) (51, 3.36894467473030090332e-02) (52, 6.21247366070747375488e-02) (53, -6.12951070070266723633e-02) (54, -1.90005376935005187988e-02) (55, -6.18879459798336029053e-02) (56, 3.04972156882286071777e-02) (57, 9.90582630038261413574e-02) (58, -9.28839147090911865234e-02) (59, -9.32751297950744628906e-02) (60, 6.44400194287300109863e-02) (61, -3.99418659508228302002e-02) (62, -6.33439570665359497070e-02) (63, -5.52758574485778808594e-05) (64, 6.74653872847557067871e-02) (65, -8.57873484492301940918e-02) (66, -4.77508679032325744629e-02) (67, 1.83016061782836914062e-03) (68, 4.43721190094947814941e-02) (69, 7.96601399779319763184e-02) (70, 7.24965259432792663574e-02) (71, 5.86790516972541809082e-02) (72, 6.41879513859748840332e-02) (73, -2.44436487555503845215e-02) (74, 9.50447246432304382324e-02) (75, -8.66805464029312133789e-02) (76, -9.48319733142852783203e-02) (77, -3.72733846306800842285e-02) (78, -7.64807984232902526855e-02) (79, 6.70879855751991271973e-02) (80, -8.24818909168243408203e-02) (81, 7.50722959637641906738e-02) (82, 7.77423381805419921875e-04) (83, 7.96428397297859191895e-02) (84, -8.62228050827980041504e-02) (85, 8.17768946290016174316e-02) (86, -8.22450965642929077148e-02) (87, 4.42744120955467224121e-02) (88, 8.08351412415504455566e-02) (89, -7.51290172338485717773e-02) (90, 5.09992912411689758301e-02) (91, 4.52751740813255310059e-02) (92, -1.50708779692649841309e-02) (93, 8.76553282141685485840e-02) (94, -5.47801069915294647217e-02) (95, -4.76054921746253967285e-02) (96, -9.81320217251777648926e-02) (97, -2.53097712993621826172e-03) (98, 5.42246773838996887207e-02) (99, 4.62400987744331359863e-02) (100, -2.28708311915397644043e-02) (101, 2.67211869359016418457e-02) (102, 4.91914898157119750977e-03) (103, -5.86828775703907012939e-02) (104, -9.77224707603454589844e-02) (105, -3.61353158950805664062e-05) (106, -4.53634224832057952881e-02) (107, -9.25544351339340209961e-02) (7, 6.26904740929603576660e-02) (8, -2.18442231416702270508e-02) (9, 7.45335444808006286621e-02) (10, 8.02085921168327331543e-02) (11, -4.67719137668609619141e-02) (12, -2.46890336275100708008e-02) (13, 5.98514452576637268066e-02) (14, -3.29947173595428466797e-02) (15, -4.29121367633342742920e-02) (16, 7.76063427329063415527e-02) (17, -8.87203067541122436523e-02) (18, -6.20769970118999481201e-02) (19, -9.75226685404777526855e-02) (20, 6.22789785265922546387e-02) (21, 8.31981822848320007324e-02) (22, -1.25935450196266174316e-02) (23, 4.99343052506446838379e-02) (24, -7.15819224715232849121e-02) (25, 3.98009642958641052246e-02) (26, 5.18022850155830383301e-02) (27, 2.58871093392372131348e-02) (28, -5.97436726093292236328e-03) (29, -1.95761024951934814453e-03) (30, -9.69837307929992675781e-02) (31, -7.92531818151473999023e-02) (32, -9.70384627580642700195e-02) (33, -5.56666068732738494873e-02) (34, -7.69756436347961425781e-02) (35, 2.92539596557617187500e-03) (36, -1.03002786636352539062e-03) (37, -6.95300847291946411133e-02) (38, -3.43841165304183959961e-02) (39, 7.71257504820823669434e-02) (40, -9.49965417385101318359e-02) (41, -5.41755296289920806885e-02) (42, -6.96461573243141174316e-02) (43, -1.96855664253234863281e-02) (44, -9.43240895867347717285e-02) (45, -2.64087319374084472656e-03) (46, 3.74022945761680603027e-02) (47, 8.32822546362876892090e-02) (48, 8.63882154226303100586e-03) (49, 7.53253027796745300293e-02) (50, 8.57595875859260559082e-02) (51, -2.90822088718414306641e-02) (52, 5.85234835743904113770e-02) (53, -2.68339589238166809082e-02) (54, -7.91479051113128662109e-02) (55, 8.69415476918220520020e-02) (56, -8.70329961180686950684e-02) (57, 7.26543739438056945801e-02) (58, 1.28286629915237426758e-02) (59, 6.99263811111450195312e-03) (60, -2.93032377958297729492e-02) (61, 1.58449262380599975586e-02) (62, 2.77394577860832214355e-02) (63, -2.63416990637779235840e-02) (64, 6.01783320307731628418e-02) (65, 5.07638081908226013184e-02) (66, 7.65837058424949645996e-02) (67, -4.08517010509967803955e-02) (68, 8.12337324023246765137e-02) (69, -5.78004233539104461670e-02) (70, -6.37259483337402343750e-02) (71, 8.62371996045112609863e-02) (72, -1.19759514927864074707e-02) (73, -3.33721041679382324219e-02) (74, -3.34483832120895385742e-02) (75, -6.30003958940505981445e-03) (76, 6.39870241284370422363e-02) (77, -9.60460901260375976562e-02) (78, -2.30177789926528930664e-02) (79, -2.73741632699966430664e-02) (80, 7.92792066931724548340e-02) (81, -3.72581928968429565430e-02) (82, 4.35436442494392395020e-02) (83, 3.78027036786079406738e-02) (84, 3.59078571200370788574e-02) (85, 6.43957331776618957520e-02) (86, 2.47442498803138732910e-02) (87, 4.88748624920845031738e-02) (88, 3.70501056313514709473e-02) (89, -6.24270960688591003418e-02) (90, -4.41325083374977111816e-02) (91, -9.22531336545944213867e-02) (92, 5.34178391098976135254e-02) (93, 8.36069509387016296387e-02) (94, -1.85948312282562255859e-02) (95, 1.35961621999740600586e-02) (96, 3.43707725405693054199e-02) (97, -4.20111306011676788330e-02) (98, 7.27444663643836975098e-02) (99, 1.56044811010360717773e-02) (100, 1.88447535037994384766e-04) (101, -9.09814834594726562500e-02) (102, 1.84167921543121337891e-03) (103, 8.82124975323677062988e-02) (104, -2.43535861372947692871e-02) (105, 6.83932974934577941895e-02) (106, -1.80875360965728759766e-02) (107, -6.03665634989738464355e-02) (7, 7.23472163081169128418e-02) (8, 5.88946864008903503418e-02) (9, 1.22592821717262268066e-02) (10, 5.16264215111732482910e-02) (11, -7.83635154366493225098e-02) (12, -4.41970899701118469238e-02) (13, -1.05708837509155273438e-02) (14, 5.75443282723426818848e-02) (15, -7.98013657331466674805e-02) (16, -8.58266428112983703613e-02) (17, 6.41919672489166259766e-03) (18, 5.72487339377403259277e-02) (19, -4.82537336647510528564e-02) (20, 6.22866824269294738770e-02) (21, 6.49955943226814270020e-02) (22, -9.48358997702598571777e-02) (23, 4.58936318755149841309e-02) (24, -5.35992309451103210449e-02) (25, 1.87602639198303222656e-02) (26, -1.97356045246124267578e-02) (27, 4.38964366912841796875e-03) (28, -8.49527120590209960938e-03) (29, 9.58688929677009582520e-02) (30, -9.54219102859497070312e-02) (31, 5.23246824741363525391e-04) (32, -2.28943675756454467773e-03) (33, 9.27905961871147155762e-02) (34, 7.61696621775627136230e-02) (35, -3.38961407542228698730e-02) (36, -2.52969488501548767090e-02) (37, -8.41969028115272521973e-02) (38, -6.15489333868026733398e-02) (39, -6.64022713899612426758e-02) (40, 2.80623808503150939941e-02) (41, 9.00774970650672912598e-02) (42, -4.47657890617847442627e-02) (43, 8.38652923703193664551e-02) (44, -2.04933956265449523926e-02) (45, -8.72214585542678833008e-02) (46, -9.59360823035240173340e-02) (47, -6.32003694772720336914e-03) (48, 1.91977396607398986816e-02) (49, 6.13126531243324279785e-02) (50, 4.54262420535087585449e-02) (51, -1.85155794024467468262e-02) (52, 2.63082459568977355957e-02) (53, 5.05903437733650207520e-02) (54, -7.26219490170478820801e-02) (55, 7.27090314030647277832e-02) (56, -3.06493937969207763672e-02) (57, 7.64244794845581054688e-03) (58, -2.29013413190841674805e-02) (59, 6.08553364872932434082e-02) (60, 3.51133197546005249023e-03) (61, -1.83232426643371582031e-02) (62, -3.86214256286621093750e-02) (63, -9.87781062722206115723e-02) (64, -2.55326554179191589355e-02) (65, -6.24517649412155151367e-02) (66, -3.26742455363273620605e-02) (67, 4.91703972220420837402e-02) (68, -4.66486699879169464111e-02) (69, 5.77682256698608398438e-03) (70, 8.27681347727775573730e-02) (71, 8.14137086272239685059e-02) (72, -4.14569675922393798828e-03) (73, -6.19976632297039031982e-02) (74, 6.52789995074272155762e-02) (75, 7.53609165549278259277e-02) (76, -4.92191128432750701904e-02) (77, 6.93429186940193176270e-02) (78, -3.09591144323348999023e-02) (79, 6.99786171317100524902e-02) (80, 3.06555703282356262207e-02) (81, -8.55328887701034545898e-02) (82, -4.85369637608528137207e-02) (83, -4.30361889302730560303e-02) (84, 6.50574639439582824707e-02) (85, -2.11589112877845764160e-02) (86, -7.03271627426147460938e-02) (87, -6.55919462442398071289e-02) (88, 8.64835456013679504395e-02) (89, 6.77150487899780273438e-03) (90, 9.52633842825889587402e-02) (91, -1.00051313638687133789e-02) (92, 8.84482488036155700684e-02) (93, -4.33580353856086730957e-02) (94, -8.78323614597320556641e-03) (95, -3.70844006538391113281e-02) (96, -5.80979883670806884766e-03) (97, 5.85425123572349548340e-02) (98, -8.79140049219131469727e-02) (99, 4.75415363907814025879e-02) (100, -3.56806665658950805664e-02) (101, 9.48541238903999328613e-02) (102, 2.89552435278892517090e-02) (103, 6.01736381649971008301e-02) (104, -6.71435445547103881836e-02) (105, -5.76576590538024902344e-03) (106, 3.55345532298088073730e-02) (107, -1.63626521825790405273e-02) (7, -3.64228636026382446289e-02) (8, -9.54245701432228088379e-02) (9, -4.63840365409851074219e-02) (10, 9.42327007651329040527e-02) (11, -8.09574499726295471191e-02) (12, 5.07899373769760131836e-03) (13, -4.88034896552562713623e-02) (14, 8.41000005602836608887e-02) (15, 8.39200839400291442871e-02) (16, -1.91306546330451965332e-02) (17, -8.14919397234916687012e-02) (18, 7.04036280512809753418e-02) (19, 8.76408442854881286621e-02) (20, -8.62285569310188293457e-02) (21, -3.96015048027038574219e-02) (22, 7.60890915989875793457e-02) (23, -2.95865833759307861328e-02) (24, 5.16152605414390563965e-02) (25, -6.09953030943870544434e-02) (26, 6.46036192774772644043e-02) (27, 1.01577788591384887695e-02) (28, -4.89093065261840820312e-02) (29, 1.21451467275619506836e-02) (30, 7.44771137833595275879e-02) (31, -5.40551878511905670166e-02) (32, -5.88996075093746185303e-02) (33, 3.46507504582405090332e-02) (34, -2.11987346410751342773e-02) (35, 3.53346243500709533691e-02) (36, -2.98146978020668029785e-02) (37, 6.24386146664619445801e-02) (38, 9.89117696881294250488e-02) (39, -2.52392590045928955078e-02) (40, -8.39454233646392822266e-02) (41, 9.31444689631462097168e-02) (42, -6.19671493768692016602e-03) (43, 2.11335793137550354004e-02) (44, -5.56590259075164794922e-02) (45, -2.20967084169387817383e-02) (46, 5.05367666482925415039e-03) (47, 2.52103284001350402832e-02) (48, -3.58865410089492797852e-03) (49, -2.45427042245864868164e-02) (50, 1.28511637449264526367e-02) (51, 1.01827979087829589844e-02) (52, 3.58557924628257751465e-02) (53, -1.10597386956214904785e-02) (54, 8.05962160229682922363e-02) (55, -1.25289410352706909180e-02) (56, 2.79449597001075744629e-02) (57, 4.51998189091682434082e-02) (58, 9.76288393139839172363e-02) (59, 7.90356472134590148926e-02) (60, -4.26550209522247314453e-02) (61, 7.21059516072273254395e-02) (62, -7.50195309519767761230e-02) (63, -1.55462324619293212891e-03) (64, 6.75670057535171508789e-03) (65, 3.78173589706420898438e-03) (66, -6.62200003862380981445e-02) (67, 7.69420042634010314941e-02) (68, -3.37796434760093688965e-02) (69, -6.73082321882247924805e-02) (70, -4.82972562313079833984e-02) (71, -1.77250653505325317383e-02) (72, -7.41637721657752990723e-02) (73, 4.55060228705406188965e-02) (74, -9.65914875268936157227e-02) (75, -2.98227965831756591797e-02) (76, -7.65906870365142822266e-02) (77, 8.46217572689056396484e-03) (78, 9.53875258564949035645e-02) (79, 1.98206678032875061035e-02) (80, 8.39194729924201965332e-02) (81, 8.23868811130523681641e-03) (82, -6.99965357780456542969e-02) (83, 1.97752714157104492188e-02) (84, 9.71789583563804626465e-02) (85, -8.94003361463546752930e-02) (86, -9.27536711096763610840e-02) (87, 2.51239165663719177246e-02) (88, 5.57994917035102844238e-02) (89, -9.51248407363891601562e-02) (90, 4.15956974029541015625e-03) (91, -8.68555307388305664062e-02) (92, 7.69811049103736877441e-02) (93, 2.91400477290153503418e-02) (94, 1.15898475050926208496e-02) (95, -1.62621960043907165527e-02) (96, -6.70782178640365600586e-02) (97, 4.53698411583900451660e-02) (98, -3.93201969563961029053e-02) (99, -8.57867300510406494141e-04) (100, 7.80616030097007751465e-02) (101, 1.23825445771217346191e-02) (102, 8.14170762896537780762e-02) (103, -9.61021631956100463867e-02) (104, -4.21114228665828704834e-02) (105, 8.48255828022956848145e-02) (106, -2.59249657392501831055e-02) (107, -1.87021046876907348633e-02) (7, -6.71223551034927368164e-03) (8, -3.05374413728713989258e-02) (9, -9.88814383745193481445e-02) (10, -2.27927491068840026855e-02) (11, 7.77012482285499572754e-02) (12, -6.88779801130294799805e-02) (13, 9.69825312495231628418e-02) (14, 7.48802050948143005371e-02) (15, -5.82783110439777374268e-02) (16, -9.57711488008499145508e-02) (17, 4.12762165069580078125e-06) (18, 9.75211933255195617676e-02) (19, -9.08959880471229553223e-02) (20, -9.58362966775894165039e-02) (21, -8.93343463540077209473e-02) (22, 8.60851183533668518066e-02) (23, 3.33037450909614562988e-02) (24, 2.22555026412010192871e-02) (25, -3.01770791411399841309e-02) (26, 6.62255361676216125488e-02) (27, -3.23746576905250549316e-02) (28, 3.05027291178703308105e-02) (29, -3.46323400735855102539e-02) (30, -5.43130487203598022461e-02) (31, -5.71147315204143524170e-02) (32, -5.32152652740478515625e-02) (33, -5.04152141511440277100e-02) (34, 7.73847103118896484375e-04) (35, -6.83896839618682861328e-02) (36, 2.36598253250122070312e-02) (37, 8.20717290043830871582e-02) (38, 2.48980894684791564941e-02) (39, 9.31223854422569274902e-02) (40, 8.31902995705604553223e-02) (41, -9.78946685791015625000e-02) (42, 7.08236321806907653809e-02) (43, -8.56876820325851440430e-02) (44, 9.90878567099571228027e-02) (45, 4.57038357853889465332e-02) (46, -4.39659953117370605469e-02) (47, -9.66833010315895080566e-02) (48, -5.42920306324958801270e-02) (49, -4.64448109269142150879e-02) (50, -8.75792875885963439941e-02) (51, -5.01283258199691772461e-02) (52, -3.57791557908058166504e-02) (53, 9.85058322548866271973e-02) (54, 8.31754282116889953613e-02) (55, 8.64763483405113220215e-02) (56, -3.16712558269500732422e-02) (57, 4.94009479880332946777e-02) (58, -4.58983071148395538330e-02) (59, 9.88314673304557800293e-02) (60, -8.52313861250877380371e-02) (61, -2.11358070373535156250e-04) (62, -5.82832656800746917725e-02) (63, -3.84466536343097686768e-02) (64, 4.93734255433082580566e-02) (65, 4.24905791878700256348e-02) (66, -6.83633983135223388672e-03) (67, -2.69667431712150573730e-02) (68, 2.45623216032981872559e-02) (69, -8.19382518529891967773e-02) (70, -3.38443592190742492676e-02) (71, 7.75261968374252319336e-03) (72, -7.98329114913940429688e-02) (73, -6.30207210779190063477e-02) (74, 2.20649391412734985352e-02) (75, -8.07450637221336364746e-02) (76, 8.26831236481666564941e-02) (77, 7.80989453196525573730e-02) (78, -7.74283558130264282227e-02) (79, -7.16089010238647460938e-02) (80, -6.83458670973777770996e-02) (81, -6.50076419115066528320e-02) (82, -2.17372328042984008789e-02) (83, -4.12501394748687744141e-03) (84, -6.65018111467361450195e-02) (85, -3.85618098080158233643e-02) (86, -1.76486745476722717285e-02) (87, 1.82692706584930419922e-03) (88, -8.91608595848083496094e-02) (89, 3.64530161023139953613e-02) (90, 6.58407807350158691406e-04) (91, -7.43922516703605651855e-02) (92, -6.37583434581756591797e-02) (93, 4.23751398921012878418e-02) (94, -1.28389000892639160156e-02) (95, 8.56150910258293151855e-02) (96, -1.51342824101448059082e-02) (97, 8.03247764706611633301e-02) (98, -4.13516536355018615723e-02) (99, -9.05719622969627380371e-02) (100, 9.83865186572074890137e-02) (101, 2.48039811849594116211e-02) (102, 1.71806588768959045410e-02) (103, -8.14464017748832702637e-02) (104, 6.17832615971565246582e-02) (105, -6.07544034719467163086e-02) (106, -6.21914602816104888916e-02) (107, 4.44663837552070617676e-02) (7, -8.26554596424102783203e-02) (8, -3.96198146045207977295e-02) (9, 7.28574916720390319824e-02) (10, -5.10013252496719360352e-02) (11, -4.62745875120162963867e-03) (12, -4.88797426223754882812e-02) (13, 4.48736622929573059082e-02) (14, 2.88707241415977478027e-02) (15, 1.25584453344345092773e-02) (16, -7.27750211954116821289e-02) (17, -6.93023428320884704590e-02) (18, 2.33975872397422790527e-02) (19, 6.36780038475990295410e-02) (20, 3.13560590147972106934e-02) (21, 4.90053370594978332520e-02) (22, 9.99196693301200866699e-02) (23, -2.62688025832176208496e-02) (24, -6.38335645198822021484e-02) (25, 8.55347588658332824707e-02) (26, 5.85969164967536926270e-02) (27, -8.35087969899177551270e-02) (28, -5.58168999850749969482e-02) (29, 6.80249556899070739746e-02) (30, -8.51222872734069824219e-02) (31, 6.89870789647102355957e-02) (32, -1.47943943738937377930e-02) (33, -6.65686875581741333008e-02) (34, 3.07703539729118347168e-02) (35, 2.44512110948562622070e-02) (36, -2.87601426243782043457e-02) (37, -2.47632563114166259766e-02) (38, 4.17957380414009094238e-02) (39, 3.16200330853462219238e-02) (40, -5.19057735800743103027e-02) (41, 9.07944217324256896973e-02) (42, -7.30074197053909301758e-02) (43, -7.85514712333679199219e-04) (44, 3.56680825352668762207e-02) (45, 5.58633133769035339355e-02) (46, -8.82270634174346923828e-02) (47, 6.28930553793907165527e-02) (48, 8.65609720349311828613e-02) (49, 3.51705327630043029785e-02) (50, 2.65710577368736267090e-02) (51, 1.79170221090316772461e-02) (52, -1.58241316676139831543e-02) (53, 2.64907255768775939941e-02) (54, 9.16482284665107727051e-02) (55, 2.03423053026199340820e-02) (56, 1.20254755020141601562e-02) (57, 5.02451285719871520996e-02) (58, 3.68335023522377014160e-02) (59, 5.62085881829261779785e-02) (60, 1.82700902223587036133e-02) (61, 5.17112240195274353027e-02) (62, 2.51956656575202941895e-02) (63, -9.65243130922317504883e-02) (64, 8.51425454020500183105e-02) (65, -4.40339818596839904785e-02) (66, 2.79268994927406311035e-02) (67, -4.36176061630249023438e-02) (68, 3.12027558684349060059e-02) (69, -3.02773565053939819336e-02) (70, 8.80024358630180358887e-02) (71, 7.92969986796379089355e-02) (72, -3.94829399883747100830e-02) (73, -8.50049853324890136719e-02) (74, -2.14885175228118896484e-02) (75, 9.61851403117179870605e-02) (76, 7.08583220839500427246e-02) (77, -9.71557945013046264648e-03) (78, 5.90781942009925842285e-02) (79, 5.74192777276039123535e-02) (80, -7.45450556278228759766e-02) (81, -1.43507421016693115234e-02) (82, -2.46637016534805297852e-02) (83, 9.63081419467926025391e-03) (84, -8.78600180149078369141e-02) (85, -3.30154821276664733887e-02) (86, -7.00268894433975219727e-02) (87, 2.41654664278030395508e-02) (88, -8.27703550457954406738e-02) (89, 6.68066218495368957520e-02) (90, -1.96259468793869018555e-02) (91, 3.54997292160987854004e-02) (92, 1.85178369283676147461e-02) (93, -9.44302827119827270508e-02) (94, 3.89754250645637512207e-02) (95, 3.66038084030151367188e-03) (96, -3.84642593562602996826e-02) (97, -3.30976769328117370605e-02) (98, 6.00427761673927307129e-02) (99, 9.27385017275810241699e-02) (100, 3.66249606013298034668e-02) (101, 4.80452254414558410645e-02) (102, 7.20354989171028137207e-02) (103, 9.71420332789421081543e-02) (104, 6.30402341485023498535e-02) (105, -4.94530275464057922363e-02) (106, 9.33271721005439758301e-02) (107, 3.38985398411750793457e-02) (7, 4.08313944935798645020e-02) (8, 5.24053648114204406738e-02) (9, -8.68217647075653076172e-03) (10, 6.62863329052925109863e-02) (11, -6.19453787803649902344e-02) (12, 6.66541233658790588379e-02) (13, -2.40828543901443481445e-02) (14, -4.98053915798664093018e-02) (15, -6.63613528013229370117e-02) (16, 5.89026510715484619141e-03) (17, 7.43600800633430480957e-02) (18, -4.91317026317119598389e-02) (19, -2.73031219840049743652e-02) (20, -4.52658794820308685303e-02) (21, 8.63680317997932434082e-02) (22, 9.12147238850593566895e-02) (23, -3.96961644291877746582e-02) (24, 2.53434404730796813965e-02) (25, -5.12489676475524902344e-03) (26, 2.18395814299583435059e-02) (27, 9.22457650303840637207e-02) (28, -4.50821183621883392334e-02) (29, 1.45780816674232482910e-02) (30, 2.88707241415977478027e-02) (31, -9.70369055867195129395e-02) (32, -1.33864283561706542969e-02) (33, 2.60127559304237365723e-02) (34, 6.60033300518989562988e-02) (35, 3.71605530381202697754e-02) (36, 1.93399190902709960938e-02) (37, -9.81315970420837402344e-05) (38, -2.20080614089965820312e-02) (39, -2.82547250390052795410e-02) (40, 9.12197008728981018066e-02) (41, -5.57217262685298919678e-02) (42, 9.79989767074584960938e-03) (43, 5.78738227486610412598e-02) (44, 2.01954245567321777344e-02) (45, 5.99945113062858581543e-02) (46, 9.15124639868736267090e-02) (47, -7.39143192768096923828e-02) (48, 3.43545749783515930176e-02) (49, -5.76192401349544525146e-02) (50, -1.21743977069854736328e-03) (51, 8.90887007117271423340e-02) (52, -7.12512135505676269531e-02) (53, -1.00027173757553100586e-02) (54, -5.06074614822864532471e-02) (55, 5.40922358632087707520e-02) (56, 8.48723873496055603027e-02) (57, 7.12321177124977111816e-02) (58, 4.63379994034767150879e-02) (59, -6.02097325026988983154e-02) (60, -1.41898021101951599121e-02) (61, -2.47912779450416564941e-02) (62, -5.72466365993022918701e-02) (63, 7.24237635731697082520e-02) (64, -9.87785309553146362305e-02) (65, -9.12433117628097534180e-02) (66, 9.58432257175445556641e-03) (67, 2.05613821744918823242e-02) (68, 8.65856558084487915039e-03) (69, 8.75762626528739929199e-02) (70, 9.23066660761833190918e-02) (71, -1.21749937534332275391e-04) (72, -6.81454688310623168945e-02) (73, 2.10656970739364624023e-03) (74, -4.22479286789894104004e-02) (75, 5.20499572157859802246e-02) (76, -3.78989279270172119141e-02) (77, -5.07354587316513061523e-02) (78, 7.81356468796730041504e-02) (79, 9.64556559920310974121e-02) (80, -8.35470110177993774414e-03) (81, -2.30817943811416625977e-02) (82, 8.55443552136421203613e-02) (83, 2.03940868377685546875e-02) (84, 6.69154897332191467285e-02) (85, -6.50631040334701538086e-02) (86, -2.55136787891387939453e-02) (87, 5.17878755927085876465e-02) (88, -9.38309878110885620117e-02) (89, -7.91756883263587951660e-02) (90, 9.15781483054161071777e-02) (91, -8.02079588174819946289e-03) (92, -3.96696478128433227539e-03) (93, -6.56684935092926025391e-02) (94, -3.55970188975334167480e-02) (95, -2.74549424648284912109e-03) (96, -5.69118000566959381104e-02) (97, 7.39873126149177551270e-02) (98, -8.21841061115264892578e-02) (99, 5.17467632889747619629e-02) (100, 6.15635588765144348145e-02) (101, -8.98774340748786926270e-02) (102, -4.83749881386756896973e-02) (103, 9.34180989861488342285e-02) (104, 1.22291296720504760742e-02) (105, 9.37708467245101928711e-03) (106, 4.54680547118186950684e-02) (107, 7.43302181363105773926e-02) (7, 5.86416199803352355957e-02) (8, 2.36037001013755798340e-02) (9, 7.07858577370643615723e-02) (10, -4.97130714356899261475e-02) (11, -9.94780957698822021484e-02) (12, 5.63302114605903625488e-02) (13, 7.06810280680656433105e-02) (14, 6.74374029040336608887e-02) (15, 9.12671163678169250488e-02) (16, -5.48326633870601654053e-02) (17, 1.92252770066261291504e-02) (18, 9.74361225962638854980e-02) (19, -3.40083464980125427246e-02) (20, 1.08034163713455200195e-02) (21, -1.05846747756004333496e-02) (22, 6.20246902108192443848e-02) (23, 4.51349243521690368652e-02) (24, 5.38183078169822692871e-02) (25, -4.07208092510700225830e-02) (26, 8.82231220602989196777e-02) (27, 2.78056040406227111816e-02) (28, -2.29049101471900939941e-02) (29, 3.99698838591575622559e-02) (30, -1.06308311223983764648e-02) (31, -1.27823501825332641602e-02) (32, 9.15948972105979919434e-02) (33, -1.72127336263656616211e-02) (34, 9.94467809796333312988e-02) (35, 9.71987843513488769531e-04) (36, -7.17446729540824890137e-02) (37, 7.37769976258277893066e-02) (38, -4.03863862156867980957e-02) (39, 5.18590286374092102051e-02) (40, 4.45628538727760314941e-02) (41, 9.90054756402969360352e-03) (42, 5.23809418082237243652e-02) (43, 8.93071293830871582031e-04) (44, -1.94184333086013793945e-02) (45, 1.98183432221412658691e-02) (46, -7.83982872962951660156e-03) (47, 2.57489010691642761230e-02) (48, -6.09563924372196197510e-02) (49, -1.04037076234817504883e-02) (50, 9.17405560612678527832e-02) (51, 4.98470142483711242676e-02) (52, 7.90116116404533386230e-02) (53, 5.37652447819709777832e-02) (54, -5.01804798841476440430e-03) (55, 3.28299179673194885254e-02) (56, -8.69555696845054626465e-02) (57, -1.67949274182319641113e-02) (58, -3.93644757568836212158e-02) (59, -9.86047834157943725586e-03) (60, -7.68250375986099243164e-02) (61, 5.00046834349632263184e-02) (62, 7.73571804165840148926e-02) (63, -8.52301418781280517578e-02) (64, -6.72080442309379577637e-02) (65, 7.68039599061012268066e-02) (66, 1.57418400049209594727e-02) (67, -3.89527156949043273926e-02) (68, 5.05809560418128967285e-02) (69, 7.53554627299308776855e-02) (70, -8.70936810970306396484e-02) (71, -4.85619157552719116211e-03) (72, -1.47439986467361450195e-02) (73, 6.52872547507286071777e-02) (74, 9.60368737578392028809e-02) (75, 6.58375695347785949707e-02) (76, -1.48944035172462463379e-02) (77, -1.18029564619064331055e-02) (78, -8.41353833675384521484e-03) (79, 2.41492018103599548340e-02) (80, 7.77933225035667419434e-02) (81, -1.66729837656021118164e-02) (82, -2.60037705302238464355e-02) (83, 5.68049475550651550293e-02) (84, -6.29077404737472534180e-02) (85, 6.89781829714775085449e-02) (86, -1.03651434183120727539e-02) (87, -4.98633086681365966797e-02) (88, -4.78167496621608734131e-02) (89, 5.02703860402107238770e-02) (90, 4.02762219309806823730e-02) (91, -2.46417894959449768066e-02) (92, 2.75075435638427734375e-04) (93, 1.76333934068679809570e-02) (94, -9.87192988395690917969e-03) (95, 3.30670252442359924316e-02) (96, -5.56264817714691162109e-03) (97, -9.41300913691520690918e-02) (98, 9.41143110394477844238e-02) (99, -5.49816899001598358154e-02) (100, 8.12253728508949279785e-02) (101, -9.29793640971183776855e-02) (102, 4.01621088385581970215e-02) (103, -3.35186272859573364258e-02) (104, 7.23078921437263488770e-02) (105, 3.61989811062812805176e-02) (106, -6.76810666918754577637e-02) (107, -4.25865054130554199219e-02) (7, -7.56039768457412719727e-02) (8, 2.39053964614868164062e-02) (9, 8.15627053380012512207e-02) (10, -9.78106483817100524902e-02) (11, -9.27675813436508178711e-02) (12, -4.44410741329193115234e-02) (13, 5.89943006634712219238e-02) (14, -5.56753240525722503662e-02) (15, -7.54628926515579223633e-02) (16, -5.13708442449569702148e-02) (17, -5.53862750530242919922e-03) (18, -2.32796445488929748535e-02) (19, 9.88995358347892761230e-02) (20, -6.52624219655990600586e-02) (21, 5.20785674452781677246e-02) (22, -8.25390219688415527344e-04) (23, 5.23709729313850402832e-02) (24, -5.77933602035045623779e-02) (25, -6.77583664655685424805e-02) (26, -5.31916730105876922607e-02) (27, -5.19234500825405120850e-02) (28, -7.36440494656562805176e-02) (29, -8.17336142063140869141e-03) (30, -7.06980824470520019531e-02) (31, -6.66234120726585388184e-02) (32, -6.80112540721893310547e-02) (33, -4.21671569347381591797e-03) (34, -9.43155139684677124023e-02) (35, 6.81877359747886657715e-02) (36, 2.81022265553474426270e-02) (37, -3.69020253419876098633e-02) (38, 9.25837680697441101074e-02) (39, -4.79923784732818603516e-02) (40, -5.53393214941024780273e-02) (41, 9.47731211781501770020e-02) (42, -4.07599583268165588379e-02) (43, 2.19605863094329833984e-04) (44, 5.37674203515052795410e-02) (45, 3.56473028659820556641e-03) (46, 2.47567072510719299316e-02) (47, -9.76034328341484069824e-02) (48, 9.80260893702507019043e-02) (49, -9.85229313373565673828e-02) (50, -9.87038910388946533203e-02) (51, -6.72363340854644775391e-02) (52, 5.35556301474571228027e-02) (53, 4.70720231533050537109e-04) (54, 8.51346477866172790527e-02) (55, 9.57622751593589782715e-02) (56, 3.27123478055000305176e-02) (57, -6.80570304393768310547e-02) (58, -5.61611764132976531982e-02) (59, 5.90683147311210632324e-02) (60, 2.37696021795272827148e-02) (61, -2.68592536449432373047e-02) (62, 9.24449041485786437988e-02) (63, 5.57583644986152648926e-02) (64, 6.89240321516990661621e-02) (65, 9.81293842196464538574e-02) (66, 2.39460840821266174316e-02) (67, -2.97374278306961059570e-03) (68, -3.87726426124572753906e-02) (69, 1.65298432111740112305e-02) (70, 4.90338876843452453613e-02) (71, 5.88802993297576904297e-03) (72, 1.13029703497886657715e-02) (73, -9.17260721325874328613e-02) (74, -9.38923582434654235840e-02) (75, -3.49296182394027709961e-02) (76, 1.18386521935462951660e-02) (77, 3.08643653988838195801e-02) (78, -3.25330421328544616699e-02) (79, 9.86473262310028076172e-03) (80, 3.23414281010627746582e-02) (81, -3.12369316816329956055e-02) (82, 4.26284149289131164551e-02) (83, -1.41029432415962219238e-02) (84, 6.92337825894355773926e-02) (85, 2.77630612254142761230e-02) (86, -1.83406695723533630371e-02) (87, 1.94613635540008544922e-03) (88, 5.97060248255729675293e-02) (89, 2.54981592297554016113e-02) (90, -3.89855578541755676270e-02) (91, -1.65243744850158691406e-02) (92, 9.86388996243476867676e-02) (93, -4.65406589210033416748e-02) (94, -6.07660226523876190186e-02) (95, 6.75629451870918273926e-02) (96, -4.84112799167633056641e-02) (97, 6.31800666451454162598e-02) (98, -3.54108065366744995117e-02) (99, 1.28160864114761352539e-02) (100, -2.02900841832160949707e-02) (101, -8.63769203424453735352e-02) (102, -8.12958776950836181641e-02) (103, 9.10128876566886901855e-02) (104, -7.81029909849166870117e-02) (105, -7.51882344484329223633e-02) (106, -4.39167320728302001953e-02) (107, 3.37356552481651306152e-02) (7, 5.56761100888252258301e-02) (8, 2.35502272844314575195e-02) (9, -5.63996098935604095459e-02) (10, -1.19824558496475219727e-02) (11, 9.23132970929145812988e-02) (12, 8.62287953495979309082e-02) (13, 7.39145949482917785645e-02) (14, 6.15470632910728454590e-02) (15, 1.39918550848960876465e-02) (16, -4.44260723888874053955e-02) (17, -3.65067943930625915527e-02) (18, -2.63021141290664672852e-02) (19, 8.10720846056938171387e-02) (20, 2.45076566934585571289e-02) (21, 5.71735128760337829590e-02) (22, 7.97109827399253845215e-02) (23, 7.79669955372810363770e-02) (24, 9.64074805378913879395e-02) (25, 4.72739264369010925293e-02) (26, -7.04442858695983886719e-02) (27, 5.95875456929206848145e-02) (28, -8.81368890404701232910e-02) (29, 4.23718020319938659668e-02) (30, -6.07025288045406341553e-02) (31, -7.45138078927993774414e-02) (32, 6.10759183764457702637e-02) (33, -6.96896463632583618164e-02) (34, -5.26168011128902435303e-02) (35, 8.58876779675483703613e-02) (36, -1.36063843965530395508e-02) (37, 8.11188593506813049316e-02) (38, 4.15638014674186706543e-02) (39, -9.00561586022377014160e-02) (40, -7.52807483077049255371e-02) (41, -7.04186558723449707031e-02) (42, -9.77428704500198364258e-02) (43, -8.90519469976425170898e-02) (44, -9.65040549635887145996e-02) (45, 6.38042017817497253418e-02) (46, 2.49399170279502868652e-02) (47, -4.09301295876502990723e-02) (48, -7.27025941014289855957e-02) (49, 9.86377969384193420410e-02) (50, -5.98580464720726013184e-02) (51, 5.18050566315650939941e-02) (52, 5.58113083243370056152e-02) (53, -8.01470652222633361816e-02) (54, 2.97720506787300109863e-02) (55, 5.22188022732734680176e-02) (56, 6.71268627047538757324e-02) (57, 5.93277588486671447754e-02) (58, 1.18063539266586303711e-02) (59, 7.89899751543998718262e-02) (60, 1.69955193996429443359e-03) (61, 5.11038377881050109863e-02) (62, -9.55238342285156250000e-02) (63, -3.72245311737060546875e-02) (64, 8.14141705632209777832e-02) (65, -4.81406338512897491455e-02) (66, -5.13368509709835052490e-02) (67, -3.21922004222869873047e-02) (68, -6.70217722654342651367e-02) (69, 9.02269557118415832520e-02) (70, -2.22483575344085693359e-02) (71, -4.23025265336036682129e-02) (72, -8.01917016506195068359e-02) (73, -1.99912264943122863770e-02) (74, -3.13544720411300659180e-02) (75, -7.66957551240921020508e-02) (76, -5.61870299279689788818e-02) (77, 9.35854390263557434082e-02) (78, -1.76258832216262817383e-02) (79, -2.88896262645721435547e-02) (80, 9.22232344746589660645e-02) (81, 2.25160717964172363281e-02) (82, -7.70845711231231689453e-02) (83, 4.80345562100410461426e-02) (84, 4.23690155148506164551e-02) (85, 5.26874735951423645020e-02) (86, 2.53342092037200927734e-04) (87, 9.49586927890777587891e-03) (88, 1.20152384042739868164e-02) (89, -8.79402980208396911621e-02) (90, -1.15141645073890686035e-02) (91, -8.62852185964584350586e-02) (92, 6.31635263562202453613e-02) (93, -7.03798979520797729492e-03) (94, -2.35097482800483703613e-02) (95, 4.45777103304862976074e-02) (96, 4.48213890194892883301e-02) (97, 2.51534059643745422363e-02) (98, -8.76144915819168090820e-02) (99, 7.77996107935905456543e-02) (100, 1.53803601861000061035e-02) (101, -9.86285507678985595703e-03) (102, -6.45029246807098388672e-02) (103, 3.51886674761772155762e-02) (104, 7.01459273695945739746e-02) (105, 4.14260476827621459961e-03) (106, 5.84929063916206359863e-02) (107, -8.60411003232002258301e-02) (7, -2.27194279432296752930e-03) (8, -5.91329820454120635986e-02) (9, -1.49307250976562500000e-02) (10, -1.00487023591995239258e-02) (11, 6.33830949664115905762e-02) (12, 7.98471271991729736328e-03) (13, -6.20141513645648956299e-02) (14, 5.75210154056549072266e-03) (15, -3.93278263509273529053e-02) (16, 3.82391884922981262207e-02) (17, -8.47520381212234497070e-02) (18, 7.26874098181724548340e-02) (19, 5.02988919615745544434e-02) (20, 3.73379886150360107422e-03) (21, 8.64021852612495422363e-02) (22, 1.34624242782592773438e-02) (23, 9.66958031058311462402e-02) (24, -3.71075496077537536621e-02) (25, -4.19598706066608428955e-02) (26, 4.15171906352043151855e-02) (27, 8.80458578467369079590e-02) (28, -2.95743644237518310547e-02) (29, 1.93167775869369506836e-02) (30, 3.42621654272079467773e-03) (31, 6.05627968907356262207e-02) (32, 5.48138692975044250488e-02) (33, -6.13851211965084075928e-02) (34, 3.07087227702140808105e-02) (35, -4.10435274243354797363e-02) (36, 9.71077755093574523926e-02) (37, 4.46676090359687805176e-02) (38, 5.66845312714576721191e-02) (39, -6.20251968502998352051e-02) (40, -7.02631175518035888672e-02) (41, -5.33641725778579711914e-02) (42, -9.86421108245849609375e-02) (43, 3.77215817570686340332e-02) (44, -1.53783261775970458984e-02) (45, 7.10998475551605224609e-03) (46, 9.83937606215476989746e-02) (47, -7.71391317248344421387e-02) (48, 2.23579555749893188477e-02) (49, 7.10811689496040344238e-02) (50, 7.31597617268562316895e-02) (51, -7.39082545042037963867e-02) (52, 5.74833676218986511230e-02) (53, -1.33778005838394165039e-02) (54, -7.72124454379081726074e-02) (55, -7.96241834759712219238e-02) (56, 4.46623340249061584473e-02) (57, 6.43047317862510681152e-02) (58, -9.15783345699310302734e-02) (59, -8.49120318889617919922e-02) (60, -1.63784772157669067383e-02) (61, 1.18478909134864807129e-02) (62, 7.56507590413093566895e-02) (63, -6.15646131336688995361e-02) (64, 5.04627749323844909668e-02) (65, 6.35947287082672119141e-03) (66, -2.60813534259796142578e-03) (67, 4.75705489516258239746e-02) (68, -4.89729158580303192139e-02) (69, -4.59236092865467071533e-02) (70, 8.55453684926033020020e-02) (71, -1.92360356450080871582e-02) (72, 7.12215900421142578125e-04) (73, 8.69032517075538635254e-02) (74, -8.15144404768943786621e-02) (75, 8.53338912129402160645e-02) (76, -5.98676502704620361328e-03) (77, -8.31206738948822021484e-02) (78, -9.18052420020103454590e-02) (79, -8.36288109421730041504e-02) (80, 8.79605039954185485840e-02) (81, 8.13545361161231994629e-02) (82, -5.75370639562606811523e-02) (83, 4.54438701272010803223e-02) (84, -3.20232659578323364258e-02) (85, -3.47495079040527343750e-02) (86, 6.58196881413459777832e-02) (87, -8.73609408736228942871e-02) (88, -7.04447701573371887207e-02) (89, 7.42413476109504699707e-02) (90, -7.22729712724685668945e-02) (91, 1.31767541170120239258e-02) (92, -1.39107555150985717773e-02) (93, -9.66222211718559265137e-02) (94, 5.16121461987495422363e-02) (95, -6.34479969739913940430e-02) (96, 9.73725318908691406250e-03) (97, -5.09960018098354339600e-02) (98, 8.41225609183311462402e-02) (99, 6.07643350958824157715e-02) (100, 3.08039039373397827148e-03) (101, 6.96679130196571350098e-02) (102, -5.84716983139514923096e-02) (103, -9.62073951959609985352e-02) (104, 5.65711632370948791504e-02) (105, -3.99861410260200500488e-02) (106, 8.91265049576759338379e-02) (107, -4.94155995547771453857e-02) (7, -2.31068134307861328125e-02) (8, 9.73212644457817077637e-02) (9, -3.30444127321243286133e-02) (10, -3.51463109254837036133e-02) (11, 7.86757990717887878418e-02) (12, 9.41852480173110961914e-03) (13, -8.97024422883987426758e-02) (14, -5.33474795520305633545e-02) (15, 7.46690109372138977051e-02) (16, 7.61172398924827575684e-02) (17, -4.07084189355373382568e-02) (18, -9.57757532596588134766e-02) (19, 5.03586009144783020020e-02) (20, -1.29813924431800842285e-02) (21, 1.74010023474693298340e-02) (22, -6.35521709918975830078e-02) (23, -9.60361212491989135742e-03) (24, -3.09868603944778442383e-02) (25, -2.70001590251922607422e-02) (26, -9.98663604259490966797e-02) (27, 1.80171504616737365723e-02) (28, -4.28776033222675323486e-02) (29, 6.08979687094688415527e-02) (30, -7.89024680852890014648e-02) (31, -7.32096880674362182617e-02) (32, -9.75737273693084716797e-02) (33, -7.51098543405532836914e-02) (34, 8.33614692091941833496e-02) (35, -3.75598669052124023438e-02) (36, -8.59833583235740661621e-02) (37, -6.60541355609893798828e-02) (38, 3.93333211541175842285e-02) (39, -8.86621028184890747070e-02) (40, 9.01460647583007812500e-04) (41, -9.58129912614822387695e-02) (42, 9.00136902928352355957e-02) (43, -8.96800234913825988770e-02) (44, -8.55154320597648620605e-02) (45, -6.33337795734405517578e-02) (46, 8.49890038371086120605e-02) (47, 9.06018093228340148926e-02) (48, -4.04220074415206909180e-03) (49, 8.92132446169853210449e-02) (50, 4.09604087471961975098e-02) (51, 8.29764083027839660645e-02) (52, 6.61424547433853149414e-03) (53, 7.74082466959953308105e-02) (54, -2.66272053122520446777e-02) (55, 7.56273940205574035645e-02) (56, -4.95919175446033477783e-02) (57, -2.64935642480850219727e-02) (58, -6.35547190904617309570e-03) (59, 7.53048807382583618164e-03) (60, -6.55955970287322998047e-02) (61, 1.47420614957809448242e-02) (62, 3.43207940459251403809e-02) (63, -6.31693303585052490234e-02) (64, 3.96322086453437805176e-02) (65, 1.76822692155838012695e-02) (66, -7.29195773601531982422e-04) (67, 5.36488518118858337402e-02) (68, 5.16281351447105407715e-02) (69, -6.13958798348903656006e-02) (70, 6.49867579340934753418e-02) (71, -4.74704094231128692627e-02) (72, -5.72088696062564849854e-02) (73, 5.50004467368125915527e-02) (74, -3.71504276990890502930e-02) (75, -4.27243001759052276611e-02) (76, 9.16666612029075622559e-02) (77, -5.21614328026771545410e-02) (78, -5.21224886178970336914e-02) (79, -1.23755335807800292969e-02) (80, -6.29481896758079528809e-02) (81, 8.88379290699958801270e-02) (82, -2.93991342186927795410e-02) (83, 4.36660572886466979980e-02) (84, 6.62461593747138977051e-02) (85, 4.39736619591712951660e-02) (86, 1.92934423685073852539e-02) (87, -8.33457559347152709961e-02) (88, -8.25199037790298461914e-02) (89, -8.70620235800743103027e-02) (90, 2.41847261786460876465e-02) (91, -4.81155030429363250732e-02) (92, 2.76800468564033508301e-02) (93, -4.14944775402545928955e-02) (94, -1.12848356366157531738e-02) (95, -3.26877459883689880371e-02) (96, 7.61877968907356262207e-02) (97, 8.79859700798988342285e-02) (98, -7.90388956665992736816e-02) (99, 2.78159305453300476074e-02) (100, -7.34099075198173522949e-02) (101, 8.59478637576103210449e-02) (102, 8.03455188870429992676e-02) (103, -3.06187719106674194336e-02) (104, 4.09483090043067932129e-02) (105, -5.68049140274524688721e-02) (106, 2.66569331288337707520e-02) (107, 3.26149836182594299316e-02) (7, -8.96634161472320556641e-03) (8, 7.45344385504722595215e-02) (9, -7.97605589032173156738e-02) (10, 2.80854776501655578613e-02) (11, 6.33723512291908264160e-02) (12, -9.15969163179397583008e-03) (13, -2.82484740018844604492e-02) (14, 2.96185091137886047363e-02) (15, -6.51860237121582031250e-02) (16, 9.10449698567390441895e-02) (17, 4.62727621197700500488e-02) (18, -4.77059297263622283936e-02) (19, -9.60170552134513854980e-02) (20, -2.95425206422805786133e-02) (21, 4.17856127023696899414e-03) (22, 3.16629931330680847168e-02) (23, 2.89630070328712463379e-02) (24, 9.28937271237373352051e-02) (25, 9.89752486348152160645e-02) (26, 5.15079498291015625000e-03) (27, 8.08796957135200500488e-02) (28, -8.00636485219001770020e-02) (29, -6.70332908630371093750e-02) (30, -9.25302132964134216309e-02) (31, -9.41157862544059753418e-02) (32, -8.66877734661102294922e-02) (33, -2.31489837169647216797e-02) (34, 4.68325242400169372559e-02) (35, -4.34926860034465789795e-02) (36, -9.64920595288276672363e-02) (37, -2.05525010824203491211e-02) (38, 4.75409701466560363770e-02) (39, 7.80423805117607116699e-02) (40, -3.13058495521545410156e-04) (41, -2.43735611438751220703e-02) (42, 4.14147302508354187012e-02) (43, 9.05272439122200012207e-02) (44, 4.73779514431953430176e-02) (45, -2.89667621254920959473e-02) (46, -7.46587738394737243652e-02) (47, 3.84229347109794616699e-02) (48, -8.26940014958381652832e-02) (49, -2.23647058010101318359e-02) (50, 4.24058809876441955566e-02) (51, -1.22365206480026245117e-02) (52, 8.18138644099235534668e-02) (53, -2.59311348199844360352e-02) (54, -8.32735151052474975586e-02) (55, 7.47075900435447692871e-02) (56, -2.69558876752853393555e-02) (57, 2.18772739171981811523e-02) (58, 5.55872842669486999512e-02) (59, -7.01953470706939697266e-03) (60, 5.48439994454383850098e-02) (61, 6.30570724606513977051e-02) (62, -1.13532692193984985352e-03) (63, 6.81562349200248718262e-02) (64, -6.00919090211391448975e-02) (65, -5.43028078973293304443e-02) (66, -7.53364562988281250000e-02) (67, -5.65839670598506927490e-02) (68, 2.51447036862373352051e-02) (69, 7.22045078873634338379e-02) (70, -7.85415917634963989258e-02) (71, -7.51683637499809265137e-02) (72, -5.21690510213375091553e-02) (73, 6.28731325268745422363e-02) (74, -8.46411138772964477539e-02) (75, 9.52089056372642517090e-02) (76, -6.60936236381530761719e-02) (77, -5.92998825013637542725e-02) (78, 3.36318388581275939941e-02) (79, -4.87876310944557189941e-02) (80, 1.83354169130325317383e-02) (81, -2.39622890949249267578e-02) (82, 3.89758422970771789551e-02) (83, 1.49272382259368896484e-04) (84, 5.01065775752067565918e-02) (85, 5.57023361325263977051e-02) (86, -2.51431390643119812012e-02) (87, -7.68493115901947021484e-02) (88, -2.24203839898109436035e-02) (89, -6.95558562874794006348e-02) (90, 1.61311477422714233398e-02) (91, -6.75763934850692749023e-02) (92, 9.35012176632881164551e-02) (93, -8.50041806697845458984e-02) (94, -9.94201600551605224609e-02) (95, -6.65906965732574462891e-02) (96, -3.93069796264171600342e-02) (97, -7.47566223144531250000e-02) (98, -2.31746584177017211914e-02) (99, 8.58377143740653991699e-02) (100, 9.74478945136070251465e-02) (101, -1.71624869108200073242e-03) (102, -8.93306508660316467285e-02) (103, -5.47211617231369018555e-02) (104, -3.88431139290332794189e-02) (105, -7.39717632532119750977e-02) (106, -5.95122538506984710693e-02) (107, -4.93673980236053466797e-03) (7, -3.32716479897499084473e-02) (8, 7.41195753216743469238e-02) (9, 4.62756231427192687988e-02) (10, 8.50637629628181457520e-02) (11, -4.98427040874958038330e-02) (12, -1.47485211491584777832e-02) (13, -1.47869586944580078125e-02) (14, -9.97361242771148681641e-02) (15, -5.90461790561676025391e-02) (16, 6.00699111819267272949e-02) (17, -7.65854343771934509277e-02) (18, 1.85334309935569763184e-02) (19, 9.05140563845634460449e-02) (20, 3.95457223057746887207e-02) (21, 5.09570464491844177246e-02) (22, 8.40152576565742492676e-02) (23, 5.45415356755256652832e-02) (24, 5.15368953347206115723e-02) (25, -8.25754255056381225586e-02) (26, -8.47654491662979125977e-02) (27, 7.67802670598030090332e-02) (28, -5.75008243322372436523e-03) (29, -9.89277362823486328125e-02) (30, 7.42281749844551086426e-02) (31, 9.25336703658103942871e-02) (32, -8.82583856582641601562e-02) (33, -8.04929956793785095215e-02) (34, -4.63094487786293029785e-02) (35, -6.22301511466503143311e-02) (36, -4.00052480399608612061e-02) (37, 4.87538054585456848145e-02) (38, 4.49820607900619506836e-03) (39, -6.58856630325317382812e-02) (40, -4.97056543827056884766e-03) (41, -1.04380249977111816406e-02) (42, -1.57283693552017211914e-02) (43, 8.02809223532676696777e-02) (44, 7.47750177979469299316e-02) (45, -1.54644921422004699707e-02) (46, -7.87652581930160522461e-02) (47, 3.48449274897575378418e-02) (48, 7.95008242130279541016e-03) (49, 3.97681817412376403809e-02) (50, 2.53589823842048645020e-02) (51, -5.25042116641998291016e-02) (52, -9.27476584911346435547e-03) (53, 9.37423855066299438477e-03) (54, -9.79626774787902832031e-02) (55, -5.77378794550895690918e-02) (56, 2.67988219857215881348e-02) (57, -8.27281177043914794922e-02) (58, -8.09576064348220825195e-02) (59, -7.89512693881988525391e-02) (60, -8.16558524966239929199e-02) (61, 9.32705625891685485840e-02) (62, -8.64176005125045776367e-02) (63, -6.99142366647720336914e-02) (64, -8.72224345803260803223e-02) (65, -3.27270478010177612305e-02) (66, -3.21443825960159301758e-02) (67, -2.72276848554611206055e-02) (68, -8.39732438325881958008e-02) (69, 7.23538175225257873535e-02) (70, 6.88664615154266357422e-03) (71, 1.10561996698379516602e-02) (72, -3.80842089653015136719e-02) (73, 9.11582782864570617676e-02) (74, -8.66287946701049804688e-03) (75, -6.33091926574707031250e-02) (76, -2.43062078952789306641e-02) (77, 1.25718563795089721680e-02) (78, 7.15357437729835510254e-02) (79, 8.36438611149787902832e-02) (80, -4.76599596440792083740e-02) (81, -3.10529023408889770508e-03) (82, -6.88603371381759643555e-02) (83, 4.30652722716331481934e-02) (84, -9.37310531735420227051e-02) (85, -6.68230205774307250977e-02) (86, 8.53273943066596984863e-02) (87, 3.30677703022956848145e-02) (88, -4.95511367917060852051e-02) (89, -9.56302136182785034180e-02) (90, 5.41164949536323547363e-02) (91, -3.12069877982139587402e-02) (92, 9.76403430104255676270e-02) (93, 6.76989033818244934082e-02) (94, -1.12123042345046997070e-03) (95, -8.95820856094360351562e-02) (96, -6.50281533598899841309e-02) (97, 6.67343810200691223145e-02) (98, -1.68097764253616333008e-02) (99, -4.90013919770717620850e-02) (100, 3.90881970524787902832e-02) (101, 9.00768712162971496582e-02) (102, 6.20548203587532043457e-02) (103, -9.89960059523582458496e-02) (104, 8.12351629137992858887e-02) (105, -4.66080717742443084717e-02) (106, -6.23051896691322326660e-02) (107, -4.30710427463054656982e-02) (7, 6.59637972712516784668e-02) (8, -9.07694548368453979492e-02) (9, -5.94271719455718994141e-02) (10, -8.16961675882339477539e-02) (11, 6.12525641918182373047e-03) (12, -2.82875150442123413086e-02) (13, 6.13691136240959167480e-02) (14, 1.23942121863365173340e-02) (15, 4.88947331905364990234e-03) (16, 4.66965064406394958496e-02) (17, -5.45380227267742156982e-02) (18, 5.53383305668830871582e-02) (19, 5.10662868618965148926e-02) (20, 9.95784774422645568848e-02) (21, -7.58686512708663940430e-02) (22, 4.87066581845283508301e-02) (23, 6.72773793339729309082e-02) (24, 2.30101197957992553711e-02) (25, 5.91245666146278381348e-02) (26, -9.77507829666137695312e-02) (27, -1.02554932236671447754e-02) (28, -5.76852113008499145508e-02) (29, -4.67521660029888153076e-02) (30, -7.11672902107238769531e-02) (31, -6.76083341240882873535e-02) (32, -8.46973583102226257324e-02) (33, -7.01632872223854064941e-02) (34, -8.63731727004051208496e-02) (35, -3.13054248690605163574e-02) (36, -3.24684828519821166992e-02) (37, -2.94442102313041687012e-02) (38, -6.53416365385055541992e-02) (39, -2.32379287481307983398e-02) (40, 1.11286193132400512695e-02) (41, -4.70378063619136810303e-02) (42, 8.28873291611671447754e-02) (43, 8.28411057591438293457e-02) (44, -8.56686979532241821289e-02) (45, -4.71846014261245727539e-03) (46, -1.22694224119186401367e-02) (47, 6.10278025269508361816e-02) (48, 4.07435223460197448730e-02) (49, -5.69310896098613739014e-02) (50, 1.20941027998924255371e-02) (51, 4.03219982981681823730e-02) (52, -3.27997356653213500977e-02) (53, -3.91992591321468353271e-02) (54, 7.59936869144439697266e-03) (55, 9.02103856205940246582e-02) (56, -8.00746977329254150391e-02) (57, 9.84857976436614990234e-03) (58, -2.00451090931892395020e-02) (59, -3.77599075436592102051e-02) (60, 6.30964115262031555176e-02) (61, 8.78760963678359985352e-03) (62, -5.36824017763137817383e-03) (63, 7.83990696072578430176e-02) (64, 3.86243090033531188965e-02) (65, 8.25859606266021728516e-03) (66, -5.29063679277896881104e-02) (67, -9.38441678881645202637e-02) (68, 7.88143947720527648926e-02) (69, -1.82480067014694213867e-02) (70, -1.70820951461791992188e-02) (71, -1.00570023059844970703e-02) (72, 3.47141847014427185059e-02) (73, -3.41947600245475769043e-02) (74, -2.72158980369567871094e-02) (75, 4.90454956889152526855e-02) (76, 6.10867813229560852051e-02) (77, 6.05146810412406921387e-02) (78, 1.00733041763305664062e-02) (79, 1.83029472827911376953e-03) (80, -9.64164137840270996094e-02) (81, -7.78326019644737243652e-02) (82, -5.78477121889591217041e-02) (83, -2.92161554098129272461e-02) (84, -1.70318558812141418457e-02) (85, 4.97516468167304992676e-02) (86, -3.90057675540447235107e-02) (87, 2.89344787597656250000e-03) (88, -4.03997600078582763672e-02) (89, 4.09491136670112609863e-02) (90, 6.51335492730140686035e-02) (91, -7.73033425211906433105e-02) (92, -5.02632744610309600830e-02) (93, -4.02346923947334289551e-02) (94, -9.89042818546295166016e-02) (95, 8.83610472083091735840e-02) (96, 6.80239126086235046387e-02) (97, -5.18106482923030853271e-02) (98, 9.45168808102607727051e-02) (99, 4.68382909893989562988e-02) (100, 2.99413427710533142090e-02) (101, -2.25652083754539489746e-02) (102, -6.32187128067016601562e-02) (103, -3.53444665670394897461e-02) (104, 4.32400181889533996582e-02) (105, 9.56539064645767211914e-03) (106, -8.62989649176597595215e-02) (107, 4.32680547237396240234e-03) (7, 